587 25
</s> -0.39017 -0.31737 -0.33437 0.51933 -0.77924 0.011293 0.10259 0.70525 0.57454 -0.38652 -0.51215 0.18942 1.6379 -0.1228 0.087572 -0.061625 -0.85504 -0.57492 -0.74729 -0.33104 0.64241 0.50269 0.5511 -0.78284 0.017196 
2024 0.85576 -0.22425 -0.51961 -0.55278 0.97261 -0.61198 -0.94909 -1.1467 -1.8145 -0.52608 0.77871 0.25961 -2.4454 -0.74909 -0.44867 1.6287 0.15086 0.1183 1.521 0.77128 -1.6635 -0.90255 -1.6591 0.18021 -0.45204 
best 0.66436 0.01722 -0.66615 -0.33006 0.58072 -0.36345 -0.6708 -0.74394 -1.0568 -0.35793 0.43133 0.35605 -1.6748 -0.73412 -0.38789 1.2549 -0.31265 -0.015883 1.1673 0.78095 -1.2918 -0.62124 -1.1679 -0.067171 -0.31343 
us 0.51503 -0.2092 0.30403 -0.068489 -0.37887 -0.026858 0.11966 0.015426 -0.48254 -0.22963 0.086414 -0.66721 -0.27163 -0.054564 0.32333 -0.30854 0.074832 -0.20461 -0.0012926 0.10236 0.26753 -0.36934 -0.11639 0.57572 -0.24182 
product 0.4694 1.1491 -1.0413 -0.11269 -0.12778 -0.05078 0.12077 -0.29332 2.0658 1.492 -0.2429 0.10413 1.4662 0.081558 -0.49824 0.013551 0.10379 -0.33169 -0.71931 -1.3287 0.3361 -0.24243 0.25223 -0.71906 0.068007 
html -0.024888 -0.93407 0.58958 0.071511 -0.26303 -0.35531 -0.19159 0.075627 -0.57848 -0.48954 0.53536 0.30951 -0.099657 -0.28096 0.12963 0.43261 0.23051 -0.042654 0.12797 -0.10349 -0.0051892 -0.03254 -0.41172 -0.26053 -0.17828 
insurance 0.9457 -0.24469 0.26627 0.14637 -1.2941 0.33637 0.43934 0.39994 0.17784 -0.29517 -0.087279 -0.92173 0.23624 -0.39564 0.68841 -0.87413 -0.70394 -0.754 -0.28826 0.29481 1.0061 -0.49262 0.20695 0.51318 -0.32212 
12345 0.079192 0.067605 -0.19471 0.078469 -0.15125 -0.11651 -0.03482 -0.0078107 0.74251 0.38341 0.14012 0.44761 0.47667 -0.25628 -0.15074 0.33484 -0.06843 -0.12084 -0.16016 -0.38353 0.078598 -0.040343 -0.030011 -0.64759 -0.011786 
p 0.79678 0.05631 -1.1976 -0.1171 0.026399 -0.45381 -0.64755 -0.55001 -0.21475 -0.14583 0.1158 0.31086 -0.33952 -0.84069 -0.45063 1.2854 -0.69762 -0.5474 0.51336 0.13716 -0.73224 -0.55643 -0.903 -0.63507 -0.37244 
chicago -0.11241 -1.0734 0.97808 0.0333 -0.21446 -0.26062 -0.052581 0.13628 -1.0752 -0.72207 0.43536 -0.26261 -0.19588 0.16065 0.44332 -0.067216 0.55164 0.091926 0.0069779 -0.080069 0.23857 0.015336 -0.21683 0.44019 -0.18021 
services -1.1801 0.27801 0.28635 0.10015 0.5863 0.28471 0.15828 0.26396 0.2403 0.11875 -0.35292 0.45112 0.3168 0.67593 -0.18303 -0.33432 0.28149 0.62453 -0.2275 0.013131 -0.067996 0.85726 0.69505 -0.12884 0.46127 
search -0.24945 -1.0544 0.9573 0.17326 -0.27113 -0.23014 -0.099623 0.20536 -0.76591 -0.63204 0.48281 0.21781 -0.048282 -0.031904 0.27992 0.17069 0.3647 0.13812 -0.006721 -0.080428 0.14387 0.11107 -0.18903 -0.0044252 -0.091428 
en 0.60796 0.027837 -0.29002 -0.019477 -0.44198 0.03781 0.0028248 -0.021164 -0.041292 -0.098773 -0.064326 -0.42453 0.0069227 -0.24787 0.17966 -0.11153 -0.39941 -0.47344 0.02948 0.096053 0.25383 -0.34104 -0.14501 0.18621 -0.26321 
cars 0.032469 -0.55165 0.59385 -0.13032 0.14257 -0.12549 -0.13515 -0.11275 -0.96952 -0.48382 0.4152 -0.098454 -0.83241 -0.0042969 0.19968 0.13242 0.36504 0.19017 0.34267 0.27995 -0.24364 -0.094943 -0.37615 0.44263 -0.11092 
a 0.28958 -0.28331 -0.12769 -0.13422 0.08717 -0.27884 -0.30123 -0.25791 -0.66762 -0.29406 0.17754 -0.11246 -0.46538 -0.21709 -0.059924 0.44581 0.0324 -0.14485 0.31533 0.075939 -0.29611 -0.27943 -0.49468 0.14405 -0.23381 
election 0.2208 0.64261 -0.61103 -0.036007 0.033582 0.0011412 0.0195 -0.1459 0.81053 0.64106 -0.21612 0.002014 0.53326 0.0093624 -0.29718 0.061531 -0.076914 -0.15021 -0.19917 -0.44193 -0.0052596 -0.097834 0.10897 -0.26183 0.066987 
pricing 0.22201 0.60907 -0.61226 -0.067665 0.054272 -0.025794 0.033038 -0.24377 0.89406 0.71252 -0.14567 -0.029054 0.61133 0.0884 -0.23049 0.063098 0.070692 -0.17221 -0.29945 -0.57503 0.11154 -0.1639 0.049803 -0.32202 0.040747 
politics 0.22037 0.071494 -0.23428 -0.11108 0.31417 -0.098488 -0.29112 -0.3263 -0.39869 -0.10943 0.19005 0.12322 -0.62543 -0.2277 -0.16455 0.46448 -0.089766 0.065183 0.48326 0.31452 -0.55763 -0.20395 -0.38495 -0.040769 -0.10392 
01 0.013837 -0.3142 0.30299 -0.066594 0.16515 -0.080764 -0.1508 -0.078442 -0.69044 -0.26916 0.2441 -0.034127 -0.56312 -0.042679 0.10642 0.17485 0.15788 0.077822 0.25426 0.21825 -0.22812 -0.09805 -0.30602 0.24878 -0.11708 
health 0.58169 -0.18915 0.14064 0.11294 -0.82673 0.20763 0.32102 0.28347 0.047618 -0.24514 -0.099723 -0.61528 0.1048 -0.29714 0.48657 -0.57356 -0.47854 -0.43891 -0.15955 0.30403 0.6774 -0.3168 0.10022 0.36878 -0.21692 
blog 0.64912 0.26638 -0.96111 -0.13412 0.091465 -0.24652 -0.44369 -0.42828 -0.16697 0.011868 -0.0080177 0.05278 -0.23556 -0.4779 -0.348 0.78887 -0.50913 -0.43804 0.37511 0.031654 -0.5442 -0.41256 -0.54127 -0.32369 -0.25343 
marketing 0.48364 0.46653 -0.94449 -0.11587 0.0086027 -0.18369 -0.19539 -0.3359 0.38435 0.33519 -0.10766 -0.019971 0.21565 -0.26891 -0.2796 0.42936 -0.31852 -0.35707 0.048738 -0.21533 -0.2557 -0.30424 -0.29258 -0.35911 -0.093778 
to 0.60491 -0.043853 -0.19292 0.073453 -0.61192 0.15764 0.16738 0.11838 0.044848 -0.18567 -0.14761 -0.51136 0.073946 -0.35285 0.2933 -0.28967 -0.5838 -0.51797 -0.069706 0.29446 0.38208 -0.32045 0.033134 0.18819 -0.22192 
article 0.60808 0.28119 -0.92362 -0.10707 -0.097743 -0.1705 -0.26551 -0.30528 0.08654 0.072491 -0.071881 -0.11747 0.0072482 -0.44143 -0.19269 0.54112 -0.47324 -0.48922 0.18652 -0.028354 -0.28632 -0.43579 -0.41413 -0.26758 -0.26561 
news 0.33184 0.03724 -0.32795 -0.19696 0.28966 -0.14823 -0.31172 -0.37246 -0.46309 -0.14175 0.18816 0.19428 -0.79771 -0.37366 -0.22492 0.64169 -0.14416 -0.023723 0.52922 0.35523 -0.58202 -0.23852 -0.52206 -0.078337 -0.1292 
stocks -0.087923 -0.32973 0.39525 -0.074904 0.29502 -0.062759 -0.1507 -0.10917 -0.62665 -0.28573 0.29821 0.18908 -0.75676 -0.074515 0.045135 0.16632 0.19887 0.29172 0.37182 0.4174 -0.35925 0.032434 -0.28316 0.16213 -0.037229 
story 0.564 0.33889 -0.84899 -0.049201 -0.12222 -0.15352 -0.19961 -0.22558 0.26441 0.13351 -0.12126 -0.086755 0.16595 -0.35203 -0.22354 0.40954 -0.45477 -0.42732 0.034484 -0.096325 -0.16825 -0.32913 -0.28751 -0.25174 -0.18002 
ai 0.23007 0.050455 -0.31919 -0.096758 0.058187 -0.071502 -0.13338 -0.16173 -0.17719 -0.018927 0.028609 0.060254 -0.21324 -0.15436 -0.10469 0.29634 -0.15689 -0.11559 0.19536 0.066883 -0.27613 -0.18078 -0.27164 -0.03368 -0.13409 
car 0.11394 -0.45174 0.36687 -0.020943 -0.17069 -0.088875 -0.015386 0.060256 -0.52284 -0.35083 0.17343 -0.36605 -0.14877 0.069269 0.28014 -0.14595 0.14537 -0.075209 0.007923 0.037686 0.18957 -0.14096 -0.14025 0.36709 -0.17044 
illinois 0.039246 -0.58003 0.55639 -0.024028 -0.12351 -0.14413 -0.00071076 0.075139 -0.72236 -0.42774 0.2232 -0.38053 -0.21256 0.19609 0.29851 -0.14288 0.37656 -0.011972 0.013566 -0.039645 0.20186 -0.071791 -0.11161 0.50364 -0.1254 
personal 0.43147 -0.053279 0.13589 0.12429 -0.67669 0.232 0.31238 0.26364 0.18534 -0.15854 -0.12435 -0.53921 0.2023 -0.23675 0.34024 -0.58189 -0.41842 -0.39052 -0.20476 0.19903 0.5529 -0.19833 0.15497 0.2878 -0.093616 
iphone 0.19436 -0.18859 -0.17926 0.0083091 -0.095189 -0.16272 -0.2041 -0.04155 -0.04479 -0.15193 0.18668 0.29169 -0.062531 -0.35451 -0.11827 0.51788 -0.27346 -0.18303 0.15609 0.024554 -0.23434 -0.11695 -0.32745 -0.33066 -0.12313 
destination 0.086324 -0.70172 0.65585 -0.036121 -0.066687 -0.22928 -0.088921 0.024261 -0.96152 -0.50044 0.2423 -0.42836 -0.31652 0.19816 0.32596 -0.12618 0.42755 0.033414 0.084705 -0.033306 0.09002 -0.13336 -0.20757 0.50787 -0.19634 
auto 0.32349 -0.037909 0.04997 0.081296 -0.432 0.13184 0.21639 0.16828 0.055536 -0.12724 -0.029394 -0.2981 0.096541 -0.14675 0.27904 -0.3487 -0.29329 -0.22409 -0.067423 0.15064 0.32854 -0.16312 0.096583 0.17682 -0.06861 
accounts 0.42241 -0.091283 0.12025 0.11236 -0.64337 0.22942 0.25831 0.20419 0.039946 -0.16538 -0.09164 -0.45682 0.1015 -0.17604 0.33663 -0.50241 -0.36116 -0.37666 -0.14206 0.22586 0.519 -0.25776 0.14029 0.30768 -0.10052 
in 0.19338 -0.16698 -0.0022215 -0.02264 0.085022 -0.11963 -0.1521 -0.1342 -0.39385 -0.12761 0.13958 -0.052826 -0.27095 -0.090137 0.01087 0.1854 0.0007011 -0.017212 0.19526 0.059131 -0.16781 -0.15858 -0.20417 0.12532 -0.12752 
content 0.38813 0.12485 -0.38291 0.036293 -0.28592 0.048181 0.0089751 -0.023497 0.089767 -0.058715 -0.13611 -0.22665 0.11327 -0.28829 -0.0091515 0.0095263 -0.42517 -0.37963 0.020582 0.068009 0.059654 -0.24405 -0.076729 -0.048513 -0.17558 
review 0.17131 -0.1126 -0.039885 -0.029638 -0.017284 -0.10633 -0.13862 -0.095665 -0.36562 -0.15079 0.08374 -0.19491 -0.14303 -0.017992 0.03261 0.11543 0.10012 -0.076688 0.11464 -0.01446 -0.073998 -0.13615 -0.20848 0.1528 -0.12783 
tax -0.94921 0.20189 0.13712 0.076285 0.56818 0.17055 0.082577 0.22487 0.24254 0.15279 -0.31646 0.37742 0.26693 0.54223 -0.19565 -0.20696 0.25899 0.54051 -0.19892 -0.014092 -0.11884 0.64671 0.50744 -0.10311 0.38134 
software 0.28038 0.060086 -0.18981 -0.028734 -0.065085 -0.090906 -0.082027 -0.12016 0.047941 0.13332 0.02712 -0.23171 0.20505 0.017397 -0.033172 0.064627 0.13502 -0.12042 -0.111 -0.33799 0.04427 -0.23178 -0.10982 0.022022 -0.13854 
04 -0.046372 -0.19746 0.23088 -0.06213 0.33081 -0.041518 -0.14453 -0.1375 -0.55329 -0.24646 0.27268 0.19086 -0.74226 -0.089917 -0.0251 0.22593 0.131 0.2176 0.43295 0.39032 -0.37176 -0.031497 -0.23182 0.074269 -0.028715 
retirement 0.47935 -0.12319 0.22848 0.10412 -0.82486 0.32581 0.34843 0.33695 0.082206 -0.19981 -0.12771 -0.59458 0.13232 -0.24534 0.43965 -0.69597 -0.4994 -0.4483 -0.18596 0.32618 0.73152 -0.25688 0.23552 0.33505 -0.15596 
123456 -0.34769 -0.7196 0.65615 0.1934 -0.27011 -0.10642 0.0071748 0.34321 0.016792 -0.35695 0.43684 0.80551 0.024167 -0.37749 0.07844 0.39787 -0.10882 0.11092 0.05173 0.15832 0.0748 0.26437 -0.061111 -0.63537 0.011816 
rooms -1.087 0.18091 0.23879 0.11643 0.60669 0.14902 0.081386 0.2042 0.090502 0.10242 -0.32037 0.41239 0.21041 0.54395 -0.19468 -0.19576 0.32034 0.62165 -0.189 -0.018256 -0.22157 0.77434 0.51662 -0.14786 0.42885 
hotel 0.059111 -0.60357 0.61833 0.012904 -0.10349 -0.14473 0.00090418 0.028982 -0.90302 -0.44173 0.21609 -0.47051 -0.19724 0.24384 0.34207 -0.20366 0.48312 0.013419 -0.00022202 -0.08483 0.19302 -0.074027 -0.15174 0.60331 -0.20007 
new 0.055524 -0.64542 0.63867 -0.036528 -0.13352 -0.13997 0.010903 0.051766 -0.81936 -0.41201 0.23409 -0.4308 -0.15959 0.19705 0.32627 -0.17904 0.43359 0.033877 -0.0029392 -0.078525 0.22595 -0.091911 -0.12391 0.47689 -0.13651 
find 0.01133 -0.56463 0.54752 -0.03876 -0.066425 -0.13134 -0.03813 0.017245 -0.71403 -0.43348 0.24394 -0.33817 -0.17818 0.17527 0.2978 -0.12971 0.33296 0.027018 -0.013537 -0.032524 0.11462 -0.085393 -0.12473 0.45475 -0.18037 
world -0.068319 -0.17646 0.203 -0.063805 0.27261 -0.015305 -0.12321 -0.163 -0.49091 -0.18547 0.24332 0.23622 -0.7115 -0.081859 -0.072621 0.23781 0.15684 0.244 0.43227 0.37304 -0.3979 -0.053326 -0.26969 0.052773 -0.025136 
15 -0.019987 -0.27915 0.055974 0.0048934 0.039721 -0.093368 -0.16162 -0.023999 -0.15691 -0.20791 0.19933 0.39723 -0.19512 -0.23243 -0.035507 0.36011 -0.11399 0.021313 0.23609 0.1345 -0.17502 0.0032275 -0.19712 -0.26475 -0.051286 
for -0.055233 -0.23656 0.32226 -0.013199 0.075574 -0.060991 -0.052275 -0.016506 -0.45274 -0.24775 0.18004 -0.022887 -0.38154 0.0094428 0.07697 0.061901 0.17738 0.14869 0.12445 0.1416 -0.12772 -0.036964 -0.11466 0.21554 -0.046305 
techniques 0.39321 0.17475 -0.64706 -0.07305 -0.022891 -0.15977 -0.23872 -0.23761 0.036634 0.04215 -0.046031 0.020861 0.049712 -0.26395 -0.22765 0.43289 -0.34953 -0.28318 0.13843 -0.067011 -0.21337 -0.21745 -0.2492 -0.2371 -0.15009 
docs 0.15586 0.44836 -0.36439 -0.053408 0.023689 -0.020721 0.048526 -0.13349 0.64527 0.5544 -0.091239 -0.021118 0.43631 0.040509 -0.16823 0.0010978 0.025065 -0.11898 -0.24122 -0.4557 0.065118 -0.10356 0.02473 -0.181 -0.002696 
view -0.22646 -0.62382 0.58497 0.16496 -0.20585 -0.045871 0.0021288 0.20178 -0.16053 -0.35187 0.3405 0.52648 -0.14466 -0.2442 0.10276 0.26162 -0.014652 0.14022 0.052787 0.135 0.0037774 0.14662 -0.10747 -0.32739 0.020969 
hotels -0.0059439 -0.27028 0.33979 -0.017 0.098552 -0.042983 -0.075042 -0.051307 -0.54576 -0.23 0.21463 -0.07773 -0.46137 0.024606 0.081765 0.091503 0.18641 0.11065 0.20873 0.19371 -0.14199 -0.07734 -0.16941 0.23463 -0.073351 
restaurants -0.066802 -0.18517 0.22031 -0.067133 0.2195 -0.055206 -0.15561 -0.096225 -0.57441 -0.22298 0.18922 0.14016 -0.67863 -0.048232 -0.012051 0.18935 0.10449 0.22375 0.38424 0.32748 -0.37589 -0.0021566 -0.23231 0.11327 -0.037413 
financial 0.30893 -0.013668 0.059995 0.046721 -0.53286 0.21461 0.25963 0.17895 0.13889 -0.12726 -0.077139 -0.37366 0.095533 -0.16027 0.31249 -0.46635 -0.31616 -0.27352 -0.16186 0.17658 0.45525 -0.16826 0.15039 0.27472 -0.10766 
direct 0.17837 -0.29014 0.2859 0.066073 -0.27581 0.0095723 0.1146 0.11534 -0.24325 -0.22086 0.023319 -0.28237 -0.088062 -0.044585 0.23536 -0.27271 -0.04593 -0.098338 -0.065294 0.14869 0.24103 -0.079424 0.022679 0.25731 -0.09467 
design -0.057757 0.15137 -0.28504 0.012207 0.18859 -0.055516 -0.075895 -0.10194 -0.040248 0.044306 -0.10503 0.10305 0.020483 -0.018833 -0.17241 0.15225 -0.044817 -0.0055978 0.053021 0.012309 -0.19289 0.097367 -0.056712 -0.079486 0.035602 
ideas -0.10189 0.096314 0.033552 0.056468 -0.15354 0.12266 0.14505 0.14907 0.15005 0.00051543 -0.19112 -0.10935 0.12562 0.090888 0.13132 -0.31023 -0.12809 -0.033802 -0.14259 0.10278 0.1713 0.087214 0.24718 0.046929 0.02092 
features 0.24953 0.4347 -0.36898 -0.087606 0.052901 -0.049008 -0.021973 -0.1942 0.64495 0.52683 -0.050085 0.019184 0.40767 0.035347 -0.22533 0.095085 0.12156 -0.11095 -0.15329 -0.50819 0.011912 -0.16795 -0.005801 -0.19413 0.00081796 
research 0.162 -0.20663 0.065641 -0.021666 -0.14414 -0.076097 -0.06617 -0.024538 -0.30142 -0.14952 0.075616 -0.29811 0.069984 0.03581 0.14396 0.0066748 0.050686 -0.13523 -0.079616 -0.13072 0.15979 -0.14887 -0.13057 0.21072 -0.13255 
life 0.20599 -0.079069 0.10025 -0.012181 -0.28289 0.078942 0.13348 0.12107 0.0024869 -0.087849 -0.032052 -0.22837 0.026882 -0.082501 0.1797 -0.1772 -0.11244 -0.10731 -0.027887 0.04152 0.17626 -0.093255 0.075451 0.11432 -0.035801 
angeles -0.017834 -0.42784 0.45091 -0.032519 -0.0058133 -0.10882 -0.067855 -0.024052 -0.60255 -0.32626 0.21871 -0.28854 -0.22191 0.16153 0.22337 -0.090319 0.37602 0.054091 0.0061128 -0.027888 0.10096 -0.028234 -0.18189 0.33024 -0.087978 
los -0.016172 -0.4796 0.413 -0.0090978 -0.019081 -0.13699 -0.017496 0.016723 -0.61988 -0.32054 0.17145 -0.24542 -0.23134 0.15003 0.16014 -0.10348 0.36077 0.067793 0.016455 -0.060219 0.09567 -0.078809 -0.15386 0.37943 -0.10922 
crm 0.20293 0.45168 -0.45477 -0.054494 0.037247 -0.021147 -0.0059082 -0.18357 0.69644 0.57124 -0.059077 0.024788 0.43111 0.071037 -0.18746 0.018942 0.072265 -0.097683 -0.21662 -0.47549 0.050558 -0.1136 0.07648 -0.18883 0.024339 
values 0.034234 -0.4024 0.38129 -0.022707 -0.031555 -0.088032 -0.067281 0.0089191 -0.59412 -0.33658 0.15625 -0.22466 -0.19375 0.1248 0.17587 -0.059575 0.30047 0.037282 0.062087 -0.01351 0.09624 -0.069007 -0.12184 0.32435 -0.11936 
k -0.071623 -0.52275 0.4896 0.035264 -0.13382 -0.11647 0.0046872 0.10288 -0.39359 -0.31942 0.27081 0.058893 -0.071216 -0.049384 0.16763 0.096949 0.18281 0.055068 0.054524 -0.0012841 0.05317 0.052611 -0.079344 0.037483 -0.045348 
york 0.022917 -0.43192 0.4172 0.029125 -0.069166 -0.13351 -0.020271 0.040088 -0.52519 -0.29019 0.19248 -0.32469 -0.16734 0.15441 0.23817 -0.084565 0.31091 0.043989 0.031122 -0.035141 0.093213 -0.068666 -0.080545 0.37201 -0.12756 
management 0.33079 -0.15047 0.17587 0.084001 -0.50938 0.13387 0.19874 0.23456 0.05498 -0.18956 -0.053061 -0.34774 0.051536 -0.14796 0.25667 -0.37144 -0.25918 -0.24826 -0.10562 0.14668 0.44189 -0.15057 0.086959 0.20481 -0.11773 
app 0.18735 0.44157 -0.42025 -0.049176 0.0030804 -0.021815 0.036941 -0.10887 0.64342 0.50514 -0.14311 -0.0069597 0.46304 0.079501 -0.17919 -0.0076598 0.043841 -0.12558 -0.21441 -0.39812 0.083731 -0.070808 0.080256 -0.18824 0.022786 
wealth 0.27088 -0.1089 0.15215 0.059838 -0.47213 0.1426 0.24756 0.21932 0.02521 -0.15852 -0.080439 -0.3838 0.10841 -0.11067 0.28167 -0.38061 -0.26749 -0.21226 -0.11076 0.21252 0.39631 -0.1246 0.12892 0.22527 -0.092393 
database 0.10493 0.34866 -0.32203 -0.0055161 0.025076 0.020915 0.015936 -0.11486 0.49554 0.42345 -0.11112 -0.019878 0.37288 0.075195 -0.16912 0.034509 -0.0079135 -0.079584 -0.1711 -0.33967 0.059829 -0.095079 0.05702 -0.17226 0.049017 
htm 0.18254 -0.096203 -0.10021 -0.066118 0.0049417 -0.15745 -0.14013 -0.071521 -0.28831 -0.11189 0.053914 -0.11691 -0.098756 -0.021036 0.027513 0.18849 -0.0011993 -0.10129 0.10419 -0.036844 -0.082351 -0.12681 -0.20042 0.079783 -0.12912 
customer -0.32594 0.37099 -0.21196 0.0039025 0.23352 0.023894 0.0018702 0.0040095 0.42317 0.34354 -0.18086 0.19515 0.30064 0.22004 -0.17695 -0.017521 0.1634 0.17763 -0.18041 -0.253 -0.083526 0.18993 0.25944 -0.18322 0.16145 
guide 0.34452 0.18153 -0.62584 -0.06057 0.032792 -0.17817 -0.2853 -0.23731 -0.07196 0.026442 0.046564 0.024994 -0.12602 -0.25236 -0.20468 0.50134 -0.23898 -0.25333 0.19279 0.040024 -0.35152 -0.27193 -0.3507 -0.18521 -0.16069 
plumbing 0.015855 -0.53529 0.53157 -0.018849 -0.049888 -0.13832 -0.10752 0.025189 -0.77345 -0.36165 0.27869 -0.30339 -0.2464 0.16729 0.23918 -0.063913 0.40314 0.086721 0.024957 -0.049932 0.060956 -0.10124 -0.17008 0.41305 -0.13165 
il 0.019798 -0.43543 0.43386 0.016306 -0.016208 -0.081357 -0.035627 0.012806 -0.55497 -0.26518 0.14044 -0.28671 -0.14707 0.13899 0.19595 -0.074828 0.26931 0.0059365 -0.019206 -0.083459 0.10918 -0.040774 -0.081391 0.34257 -0.12933 
toyota -0.054969 -0.51136 0.60766 0.067813 -0.24972 -0.04462 0.098694 0.19422 -0.41643 -0.29392 0.10814 -0.46651 0.17186 0.23567 0.29677 -0.37877 0.35478 -0.056556 -0.17223 -0.15909 0.4382 -0.0062775 0.036844 0.43228 -0.13656 
shop 0.047135 0.31598 -0.22961 -0.020086 -0.021285 0.032408 0.080333 -0.068072 0.48145 0.31329 -0.13617 -0.016018 0.29689 0.081697 -0.083104 -0.069517 0.056271 -0.026357 -0.15906 -0.24112 0.059829 -0.039406 0.083624 -0.13045 0.024445 
air -0.29681 -0.5074 0.55838 0.18308 -0.22438 -0.0024185 0.046951 0.27075 0.0076805 -0.30282 0.30722 0.51654 0.057615 -0.21268 0.061983 0.20599 -0.058454 0.12934 -0.030379 0.050612 0.091378 0.1904 0.035065 -0.39859 0.06499 
plans 0.18544 0.20989 -0.20633 0.020305 -0.13382 0.031587 0.087761 -0.027972 0.4372 0.26962 -0.10071 -0.090366 0.30252 0.028932 -0.032038 -0.056137 -0.02505 -0.14953 -0.11939 -0.23 0.09711 -0.10777 0.093548 -0.05061 0.014486 
listing -0.24769 -0.57117 0.51918 0.11164 -0.1931 -0.08102 -0.033949 0.18455 -0.12767 -0.35002 0.30586 0.56649 -0.06708 -0.24365 0.12047 0.23195 -0.033033 0.10678 0.1253 0.14326 0.019423 0.13654 -0.092959 -0.35213 0.036439 
finance -0.060752 -0.22443 0.22132 -0.046039 0.14543 -0.035185 -0.036409 -0.060615 -0.42267 -0.17017 0.13586 0.11698 -0.50732 -0.020932 -0.0063223 0.098259 0.12563 0.18724 0.23725 0.22271 -0.25081 0.039261 -0.1285 0.14358 -0.030689 
future 0.32691 0.18853 -0.46742 -0.036 -0.0753 -0.063321 -0.099703 -0.16767 0.053075 0.077469 -0.047131 -0.0519 0.09453 -0.19129 -0.16041 0.27474 -0.19282 -0.20888 0.064929 -0.087341 -0.14381 -0.19988 -0.21624 -0.16923 -0.12364 
walmart.com -0.19141 -0.43853 0.39169 0.10551 -0.19461 -0.038241 -0.041048 0.21809 0.0046786 -0.2498 0.26623 0.57345 0.042171 -0.24578 0.038286 0.27747 -0.071758 0.064257 0.068228 0.032137 0.069669 0.12037 -0.016334 -0.43845 0.012991 
apple -0.012612 -0.18332 0.0086464 0.030407 -0.10537 -0.044136 -0.04557 0.043085 0.0305 -0.12848 0.10005 0.26819 -0.00027666 -0.27165 -0.01145 0.29613 -0.11393 -0.065146 0.067138 0.045731 -0.096703 0.025289 -0.11666 -0.29516 -0.076936 
miami 0.020207 -0.42171 0.42477 -0.036836 -0.073392 -0.14167 -0.068741 -0.022493 -0.61325 -0.32418 0.16183 -0.25447 -0.18996 0.10606 0.16033 -0.090556 0.29976 0.018559 0.066206 -2.0454e-05 0.029728 -0.074587 -0.14812 0.33814 -0.14152 
03 -0.057506 -0.17621 0.19167 -0.06106 0.2371 -0.026058 -0.11389 -0.080142 -0.41724 -0.14956 0.19799 0.14693 -0.52445 -0.071141 -0.045237 0.19718 0.079187 0.16306 0.26208 0.29796 -0.31971 0.0051346 -0.17437 0.10471 -0.021469 
s -0.24857 -0.455 0.46188 0.16995 -0.22172 -0.03106 0.0017924 0.22958 0.049288 -0.22152 0.26867 0.53134 0.044257 -0.25187 0.02845 0.27996 -0.051 0.10565 -0.0022562 0.087318 0.029291 0.21307 -0.077676 -0.43665 0.029166 
amazon.com -0.23411 -0.50458 0.49659 0.11189 -0.19201 -0.055748 -0.023502 0.24605 0.0043813 -0.23183 0.3547 0.65153 0.032457 -0.31749 0.063514 0.27681 -0.058105 0.066985 0.069885 0.089028 -0.0051692 0.21306 -0.10169 -0.50818 -0.007962 
residential -0.73318 0.17272 0.17893 0.10301 0.4433 0.089121 0.029242 0.18869 0.089941 0.050215 -0.23253 0.2895 0.094155 0.4334 -0.10483 -0.18473 0.25819 0.43485 -0.081798 0.047878 -0.12156 0.52224 0.35084 -0.096197 0.30435 
custom -0.82942 0.15828 0.088854 0.069248 0.44725 0.11682 0.06311 0.16636 0.12373 0.011684 -0.26319 0.33298 0.20992 0.44526 -0.16515 -0.16435 0.17703 0.40703 -0.18287 0.022673 -0.09255 0.58549 0.42591 -0.069612 0.28151 
cards 0.080296 -0.1096 0.21989 0.049926 -0.18343 0.14571 0.085705 0.081265 -0.14126 -0.20049 0.027288 -0.16553 -0.20351 -0.046927 0.14157 -0.17113 -0.077538 -0.063239 0.029408 0.2728 0.12023 -0.047728 0.00036415 0.19203 -0.070478 
bank 0.2827 -0.10413 0.10914 0.067563 -0.45961 0.17353 0.14821 0.1991 0.059014 -0.10326 -0.10679 -0.30297 0.073437 -0.17156 0.25568 -0.37865 -0.32034 -0.26031 -0.064765 0.19776 0.3867 -0.12753 0.11271 0.23871 -0.13116 
credit 0.1379 -0.10949 0.21586 0.00023656 -0.2047 0.088553 0.091999 0.12047 -0.16463 -0.14182 0.063473 -0.10487 -0.23238 -0.10253 0.15687 -0.21402 -0.13581 -0.039048 0.032733 0.21661 0.14457 -0.0395 0.016063 0.19496 -0.031331 
savings 0.25191 -0.050416 0.031486 0.032608 -0.34858 0.12145 0.13555 0.11891 0.092103 -0.065987 -0.02187 -0.2662 0.092358 -0.14802 0.23151 -0.29319 -0.25301 -0.17912 -0.092426 0.14443 0.32486 -0.088977 0.10785 0.17586 -0.044907 
how 0.31366 -0.049559 0.055809 0.066304 -0.41533 0.15603 0.16863 0.14482 0.062375 -0.088201 -0.10497 -0.32516 0.065944 -0.12701 0.25479 -0.31947 -0.2848 -0.22619 -0.084403 0.17066 0.37563 -0.13817 0.11317 0.19421 -0.060092 
google 0.32506 0.15036 -0.54024 -0.091815 0.08543 -0.15202 -0.2297 -0.21756 -0.058622 -0.032942 0.025239 0.032235 -0.13895 -0.26885 -0.16454 0.4186 -0.28182 -0.19884 0.1762 0.024524 -0.32908 -0.25489 -0.33097 -0.19101 -0.1409 
laptops 0.29923 0.21874 -0.44817 -0.053092 -0.066146 -0.018779 -0.031726 -0.12376 0.28298 0.13391 -0.092836 -0.075206 0.20146 -0.09894 -0.13404 0.164 -0.1921 -0.24975 -0.0054206 -0.089333 -0.052264 -0.13139 -0.088252 -0.1323 -0.10251 
samsung -0.15935 -0.31302 0.30507 0.034187 0.018034 -0.056318 -0.054488 0.023492 -0.18935 -0.19084 0.24155 0.33664 -0.21041 -0.18405 0.037221 0.23873 0.0067774 0.11308 0.1355 0.171 -0.14896 0.049946 -0.15043 -0.17097 0.025028 
planning 0.30646 -0.10202 0.12101 0.085868 -0.46275 0.10976 0.15566 0.16437 0.062983 -0.16154 -0.078025 -0.28759 0.020381 -0.17265 0.21584 -0.30498 -0.26467 -0.26744 -0.11182 0.20225 0.35605 -0.13698 0.095847 0.18199 -0.081119 
reviews 0.35572 0.14957 -0.58569 -0.093365 0.035881 -0.11316 -0.24439 -0.26866 -0.098169 -0.0482 -0.017658 -0.019691 -0.15852 -0.25042 -0.17095 0.40086 -0.24538 -0.21499 0.18824 -0.0070452 -0.25756 -0.25843 -0.35192 -0.18622 -0.17272 
individual -0.2369 -0.0040805 0.18105 0.10292 -0.0099204 0.18504 0.099885 0.17649 0.010051 -0.081872 -0.11645 -0.081644 0.051412 0.11933 0.046708 -0.30555 -0.036402 0.09319 -0.069809 0.1465 0.085802 0.20093 0.24052 0.1252 0.10462 
lawyer 0.063479 -0.37788 0.38145 -0.016988 -0.096587 -0.11174 -0.049992 0.020856 -0.50719 -0.28962 0.15646 -0.31572 -0.12655 0.08527 0.16697 -0.15397 0.21336 -0.050255 0.0030333 -0.039541 0.091639 -0.097596 -0.096705 0.31047 -0.11974 
houzz.com 0.022122 -0.2363 0.22725 0.025633 -0.0099699 -0.049602 -0.031628 -0.025691 -0.33126 -0.15548 0.11164 -0.1447 -0.12672 0.04888 0.11012 -0.066454 0.13719 0.052559 0.031341 -0.026601 0.02702 -0.058386 -0.10658 0.22659 -0.0971 
headphones -0.14834 -0.26269 0.17213 0.067468 -0.1164 -0.067651 0.00018374 0.13768 0.039734 -0.138 0.1368 0.284 0.01982 -0.12978 0.048495 0.12289 -0.0097177 0.024036 0.036306 -0.01003 0.0066762 0.096324 0.0022385 -0.18296 0.051667 
doctor -0.028097 -0.16959 0.17889 0.026622 -0.012541 -0.077303 -0.0093456 -0.018239 -0.20626 -0.1262 0.092842 -0.13279 -0.02241 0.044756 0.11756 -0.055814 0.10787 0.036608 -0.022825 -0.011386 0.01372 -0.063268 -0.013152 0.13689 -0.043693 
geo -0.13307 -0.065733 0.026558 0.12371 -0.065432 -0.01034 0.014743 0.14374 0.2416 0.0070577 0.066641 0.41077 0.16949 -0.17754 -0.058812 0.18278 -0.15995 0.059441 0.0062139 -0.0088824 -0.037005 0.13099 0.039398 -0.37862 0.08388 
professionals -0.0046687 -0.2665 0.21017 -0.005482 0.010795 -0.035037 0.0019189 0.0025808 -0.32487 -0.12771 0.084387 -0.12773 -0.14472 0.055572 0.068284 -0.071267 0.16017 -0.022253 0.026469 -0.032089 0.025513 -0.027706 -0.064779 0.19023 -0.050111 
interior 0.04049 -0.24497 0.2254 -0.019258 0.011149 -0.072152 0.0035298 -0.037034 -0.35312 -0.13223 0.080233 -0.17694 -0.13777 0.091134 0.075164 -0.071638 0.15508 0.003324 0.053089 -0.0087755 0.028098 -0.066376 -0.10558 0.22033 -0.04803 
designers 0.053676 -0.26128 0.227 0.0080992 -0.05881 -0.098045 -0.062005 0.0040078 -0.36032 -0.12676 0.13642 -0.11314 -0.12741 0.027945 0.099892 -0.025179 0.15233 -0.012045 -0.01464 0.022728 0.075277 -0.066194 -0.11583 0.18394 -0.081208 
healthgrades.com 0.048181 -0.14847 0.14908 -0.036088 -0.010482 -0.0095754 0.025113 0.045516 -0.19598 -0.10736 0.068343 -0.14687 -0.067032 0.085958 0.05593 -0.063929 0.10697 0.014645 0.035546 0.0056899 0.059667 -0.064191 -0.034385 0.15138 -0.075754 
plumber -0.15594 -0.059631 0.096023 0.10571 -0.090241 -0.027442 -0.0010634 0.13675 0.21636 0.0025389 0.060856 0.39033 0.15121 -0.17415 -0.029317 0.18279 -0.095008 0.017538 -0.027208 -0.0029371 0.0054801 0.14288 0.01621 -0.36853 0.059878 
realestateandhomes -0.011476 -0.20844 0.23795 -0.0079847 -0.015078 -0.059661 -0.012925 0.044291 -0.29693 -0.14162 0.065155 -0.16637 -0.11306 0.07982 0.072666 -0.029779 0.1898 0.010823 -0.0019764 -0.040085 0.055013 -0.0055361 -0.063855 0.21317 -0.052427 
camry -0.0028724 -0.33645 0.42684 0.079732 -0.22094 0.013816 0.077406 0.11267 -0.21195 -0.15756 0.064973 -0.28007 0.12108 0.21231 0.26158 -0.32506 0.18403 -0.0026721 -0.19888 -0.15625 0.33148 0.057229 0.064715 0.29249 -0.06988 
cars.com -0.038109 -0.2706 0.42037 0.028416 -0.18006 -0.043072 0.074875 0.14401 -0.20623 -0.14691 0.044145 -0.27798 0.1608 0.13908 0.26766 -0.29616 0.20496 0.010664 -0.16025 -0.16387 0.34087 -0.019277 0.060471 0.30045 -0.08859 
autotrader.com 0.00030877 -0.15328 0.16299 -0.024497 -0.06981 -0.017973 0.008631 0.030238 -0.22062 -0.10584 0.079853 -0.11528 -0.048737 0.084444 0.13002 -0.09968 0.11463 -0.0052405 -0.013527 -0.050743 0.056337 -0.015041 -0.0089868 0.17941 -0.04969 
sale -0.0018259 -0.15297 0.19177 0.004862 -0.025485 -0.074143 0.041028 0.027742 -0.243 -0.084195 0.072841 -0.15558 -0.017191 0.088235 0.08925 -0.05603 0.1507 0.0058474 0.0042443 -0.04184 0.066276 -0.042944 -0.0084488 0.14038 -0.063445 
ca 0.027677 -0.21143 0.20794 -0.015371 -0.059468 -0.061171 -0.050511 0.018133 -0.32896 -0.12814 0.10582 -0.18529 -0.075999 0.073675 0.074164 -0.038589 0.18403 -0.013261 0.0061537 -0.0067988 0.069774 -0.072201 -0.083214 0.20669 -0.048002 
booking.com -0.006816 -0.22678 0.24472 -0.039621 -0.065356 -0.074675 0.0058282 0.013066 -0.28115 -0.11072 0.077928 -0.12729 -0.045632 0.10367 0.066576 -0.033505 0.1612 0.0051098 0.021679 -0.057673 0.10152 -0.01123 -0.088625 0.21835 -0.042535 
marriott -0.0028907 -0.24508 0.23616 -0.028296 -0.053379 -0.092587 -0.036988 -0.007371 -0.32087 -0.11785 0.087478 -0.2008 -0.035485 0.096937 0.12929 -0.10638 0.14094 0.03394 -0.039152 -0.0049983 0.063427 -0.0051305 -0.070216 0.16786 -0.047484 
downtown 0.017129 -0.21862 0.21921 0.019767 -0.030035 -0.092938 0.013747 0.021702 -0.25717 -0.098297 0.081714 -0.15632 -0.049687 0.11701 0.1384 -0.084049 0.17008 -0.01919 -0.020336 -0.04185 0.044004 -0.02431 -0.034851 0.23268 -0.074573 
06 0.039712 -0.28644 0.29623 0.01137 -0.16454 -0.02095 0.033397 0.092007 -0.21679 -0.13154 0.093122 -0.22768 0.055569 0.098872 0.19915 -0.15937 0.20014 -0.026922 -0.12938 -0.11107 0.22086 -0.024659 0.042042 0.23025 -0.061281 
expedia.com -0.0029574 -0.18257 0.15415 0.032555 -0.047813 -0.08378 -0.051856 0.018626 -0.28064 -0.10217 0.072544 -0.13567 -0.081655 0.029068 0.05558 -0.040807 0.10645 0.046485 -0.013305 -0.028606 0.06203 -0.03746 -0.094786 0.12427 -0.087918 
kayak.com -0.015574 -0.30204 0.27846 0.019625 -0.18105 -0.066605 0.067122 0.09826 -0.21183 -0.1703 0.048361 -0.23615 0.044661 0.092094 0.15378 -0.20528 0.1325 -0.02808 -0.12867 -0.10852 0.17678 -0.046465 -0.0096976 0.24987 -0.064269 
flights -0.011546 -0.24212 0.28589 0.018828 -0.10907 -0.0065807 0.027332 0.079454 -0.27124 -0.17098 0.070848 -0.25944 0.038001 0.13306 0.21036 -0.17708 0.15072 0.0099606 -0.12656 -0.07712 0.19628 -0.0042359 -0.017597 0.21114 -0.097531 
realtor.com 0.046526 -0.2232 0.22433 -0.041391 -0.038138 -0.065972 -0.017188 0.025294 -0.28933 -0.15965 0.053479 -0.16034 -0.11292 0.088801 0.074365 -0.049028 0.14304 0.046415 -0.026837 -0.053583 0.04923 0.0028522 -0.026099 0.19658 -0.051879 
nyc -0.017936 -0.26948 0.28961 0.035928 -0.17407 -0.0056533 0.060165 0.054821 -0.21319 -0.13873 0.085764 -0.2551 0.087978 0.076594 0.20105 -0.16262 0.14374 -0.033902 -0.14096 -0.10694 0.23801 -0.035459 0.058541 0.19122 -0.026775 
lax 0.035362 -0.28063 0.26549 0.054348 -0.11359 -0.02494 0.058847 0.05933 -0.27422 -0.17885 0.065887 -0.21061 0.032099 0.10326 0.1418 -0.15608 0.13158 -0.012256 -0.078913 -0.053477 0.21921 0.014334 0.005017 0.19279 -0.091271 
companylist -0.0036437 -0.16094 0.22213 0.035654 -0.012496 -0.016402 0.012746 0.017951 -0.26445 -0.12192 0.093998 -0.09853 -0.054084 0.088813 0.062004 -0.045297 0.16581 0.021176 0.021619 -0.070999 0.018131 -0.027045 -0.05871 0.1359 -0.079106 
angi.com -0.015273 -0.19239 0.17664 -0.015338 0.0061623 -0.092337 -0.024401 0.053102 -0.25179 -0.11175 0.10526 -0.13148 -0.039575 0.070102 0.10877 -0.040389 0.12766 0.029856 0.026391 -0.048643 0.081721 0.0014743 -0.0054111 0.17114 -0.082003 
office 0.027019 0.25236 -0.15624 0.01015 0.01401 -0.0020644 0.043884 -0.020898 0.35813 0.22782 -0.051789 -0.018452 0.22723 0.077091 -0.062994 -0.085256 -0.011082 -0.075325 -0.15688 -0.18449 0.051086 -0.033309 0.046937 -0.050856 0.019093 
milwaukee 0.15268 0.032225 -0.21385 -0.027302 0.042439 -0.062613 -0.082461 -0.13789 -0.095069 -0.012529 0.042356 0.0061583 -0.097785 -0.11861 -0.038252 0.20053 -0.14626 -0.11577 0.07755 0.01199 -0.11383 -0.089375 -0.16868 -0.089163 -0.048975 
drill 0.17247 0.026158 -0.26256 -0.010443 0.036671 -0.040252 -0.092462 -0.13732 -0.046146 -0.04925 -0.021515 -0.020332 -0.04359 -0.11215 -0.11631 0.17814 -0.14024 -0.088305 0.1167 0.011443 -0.13024 -0.089656 -0.12708 -0.065276 -0.068236 
12345678 0.19182 0.03117 -0.24368 -0.031162 -0.0066233 -0.041938 -0.12642 -0.1235 -0.0403 0.0086846 -0.023474 -0.0044798 -0.086015 -0.11186 -0.092897 0.19504 -0.092632 -0.088409 0.06521 0.044793 -0.16805 -0.1231 -0.11797 -0.056 -0.096105 
costco.com -0.14335 -0.25232 0.21682 0.10915 -0.13596 -0.012268 -0.019214 0.10763 -0.084281 -0.17928 0.10974 0.23651 -0.01975 -0.099469 0.029851 0.072793 -0.059177 0.076725 0.044473 0.05676 -0.0021965 0.066234 0.013561 -0.20618 -0.0054668 
kirkland -0.085986 -0.28902 0.24739 0.052908 -0.061863 -0.030138 0.006837 0.14744 -0.049891 -0.17053 0.17674 0.28244 0.0036529 -0.14673 0.054206 0.13411 -0.0069854 0.02799 0.057693 0.054736 0.026446 0.083344 -0.014815 -0.16773 -0.024358 
olive -0.11353 -0.26572 0.24493 0.10626 -0.080106 -0.036709 0.017827 0.077789 -0.016562 -0.15026 0.14268 0.26546 -0.050908 -0.15745 0.087724 0.11829 -0.034346 0.077943 -4.4739e-05 0.046465 0.042356 0.11251 -0.018502 -0.2004 0.033471 
oil -0.11759 -0.27488 0.22779 0.079017 -0.13069 -0.033305 0.024111 0.14954 -0.038334 -0.12725 0.13174 0.26941 -0.040887 -0.13359 0.067806 0.1079 -0.066752 0.079551 0.064551 0.071153 -0.012631 0.047414 -0.0036961 -0.1878 0.0027 
overstock.com 0.023503 0.1838 -0.13602 0.012343 0.006502 0.012176 0.0088268 -0.062477 0.31801 0.27411 -0.048196 -0.027477 0.24799 0.035873 -0.06912 -0.085817 0.0076857 -0.043311 -0.1251 -0.18734 0.050679 -0.055309 0.077455 -0.095072 0.023859 
homedepot.com 0.17921 0.02219 -0.2128 -0.038076 0.034651 -0.033192 -0.11505 -0.091369 -0.07139 -0.011328 -0.012042 0.012024 -0.06824 -0.090584 -0.057485 0.2345 -0.092771 -0.12572 0.087263 0.057418 -0.14534 -0.14329 -0.17356 -0.048842 -0.041537 
ergonomic 0.043947 0.19016 -0.18547 -0.0017816 -0.013346 0.030959 0.011333 -0.033674 0.36205 0.22692 -0.096197 0.0052334 0.2414 0.028985 -0.10207 -0.080109 0.058099 -0.06505 -0.14273 -0.17184 0.036984 -0.067983 0.049952 -0.032007 0.055253 
chair 0.08504 0.25086 -0.16456 -0.030123 -0.041237 0.031285 0.01241 -0.023181 0.30081 0.24671 -0.074711 -0.043099 0.25055 0.043081 -0.092179 -0.081462 0.057401 -0.015598 -0.1369 -0.21339 0.049789 -0.071965 0.08192 -0.073 0.067727 
zappos.com 0.087668 0.1636 -0.14155 0.0083049 -0.0011994 0.020902 -0.01274 -0.056873 0.22538 0.1274 -0.026734 0.020997 0.16489 0.034575 -0.052495 -0.036802 -0.0058303 -0.0025519 -0.080034 -0.10319 0.06096 -0.051019 0.05902 -0.079612 -0.017578 
9123456 0.069666 0.10506 -0.095529 -0.031915 0.025136 0.037064 0.00095062 -0.0049598 0.22938 0.1942 -0.023627 -0.023854 0.1535 0.013093 -0.066532 0.0045924 0.029677 -0.077013 -0.10612 -0.097697 0.016619 -0.048354 0.061175 -0.077166 0.010455 
color 0.027403 0.14518 -0.1342 -0.043341 0.0044402 0.021321 0.029067 -0.053462 0.20025 0.15956 -0.034753 -0.043515 0.11729 0.003612 -0.040311 -0.022034 -0.024643 -0.047047 -0.096786 -0.13465 0.076036 -0.010809 0.030501 -0.020815 0.049255 
petco.com 0.059007 0.18194 -0.13739 0.01779 0.015393 -0.004075 0.00022597 -0.026157 0.222 0.13806 -0.036454 0.007719 0.20593 0.0068182 -0.021685 -0.06279 -0.0093816 -0.0031993 -0.088249 -0.17725 0.053243 -0.015385 0.024052 -0.031636 0.031458 
petcostore 0.048177 0.14115 -0.14578 0.0044665 0.044302 0.040228 0.059286 -0.028974 0.19886 0.15969 -0.086787 0.033605 0.1382 0.037291 -0.065557 -0.026774 -0.0074071 -0.039255 -0.074317 -0.13144 0.03638 0.024352 0.041517 -0.092083 0.052111 
dog 0.026048 0.17132 -0.095362 -0.018278 -0.016863 0.044861 0.03936 -0.01449 0.21984 0.18184 -0.054611 0.023586 0.13069 0.05821 -0.090954 -0.0056051 0.055703 -0.035048 -0.10268 -0.16633 0.074534 0.015143 0.036313 -0.045987 0.062174 
force -0.11135 -0.27605 0.20017 0.070412 -0.13024 -0.024311 -0.020963 0.10961 -0.013652 -0.14335 0.13014 0.28783 0.038199 -0.15733 0.032385 0.13873 -0.013383 0.029877 0.045867 0.053275 0.048214 0.048427 -0.045691 -0.23986 0.012443 
n82e16814137823 0.1739 0.010331 -0.26523 -0.027276 0.028832 -0.084719 -0.13401 -0.099928 -0.038242 -0.0025366 0.031186 0.046831 -0.064793 -0.11995 -0.05773 0.20417 -0.099496 -0.11111 0.12595 0.010594 -0.14309 -0.12866 -0.18303 -0.046748 -0.071523 
sephora.com 0.074765 0.17611 -0.16278 0.0061784 -0.0013685 -0.034508 -0.0099518 -0.059957 0.20824 0.19709 -0.055602 0.021562 0.15194 0.0059912 -0.036811 -0.050786 0.011138 -0.034121 -0.085974 -0.13047 0.029056 -0.035855 0.078964 -0.027435 0.029348 
fenty 0.04937 0.15683 -0.16876 -0.046305 -0.0020697 0.010428 0.020426 -0.049474 0.25133 0.15594 -0.028243 0.016566 0.1667 0.051087 -0.089796 -0.040639 -0.023862 -0.075418 -0.083777 -0.11586 0.074893 -0.02238 0.076148 -0.072155 0.009874 
beauty 0.0078852 0.14441 -0.13049 -0.015168 0.017582 -0.028561 0.053537 -0.068299 0.24809 0.16313 -0.068969 -0.0013443 0.17707 -0.0020166 -0.033439 -0.021926 -0.022917 -0.01885 -0.09259 -0.15201 0.022398 -0.0095669 0.038131 -0.055816 0.053293 
foundation 0.030669 0.13189 -0.099264 -0.051417 -0.045056 -0.01858 0.029628 -0.012112 0.19699 0.16441 -0.032735 0.0063828 0.16763 0.013066 -0.068489 0.017507 0.0034317 -0.044542 -0.067736 -0.14877 0.06507 0.012961 0.040738 -0.038052 -0.002173 
p12345 0.037339 0.16346 -0.14952 -0.03171 -0.044325 0.027872 0.035202 -0.016775 0.2107 0.19381 -0.042542 -0.0071501 0.13292 0.020954 -0.042052 0.0021196 -0.0026235 -0.0013529 -0.087359 -0.15396 0.047237 -0.055622 0.053068 -0.070214 -0.01719 
nordstrom.com -0.12932 -0.24922 0.23509 0.042571 -0.069511 -0.0061994 -0.014917 0.10088 0.006608 -0.088866 0.17077 0.29785 -0.012887 -0.14532 0.063494 0.095215 -0.043807 0.051008 -0.0060141 0.010308 0.057813 0.065141 -0.012698 -0.23708 0.012872 
nike -0.091314 -0.21576 0.25716 0.05859 -0.060753 -0.01268 0.042949 0.087143 0.038708 -0.10968 0.14203 0.29943 0.041945 -0.1586 -0.0031115 0.1019 -0.010949 0.0073627 0.006836 0.062463 0.020691 0.092178 -0.0041029 -0.2042 0.008666 
food -0.0069643 0.17177 -0.12644 -0.022239 0.021783 0.024227 0.067035 -0.047469 0.274 0.16807 -0.0916 0.017417 0.18932 0.056846 -0.024076 -0.055133 0.019226 0.0013961 -0.056629 -0.17481 0.045708 -0.030358 0.04248 -0.065106 0.0070596 
1 -0.14751 -0.27703 0.23863 0.07221 -0.079445 -0.013922 0.026095 0.098016 -0.028788 -0.089508 0.11283 0.29629 0.040618 -0.16127 0.045899 0.079723 -0.029542 0.023225 0.044412 0.012299 -0.015973 0.074694 -0.025936 -0.1699 0.023371 
6789012 -0.072995 -0.24977 0.21783 0.089217 -0.093764 -0.0095719 0.014405 0.12554 0.031558 -0.1369 0.152 0.28817 -0.0094889 -0.10765 0.006681 0.13372 -0.05175 0.058604 0.019787 0.070322 0.031181 0.10755 -0.016599 -0.22006 -0.023655 
macys.com 0.072417 0.10591 -0.11557 -0.002068 0.0048434 -0.024104 0.061019 -0.041131 0.22483 0.16178 -0.068827 -0.0027341 0.12367 0.028852 -0.017872 -0.049635 -0.017352 -0.001057 -0.068983 -0.17535 0.032239 -0.046463 0.047323 -0.083406 0.026252 
calvin 0.064917 0.11271 -0.10278 0.0019677 -0.010854 -0.03512 0.011061 -0.017094 0.20604 0.18038 -0.039756 -0.0011302 0.14348 -0.0016784 -0.079546 -0.035771 -0.0041142 -0.020281 -0.056199 -0.10802 0.052962 -0.0011099 0.056968 -0.03172 -0.021736 
klein 0.0092421 0.18548 -0.08774 -0.0070726 -0.00085869 -0.032615 0.005226 -0.053704 0.23913 0.16257 -0.0092715 0.0095172 0.13153 0.035124 -0.071551 -0.030378 -0.017386 -0.051801 -0.10385 -0.11627 0.014641 -0.046125 0.043433 -0.039234 0.0479 
dress 0.046563 0.1455 -0.12661 -0.026652 0.024348 -0.023317 0.037572 0.0009085 0.20038 0.15467 -0.085297 0.018289 0.16877 -0.0075608 -0.011164 -0.062394 -0.011074 -0.074986 -0.057585 -0.11361 0.075088 -0.020587 0.057853 -0.015513 0.024077 
id 0.031121 0.15618 -0.13702 0.015508 -0.040911 0.044003 0.044476 -0.030682 0.24094 0.15267 -0.058374 -0.016355 0.14621 0.03529 -0.036953 -0.019184 -0.00089726 -0.042651 -0.10872 -0.1215 0.051118 -0.014653 0.018052 -0.011353 0.048697 
yelp.com -0.042346 -0.22858 0.21395 -0.037124 0.013498 -0.10557 -0.016941 0.032684 -0.32014 -0.15719 0.1052 -0.15888 -0.066666 0.047994 0.10345 -0.024976 0.1864 0.0061994 0.046998 -0.050218 0.0067404 -0.05871 -0.068525 0.2128 -0.095335 
wireless -0.12147 -0.24711 0.23422 0.048531 -0.062914 -0.0074364 -0.027571 0.094355 0.013572 -0.13791 0.10522 0.26234 0.014237 -0.15891 0.044155 0.13571 -0.065925 0.068757 -0.019569 0.01163 0.023395 0.079862 -0.052162 -0.25871 0.010745 
hotels.com -0.0015816 -0.22825 0.24223 0.00061823 -0.036562 -0.028728 -0.041732 -0.0091022 -0.27715 -0.16778 0.11001 -0.168 -0.07083 0.054199 0.075523 -0.02352 0.13607 -0.041677 0.035067 -0.013937 0.048014 -0.013786 -0.045867 0.17692 -0.10596 
browse -0.07949 -0.21966 0.22693 0.035474 -0.11339 -0.002913 0.018636 0.087168 -0.027216 -0.12382 0.1409 0.30829 0.017005 -0.12793 -0.0022661 0.13191 -0.062839 0.0103 -0.0093458 0.052359 -0.012585 0.1241 -0.0096678 -0.25892 0.0024994 
electronics -0.13365 -0.27228 0.2104 0.10929 -0.10455 -0.024287 -0.036989 0.076678 0.037832 -0.16682 0.10455 0.26522 0.0023128 -0.12631 -0.0033204 0.13652 -0.059187 0.020214 0.033912 0.007753 0.052135 0.087441 -0.013144 -0.21347 -0.024337 
tvs -0.14726 -0.26119 0.18074 0.10005 -0.091847 -0.0026471 0.03201 0.13664 -0.023906 -0.15631 0.14832 0.24681 0.030643 -0.14226 0.069631 0.15244 -0.070213 0.01829 -0.023346 0.046978 0.028278 0.080713 -0.0019027 -0.19607 0.022342 
3944 -0.12104 -0.25647 0.22308 0.081548 -0.10253 -0.010339 -0.023797 0.072978 -0.026543 -0.13052 0.1445 0.24371 0.019379 -0.17185 0.027054 0.095819 -0.073945 0.03597 0.034429 0.043738 0.010662 0.067378 -0.0045049 -0.22066 0.040235 
1060825 -0.13747 -0.27526 0.17927 0.099888 -0.14156 -0.04874 -0.032404 0.076831 -0.017669 -0.1586 0.14366 0.28777 -0.010813 -0.16313 0.032079 0.11157 -0.060815 -0.0094268 0.052583 0.017684 -0.017722 0.12347 -0.031065 -0.21341 0.016259 
447913 -0.081614 -0.27885 0.24868 0.066495 -0.13581 -0.06131 0.012262 0.1431 -0.025993 -0.13512 0.10093 0.28883 0.021509 -0.11789 -2.4862e-05 0.17509 -0.079467 0.05596 -0.0076775 0.051666 0.0050448 0.071571 -0.01659 -0.25137 0.0053294 
night -0.13793 -0.24283 0.27284 0.050344 -0.074314 -0.034125 -0.022077 0.10176 -0.080237 -0.17694 0.11133 0.20977 0.0057884 -0.09593 0.021652 0.13395 -0.068274 0.075358 0.00076018 0.079981 -0.0056285 0.052453 -0.064865 -0.2051 -0.014974 
biz -0.033662 -0.26866 0.24248 -0.031738 -0.034288 -0.090208 -0.022487 -0.026477 -0.30828 -0.12327 0.11559 -0.1444 -0.07286 0.10496 0.07264 -0.049086 0.19715 0.020497 0.041494 -0.047931 0.074589 -0.017525 -0.076016 0.20039 -0.082665 
joes 0.013331 -0.23086 0.24109 -0.04062 -0.019597 -0.035449 -0.052531 -0.026594 -0.30014 -0.1211 0.069263 -0.11909 -0.09097 0.037184 0.070567 -0.079396 0.16692 0.05914 0.029543 -0.06009 0.0036678 -0.046578 -0.062834 0.21418 -0.039435 
pizza -0.037378 -0.21269 0.22952 0.029911 0.0082675 -0.099378 -0.050306 0.0042757 -0.31931 -0.18809 0.099152 -0.11409 -0.11901 0.098504 0.08316 -0.041853 0.21435 0.032769 0.038333 -0.042935 -0.0026583 -0.0030419 -0.052828 0.16568 -0.090874 
tripadvisor.com 0.0042964 -0.24735 0.25921 -0.023738 -0.07196 -0.052395 0.025802 -0.0011608 -0.3043 -0.15498 0.060513 -0.22117 -0.092943 0.13181 0.1203 -0.092448 0.21859 0.027262 0.02255 -0.042631 0.079118 -0.041942 -0.0081653 0.25319 -0.050781 
g60763 0.023254 -0.25605 0.2258 0.0027292 -0.07548 -0.081562 -0.0047329 0.020965 -0.2976 -0.14009 0.1203 -0.21002 -0.089172 0.13916 0.15833 -0.13305 0.17229 -0.016218 -0.039752 -0.081775 0.078389 -0.023358 -0.074485 0.24547 -0.080828 
d12345 -0.0036309 -0.24746 0.21984 -0.015127 -0.0078894 -0.028372 0.037972 -0.019314 -0.33329 -0.1643 0.080747 -0.22099 -0.090065 0.12632 0.1378 -0.12498 0.15252 -0.0049463 -0.010053 -0.018169 0.11477 -0.067934 -0.061905 0.25279 -0.098354 
yellowpages.com -0.18451 -0.070399 0.032999 0.066588 -0.04219 -0.033783 -0.021224 0.10915 0.24113 -0.012774 0.085394 0.36691 0.17695 -0.11731 -0.019162 0.18555 -0.10339 0.01785 -0.023156 -0.0051607 -0.0060777 0.1586 0.01226 -0.35932 0.022893 
society6.com 0.049349 0.17608 -0.1067 0.01712 0.0064464 -0.0097335 0.028485 -0.0084806 0.26086 0.2081 -0.092499 -0.019192 0.14402 0.025391 -0.073891 -0.016979 0.012438 -0.017388 -0.062562 -0.10612 0.036681 -0.049681 0.067529 -0.071944 0.021948 
aliexpress.com -0.13512 -0.21998 0.16571 0.074009 -0.08375 -0.057211 -0.030766 0.13483 0.073198 -0.092205 0.079569 0.31793 0.098841 -0.097877 -0.041514 0.15505 -0.057592 0.031618 -0.0010225 0.033253 0.0011797 0.15539 0.053136 -0.24322 0.0019907 
item -0.16115 -0.1621 0.20632 0.095203 -0.032401 -0.044158 -0.0099204 0.11453 0.10453 -0.079549 0.15073 0.31253 0.040528 -0.13908 -0.022056 0.094807 -0.07482 0.069142 -0.0037035 -0.017488 -0.025623 0.13012 0.033329 -0.24277 0.076301 
1005004567890 -0.17411 -0.2229 0.16776 0.10384 -0.044127 0.017574 0.044801 0.13501 0.096857 -0.08801 0.11233 0.33276 0.06093 -0.12427 0.029406 0.14928 -0.011824 0.067983 -0.003751 0.046007 -0.003191 0.15969 -0.013662 -0.25454 0.024809 
flipkart.com 0.20612 0.11495 -0.34489 -0.0097356 -0.024989 -0.079633 -0.092569 -0.1268 -0.018501 0.05505 0.0040944 -0.0087067 -0.017883 -0.11872 -0.060439 0.20035 -0.1538 -0.17478 0.10852 0.0068321 -0.1163 -0.17366 -0.15653 -0.086585 -0.06838 
itm12345 0.1755 0.13521 -0.293 -0.055589 -0.018334 -0.10222 -0.13407 -0.16165 -0.0024339 0.021501 -0.0043906 0.0057141 -0.024741 -0.092114 -0.10019 0.18731 -0.16747 -0.11534 0.080029 -0.041536 -0.14243 -0.17479 -0.14135 -0.088313 -0.11136 
backmarket.com 0.15705 0.059632 -0.26529 0.0012729 0.057331 -0.10073 -0.096376 -0.13406 -0.055265 0.0013151 0.027799 0.036948 -0.11658 -0.12871 -0.095497 0.17954 -0.12442 -0.089699 0.093234 -0.0019385 -0.14387 -0.13196 -0.12062 -0.047615 -0.10404 
13 0.14074 0.044112 -0.26282 -0.070016 0.035701 -0.041194 -0.085997 -0.075924 -0.034877 -0.00080151 -0.017713 0.0086267 -0.11787 -0.15026 -0.037281 0.19972 -0.11154 -0.12322 0.1408 0.031286 -0.1231 -0.14214 -0.13713 -0.049031 -0.067758 
swappa.com -0.093562 -0.34852 0.30607 0.035777 -0.090267 -0.068693 -0.014889 0.1404 -0.18256 -0.20865 0.15811 0.2708 -0.13096 -0.13214 0.082969 0.13958 0.018308 0.040898 0.078741 0.12904 0.019144 0.11457 -0.054072 -0.1244 0.018674 
terms -0.17076 -0.059964 0.041942 0.10739 -0.054509 -0.029508 0.0237 0.081661 0.23162 0.0068207 0.050899 0.36656 0.16845 -0.18173 -0.070879 0.18056 -0.11758 0.013521 -0.041912 -0.032821 -0.0381 0.14162 0.025014 -0.3707 0.082211 
abstract 0.000734 0.15721 -0.098972 -0.020914 0.036849 -0.032274 -0.0033268 -0.020405 0.23532 0.13199 -0.083064 0.029588 0.14077 0.048455 -0.05111 -0.03298 0.030354 -0.0052624 -0.058463 -0.13368 0.063922 0.01421 0.025991 -0.071152 0.0043701 
art 0.039925 0.14989 -0.12914 -0.03781 -0.020369 0.021465 -0.0064861 -0.0052631 0.26627 0.19814 -0.04741 0.010649 0.13711 -0.002595 -0.093708 -0.014436 -0.017516 -0.0057868 -0.11909 -0.17053 0.0016074 -0.046638 0.063896 -0.090094 -0.011629 
print 0.048246 0.11451 -0.12674 0.025173 0.014361 -0.018196 0.0037558 -0.048639 0.23017 0.13542 -0.064085 0.018051 0.17461 0.074456 -0.018611 0.0097893 0.025765 -0.020335 -0.10116 -0.10475 0.070912 -0.0021538 0.01584 -0.069967 0.035157 
greatbigcanvas.com -0.09929 -0.2911 0.26369 0.066944 -0.10278 -0.049487 -0.01153 0.14941 -0.045176 -0.15296 0.11835 0.24681 -0.023384 -0.12713 0.01378 0.12971 -0.047527 0.063307 0.015674 0.025207 0.042583 0.053358 -0.018395 -0.16299 -0.010278 
van -0.13388 -0.28811 0.28354 0.10167 -0.11945 0.0014766 -0.018537 0.11216 -0.048381 -0.12968 0.17669 0.28769 -0.031921 -0.13742 0.037005 0.14001 -0.021267 0.022675 -0.011283 0.051673 0.033184 0.1104 -0.03187 -0.15749 -0.015628 
gogh -0.14494 -0.29668 0.25842 0.049393 -0.10418 -0.027814 0.027641 0.086994 -0.0038645 -0.18917 0.15308 0.24068 0.020019 -0.093091 0.05695 0.13548 -0.058141 0.010953 0.041335 0.08122 0.037897 0.072834 -0.05839 -0.16791 -0.011179 
starry -0.097124 -0.30037 0.21943 0.032882 -0.12097 0.0089602 0.0073668 0.14112 -0.016369 -0.18807 0.12156 0.23989 -0.0068325 -0.10614 0.08656 0.077514 -0.016664 0.05659 0.062956 0.086578 -0.015277 0.065278 -0.026205 -0.2078 -0.02144 
joespizzanyc.com -1.0123 -0.043689 0.43283 0.10018 0.61507 0.15494 0.025338 0.18556 -0.13327 -0.051337 -0.11146 0.42934 -0.045084 0.50035 -0.12497 -0.14437 0.40603 0.65702 -0.031798 0.09861 -0.24088 0.65933 0.42023 -0.074999 0.34821 
layout 0.17407 0.085882 -0.29426 -0.0035581 0.0055907 -0.029584 -0.10512 -0.063655 0.097922 0.036577 -0.021051 -0.025833 0.035825 -0.061542 -0.070448 0.14947 -0.1396 -0.11507 0.047857 -0.029685 -0.0952 -0.13965 -0.085984 -0.11434 -0.0214 
healthyblog.com 0.21257 0.018318 -0.28736 -0.0044039 -0.020712 -0.047572 -0.14266 -0.16281 -0.07894 0.0035076 0.048065 -0.032424 -0.11609 -0.14605 -0.077019 0.2209 -0.17971 -0.12365 0.082367 -0.0088955 -0.15382 -0.13478 -0.20571 -0.04976 -0.11015 
post 0.23912 0.067374 -0.30595 -0.044074 -0.023933 -0.086203 -0.128 -0.11371 -0.11116 -0.064434 -0.00857 -0.038447 -0.065241 -0.1609 -0.082618 0.21959 -0.14402 -0.15874 0.09033 0.035573 -0.14667 -0.1628 -0.21365 -0.031592 -0.091395 
intermittent 0.19156 0.072068 -0.27303 -0.07198 -0.030659 -0.051763 -0.10871 -0.096194 -0.051242 -0.046558 0.036821 -0.022481 -0.092468 -0.16229 -0.048049 0.21243 -0.17279 -0.16343 0.11873 0.043154 -0.18047 -0.1767 -0.16172 -0.032842 -0.069033 
fasting 0.18453 0.025401 -0.24474 -0.0051741 0.01593 -0.097694 -0.13929 -0.12717 -0.038865 -0.046038 0.017681 0.0095534 -0.065794 -0.12026 -0.11215 0.24217 -0.10521 -0.15382 0.1048 0.039175 -0.18063 -0.16321 -0.17319 -0.048555 -0.058831 
mybookreviews.net 0.18268 0.17271 -0.33105 0.011347 -0.074323 -0.01416 -0.076379 -0.090899 0.18326 0.074941 -0.080802 -0.0871 0.25324 -0.11951 -0.089747 0.084452 -0.18525 -0.17374 -0.084777 -0.15257 0.041441 -0.072671 -0.0058106 -0.091202 -0.088852 
author 0.22929 0.16385 -0.31936 -0.0051302 -0.12358 -0.04485 -0.048488 -0.050267 0.23183 0.093401 -0.057481 -0.019635 0.20783 -0.093788 -0.039303 0.067649 -0.18153 -0.19757 -0.032161 -0.11967 0.042131 -0.11331 0.002172 -0.14342 -0.021455 
fantasy 0.19983 0.17908 -0.36723 -0.018115 -0.087658 -0.039443 -0.015932 -0.036282 0.22164 0.11365 -0.11486 -0.059019 0.2431 -0.063814 -0.045265 0.092979 -0.17199 -0.22955 -0.084675 -0.1195 0.0056243 -0.10079 -0.0048126 -0.10264 -0.045738 
grid 0.18122 0.11904 -0.24521 -0.029585 -0.058077 -0.03217 -0.085693 -0.065776 0.12594 0.028933 -0.04983 0.0098081 0.10617 -0.11938 -0.088122 0.13828 -0.1597 -0.10799 -0.018448 -0.014271 -0.081839 -0.1265 -0.05558 -0.11454 -0.077773 
downtown-dental.com -0.61615 0.047286 0.19233 0.061292 0.41865 0.054706 0.03713 0.082811 -0.018699 0.040296 -0.087302 0.24568 0.059375 0.29101 -0.095358 -0.079633 0.18864 0.39722 -0.015711 0.0051118 -0.11341 0.38651 0.2715 -0.098386 0.19492 
appointments -0.62311 0.093009 0.1485 0.071037 0.36825 0.084408 0.014602 0.10755 -0.020817 0.0092431 -0.098492 0.24607 0.023377 0.29042 -0.11446 -0.091622 0.19672 0.37913 -0.041611 0.0090686 -0.17563 0.41058 0.28959 -0.076381 0.23455 
harborviewhotels.com -0.54031 0.047313 0.17444 0.0333 0.28132 0.035067 0.003581 0.12357 -0.048024 -0.040879 -0.07104 0.24574 -0.0082371 0.25851 -0.042375 -0.08394 0.20294 0.31765 -0.051621 0.077579 -0.1459 0.3441 0.19386 -0.011556 0.17747 
blueskytaxservices.com -0.40914 0.045044 0.13509 0.028708 0.27278 0.042101 0.038048 0.052782 -0.082238 -0.042137 -0.11539 0.20036 -0.0036982 0.23627 -0.047041 -0.073229 0.11777 0.24398 -0.052813 0.047195 -0.079371 0.31501 0.12918 -0.061483 0.13434 
elitepainting.co -0.48255 0.013064 0.18054 0.015353 0.32116 0.045353 0.038284 0.083439 -0.021745 -0.067564 -0.065563 0.21508 0.018054 0.23118 -0.050626 -0.030375 0.10549 0.32719 0.011836 0.064767 -0.13111 0.36163 0.23735 -0.028893 0.20448 
benchmarkrestorations.com -0.28371 -0.038222 0.1233 0.011114 0.13556 0.0084286 0.018721 0.045348 -0.074704 -0.11539 -0.053141 0.11271 -0.09209 0.14063 0.0096879 -0.021374 0.058731 0.16163 0.013629 0.11787 -0.047446 0.19543 0.070799 0.0026835 0.10579 
grimaldis.com -0.56317 0.081076 0.10992 0.042378 0.35202 0.090404 -0.011631 0.090549 0.029803 0.039818 -0.12042 0.24425 0.093994 0.27568 -0.11439 -0.12161 0.19792 0.33809 -0.092536 0.0060752 -0.12169 0.37605 0.21888 -0.079997 0.25136 
tips 0.099809 0.1352 -0.22997 0.013224 -0.026457 -0.035567 -0.021624 -0.041084 0.10141 0.087026 -0.039729 0.0067355 0.089779 -0.03753 -0.026259 0.11323 -0.07121 -0.086759 -0.030282 -0.045083 -0.039926 -0.092336 -0.066833 -0.036353 -0.0038054 
paulgraham.com 0.33715 0.21544 -0.56266 -0.054729 0.067558 -0.074448 -0.17773 -0.25966 0.094431 0.12819 -0.038005 -0.0088306 -0.0019336 -0.15912 -0.18094 0.32381 -0.19597 -0.22588 0.14271 -0.056159 -0.18781 -0.24487 -0.26824 -0.12431 -0.14606 
essays 0.3216 0.20625 -0.59782 -0.10261 0.049173 -0.10208 -0.18726 -0.18476 0.094983 0.066259 -0.056553 -0.020074 0.017081 -0.22816 -0.15407 0.35014 -0.25366 -0.24652 0.10206 -0.062198 -0.24234 -0.21199 -0.22765 -0.13145 -0.13478 
startups 0.29131 0.2419 -0.56023 -0.038886 0.035892 -0.14871 -0.21325 -0.19851 0.0449 0.05926 -0.017297 0.010792 -0.035681 -0.15481 -0.22008 0.30142 -0.21875 -0.19878 0.11015 -0.012569 -0.23944 -0.25066 -0.23895 -0.11736 -0.11383 
simonwillison.net 0.13278 0.12807 -0.3298 -0.030204 -0.031608 -0.050559 -0.10721 -0.057989 0.10823 0.055916 -0.021598 -0.044315 0.11693 -0.09535 -0.067255 0.097827 -0.11902 -0.11828 -0.019372 -0.052609 -0.089477 -0.075755 -0.104 -0.13067 -0.020949 
llm 0.17562 0.11202 -0.28798 -0.0066906 -0.018964 -0.026039 -0.10774 -0.050517 0.099836 0.064767 -0.047455 -0.029782 0.085875 -0.099155 -0.07535 0.1526 -0.12578 -0.12899 0.029899 -0.065318 -0.028639 -0.080704 -0.045829 -0.10374 -0.039026 
security 0.17638 0.14608 -0.3298 -0.01068 -0.050314 -0.042688 -0.043725 -0.054411 0.13491 0.09997 -0.054814 -0.050646 0.080545 -0.073744 -0.10068 0.17343 -0.16373 -0.1082 0.0074761 -0.092006 -0.035395 -0.094106 -0.070312 -0.12321 -0.091919 
jvns.ca 0.15452 0.10736 -0.25077 -0.040651 -0.050508 -0.019442 -0.053464 -0.064962 0.05961 0.048789 -0.032462 0.0093524 0.085158 -0.063982 -0.054965 0.075975 -0.11271 -0.10587 0.038321 -0.062169 -0.045913 -0.11804 -0.032065 -0.087479 -0.054883 
debugging 0.093693 0.091867 -0.24458 0.022412 -0.0018571 -0.01541 -0.032891 -0.066386 0.089546 0.074076 -0.020546 -0.0027859 0.10696 -0.11454 -0.095498 0.11246 -0.071483 -0.14921 0.022593 -0.037544 -0.011937 -0.055804 -0.046431 -0.049389 -0.0068892 
menu -0.57533 0.061228 0.11908 0.084378 0.33557 0.093213 0.045159 0.14018 0.045636 0.032279 -0.12456 0.24483 0.092674 0.29254 -0.086001 -0.08183 0.16212 0.32278 -0.093925 0.0038231 -0.1097 0.37115 0.24974 -0.072792 0.18541 
overreacted.io 0.22161 0.088958 -0.31691 -0.081645 -0.022695 -0.077467 -0.13419 -0.13451 -0.10628 -0.060471 0.0049305 0.014149 -0.069565 -0.13285 -0.090487 0.24253 -0.15395 -0.1087 0.088852 0.015106 -0.19799 -0.13851 -0.22372 -0.063915 -0.077888 
why 0.26207 0.039917 -0.28998 -0.010253 0.033199 -0.10659 -0.12116 -0.11257 -0.071826 -0.016869 -0.0067745 0.032679 -0.07285 -0.18976 -0.0584 0.26012 -0.17698 -0.112 0.11671 0.039228 -0.13655 -0.19098 -0.17564 -0.079571 -0.083626 
do 0.20253 0.080054 -0.28867 -0.025886 -0.017245 -0.090008 -0.14068 -0.11972 -0.037498 -0.0052881 0.034761 -0.00063383 -0.10796 -0.19121 -0.1176 0.25387 -0.12103 -0.13258 0.088867 0.056272 -0.18732 -0.12185 -0.17523 -0.061607 -0.090823 
hooks 0.22038 0.075599 -0.29985 -0.020725 0.034075 -0.12419 -0.10178 -0.1575 -0.085717 -0.051307 0.0039987 -0.039386 -0.06506 -0.16318 -0.10955 0.28679 -0.17966 -0.14163 0.12893 -0.0078713 -0.14338 -0.17461 -0.20373 -0.1141 -0.073125 
exist 0.21084 0.064865 -0.29829 -0.034905 -0.01755 -0.059031 -0.1751 -0.13132 -0.098512 0.0047004 -0.01858 -0.001689 -0.10648 -0.17995 -0.11833 0.24664 -0.18273 -0.12247 0.13794 0.06784 -0.14395 -0.18123 -0.22387 -0.075402 -0.098414 
rachelandrew.co.uk 0.15534 0.1502 -0.29817 -0.027384 -0.048082 -0.025741 -0.092184 -0.045244 0.10238 0.025238 -0.030077 -0.043315 0.038082 -0.091006 -0.088819 0.10881 -0.092756 -0.16803 0.023712 -0.016901 -0.067971 -0.12798 -0.11591 -0.060382 -0.027527 
archives 0.19303 0.12682 -0.31939 0.0016779 -0.042114 -0.01394 -0.097277 -0.1229 0.078069 0.03217 -0.045781 -0.031358 0.084387 -0.11999 -0.046841 0.15812 -0.1626 -0.16648 -0.019435 -0.022281 -0.016688 -0.071172 -0.10579 -0.10591 -0.067499 
thecakabakery.com -0.42082 0.092335 0.031357 0.076836 0.19657 0.058369 0.052857 0.093724 0.055265 0.0048094 -0.10548 0.12155 0.087126 0.22225 -0.069337 -0.1025 0.10699 0.18055 -0.067778 -0.019334 -0.072069 0.25052 0.22761 -0.077785 0.12007 
classes -0.52244 0.1339 0.064664 0.011301 0.32248 0.12031 -0.012859 0.10084 0.047577 0.03938 -0.14772 0.21859 0.11706 0.25712 -0.08588 -0.076292 0.17081 0.2672 -0.09581 0.0386 -0.082801 0.36615 0.30427 -0.079472 0.19858 
englishgardenflowers.com -0.50672 0.1419 0.10937 0.074482 0.32973 0.048671 0.026202 0.08477 0.083415 0.031577 -0.18266 0.2048 0.082205 0.3226 -0.094288 -0.078428 0.12426 0.27747 -0.055125 0.0096975 -0.11433 0.32708 0.26868 -0.085526 0.18515 
weddings -0.48991 0.086543 0.11187 0.065781 0.27247 0.048859 0.062816 0.086211 0.091163 0.039832 -0.16684 0.16837 0.08687 0.24978 -0.058196 -0.096377 0.15845 0.24147 -0.11006 -0.0099698 -0.08489 0.36443 0.28523 -0.010769 0.21131 
cascaderoofing.net -0.29196 0.10147 0.015906 0.062769 0.1925 0.064396 0.02263 0.082752 0.072985 0.089096 -0.10091 0.13169 0.09669 0.18516 -0.067431 -0.044489 0.063632 0.12833 -0.051733 -0.025834 0.013385 0.19826 0.17743 -0.0086648 0.14513 
zensationalspa.com -0.10481 0.12058 -0.021241 0.0070448 0.072992 0.038531 0.0010279 0.023081 0.11924 0.070667 -0.036039 0.038846 0.10611 0.057294 -0.030802 -0.093969 0.075388 0.067036 -0.028596 -0.027683 0.022733 0.12124 0.074024 0.0070101 0.041636 
texastacotruck.com -0.49154 0.087391 0.081416 0.022485 0.25241 0.11224 0.057763 0.12148 0.10068 0.029783 -0.20766 0.15413 0.12768 0.2764 -0.089925 -0.11643 0.16855 0.25088 -0.078171 0.020149 -0.11199 0.36834 0.30317 -0.06962 0.19057 
catering -0.52953 0.083993 0.086065 0.032887 0.31427 0.1052 0.04678 0.12822 0.086377 0.015403 -0.13318 0.16562 0.16326 0.2744 -0.11762 -0.068729 0.1462 0.2563 -0.055477 0.026978 -0.08367 0.35482 0.24106 -0.026941 0.16603 
yardmasterslandscape.com -0.14296 0.12824 0.018594 -0.026403 0.10128 0.064732 0.030357 0.023476 0.13232 0.09543 -0.076135 0.0068372 0.071776 0.081513 -0.039927 -0.060902 0.042529 0.046269 -0.034035 -0.069184 -0.015315 0.11531 0.07554 -0.013174 0.10697 
mariposayoga.com -0.49844 0.11116 0.074374 0.058401 0.29533 0.067421 0.017069 0.089432 0.075851 0.059622 -0.1774 0.16838 0.13121 0.29707 -0.050071 -0.07164 0.16 0.28736 -0.11374 -0.003496 -0.060621 0.35332 0.23047 -0.050338 0.22766 
cakes -0.36108 0.065214 0.047778 0.031249 0.22016 0.057943 0.0021438 0.080064 0.070567 0.067273 -0.10688 0.16475 0.13797 0.20025 -0.099417 -0.10467 0.13901 0.21112 -0.10832 -0.023154 -0.0245 0.23985 0.18024 -0.02796 0.16095 
taxprogroup.com -0.32597 0.062535 0.044956 0.019354 0.19871 0.021153 0.00079323 0.059512 0.038231 0.066687 -0.12158 0.11302 0.070783 0.17154 -0.0572 -0.096172 0.12614 0.17626 -0.10846 0.0023941 -0.01563 0.22362 0.21738 -0.037982 0.10953 
preparation -0.3449 0.11339 0.03257 0.034363 0.2119 0.09588 -0.014808 0.10758 0.09588 0.054981 -0.13881 0.10287 0.1451 0.20705 -0.092116 -0.10472 0.097718 0.19017 -0.054837 -0.039221 -0.030136 0.24184 0.1642 -0.039072 0.17008 
woodthumb.com -0.43429 0.091822 0.083829 0.051637 0.2288 0.063652 0.061451 0.11787 0.026254 -0.014808 -0.11873 0.13986 0.12947 0.25877 -0.075049 -0.053384 0.1436 0.2414 -0.099746 0.037649 -0.076154 0.32805 0.25509 -0.051902 0.1825 
highdesertautobody.com -0.4203 0.1302 0.011384 0.059942 0.2844 0.065468 0.046586 0.075026 0.068002 0.018688 -0.10974 0.17889 0.13512 0.2514 -0.043762 -0.062909 0.13185 0.24522 -0.064938 -0.0067245 -0.048287 0.31985 0.22305 -0.015943 0.14014 
collision -0.41666 0.088594 0.0546 0.012536 0.25333 0.057101 0.0083902 0.11437 0.048479 0.071321 -0.12034 0.15543 0.17032 0.24785 -0.0723 -0.10701 0.1302 0.21433 -0.056953 -0.028662 -0.060132 0.28318 0.2473 -0.066786 0.14798 
repair -0.44547 0.11435 0.031548 0.079768 0.25178 0.048183 0.062083 0.069811 0.052416 0.072864 -0.16542 0.16886 0.15231 0.21741 -0.060241 -0.04062 0.081148 0.24523 -0.075763 0.021446 -0.061651 0.28696 0.26942 -0.036943 0.13546 
ck 0.21212 0.055329 -0.2769 -0.03596 0.026271 -0.067573 -0.10643 -0.11606 -0.060393 -0.029389 0.014209 -0.0015585 -0.087132 -0.16209 -0.12609 0.18668 -0.14323 -0.16261 0.12725 -0.015141 -0.17257 -0.095499 -0.1743 -0.12538 -0.096651 
boulderbeerfest.com -0.7426 0.15272 0.12956 0.024615 0.45372 0.085352 0.024535 0.15713 0.029824 0.031588 -0.2314 0.25989 0.092689 0.35146 -0.13057 -0.13642 0.16841 0.40763 -0.091283 0.037815 -0.12799 0.47414 0.36036 -0.075144 0.25549 
lenses -0.4452 0.10983 0.083988 0.036788 0.26021 0.046427 -0.0014578 0.056736 0.06689 0.040481 -0.13412 0.18758 0.12811 0.23357 -0.081323 -0.08523 0.13878 0.25821 -0.061035 0.021611 -0.063629 0.29968 0.26176 -0.085061 0.19484 
contact -0.43421 0.082938 0.045977 0.016965 0.23838 0.060465 -0.0082424 0.073087 0.068472 0.066023 -0.13723 0.17464 0.080287 0.25289 -0.045605 -0.089242 0.10476 0.28017 -0.10627 -0.013488 -0.10673 0.31357 0.23468 -0.075274 0.18392 
lakefronteyecare.com -0.44036 0.091132 0.10441 0.0081779 0.25339 0.048615 0.01258 0.12609 0.015878 0.013661 -0.16724 0.15558 0.090868 0.22597 -0.049155 -0.078235 0.13935 0.25714 -0.03855 -0.020089 -0.085874 0.33592 0.25314 -0.042896 0.20955 
whitening -0.45402 0.061531 0.068324 0.0064531 0.24029 0.051354 0.053487 0.068035 0.086803 -0.011001 -0.1303 0.19738 0.11078 0.22297 -0.084793 -0.090788 0.08552 0.27331 -0.092286 0.018711 -0.093416 0.29612 0.25857 -0.012636 0.17655 
teeth -0.432 0.12116 0.063411 0.077555 0.30701 0.10022 0.017588 0.11151 0.013152 0.066416 -0.1615 0.13504 0.12724 0.25044 -0.098534 -0.042589 0.15944 0.22678 -0.054205 -0.024302 -0.10186 0.34175 0.19879 -0.03505 0.20372 
sunrisedentalcare.net -0.47111 0.088087 0.064863 0.072181 0.23392 0.08529 -0.017514 0.095 0.053324 0.066029 -0.1108 0.20998 0.069952 0.21806 -0.070272 -0.039359 0.15813 0.2148 -0.034845 -0.022625 -0.078064 0.34915 0.22953 -0.048051 0.19388 
cleaning -0.48707 0.10458 0.10414 0.035033 0.31098 0.097252 0.015592 0.055689 0.027356 -0.00069998 -0.13933 0.17191 0.096636 0.26568 -0.067259 -0.048012 0.13945 0.23648 -0.087385 -0.0080159 -0.10306 0.3107 0.19143 -0.018885 0.14834 
drain -0.47868 0.094837 0.049784 0.01502 0.25087 0.088168 0.024803 0.072396 0.068691 0.035463 -0.12722 0.21485 0.13802 0.2626 -0.049486 -0.057212 0.15599 0.21261 -0.08792 0.0020159 -0.042434 0.34997 0.22722 -0.04317 0.16557 
goldenstateplumbing.com -0.42171 0.066755 0.10618 0.053025 0.28276 0.050733 -0.0086243 0.079406 0.053695 0.028874 -0.14886 0.14831 0.10198 0.27023 -0.04566 -0.09592 0.15652 0.21914 -0.039885 0.018014 -0.089828 0.30595 0.20823 -0.048672 0.20187 
atipt.com -0.22495 0.01055 0.075164 0.030331 0.071231 0.072131 0.017749 0.047317 -0.047172 -0.043838 -0.042915 0.083611 0.015499 0.13225 0.016466 -0.029517 0.071684 0.14714 -0.054096 0.038118 0.0067771 0.14911 0.12044 -0.037432 0.056632 
greatlakesroofing.com -0.19793 -0.0066335 0.095512 0.024117 0.08342 0.063117 0.020142 0.08764 -0.051514 -0.036551 -0.029675 0.099813 0.025449 0.075391 0.019925 -0.07727 0.088764 0.12032 -0.015051 0.0348 -0.035064 0.1963 0.095466 0.019661 0.069893 
areas -0.4696 0.088536 0.084985 0.069532 0.26233 0.081891 0.036953 0.086519 0.032689 0.008823 -0.12027 0.19507 0.060488 0.26984 -0.087994 -0.035777 0.11179 0.22745 -0.038039 0.005317 -0.098123 0.30272 0.21485 -0.05364 0.20187 
practice -0.45478 0.1035 0.1064 0.027065 0.2593 0.059014 0.010233 0.10136 0.033899 0.060051 -0.14096 0.16441 0.096652 0.26702 -0.080694 -0.039236 0.16979 0.29667 -0.027598 -0.017081 -0.098049 0.3141 0.22354 -0.04384 0.20851 
protomannilaw.com -0.48975 0.11092 0.062268 0.065363 0.26076 0.029296 0.017316 0.0817 0.072727 0.068837 -0.14117 0.14374 0.09223 0.22217 -0.11368 -0.095196 0.10737 0.25035 -0.074959 0.033128 -0.09726 0.34648 0.20665 -0.082454 0.2111 
criminal 0.070876 -0.17958 0.18886 0.016432 -0.086172 -0.073473 0.024795 0.025109 -0.33066 -0.18053 0.1036 -0.15917 -0.043165 0.040983 0.13497 -0.079308 0.17507 0.0028403 -0.032122 -0.058292 0.084996 -0.082581 -0.063001 0.25007 -0.050674 
cardiologist 0.008335 -0.25222 0.19526 0.017143 -0.02298 -0.039292 -0.067045 0.018494 -0.30106 -0.19498 0.060244 -0.15368 -0.10151 0.060464 0.13187 0.0094503 0.1596 0.038768 -0.013586 -0.033726 0.025018 -0.060674 -0.080156 0.13472 -0.06769 
turo.com -0.040009 -0.2313 0.21454 -0.043941 -0.023928 -0.057062 -0.045418 0.012851 -0.28622 -0.14655 0.1265 -0.13086 -0.11058 0.09078 0.084119 -0.014837 0.15344 0.028751 0.056415 -0.031514 0.04821 0.012376 -0.10223 0.16722 -0.063461 
location -0.039611 -0.24495 0.18136 0.016465 -0.0040966 -0.098067 -0.011502 0.015827 -0.33853 -0.13759 0.13472 -0.13129 -0.11819 0.053203 0.062381 -0.010164 0.14565 0.010592 0.022105 -0.011507 0.027295 -0.031882 -0.10066 0.16199 -0.053368 
dropbox.com 0.014302 0.31589 -0.2642 -0.016065 0.069376 -0.030029 -0.023538 -0.10388 0.47342 0.33319 -0.10285 0.051376 0.2877 0.079164 -0.12918 0.053766 0.10018 -0.043407 -0.14488 -0.30673 0.044606 -0.05214 0.034685 -0.14132 0.020056 
stays 0.046074 -0.20638 0.25008 -0.02281 -0.072091 -0.045948 0.002392 -0.00098362 -0.35509 -0.18329 0.12111 -0.12881 -0.068614 0.068993 0.10532 -0.07614 0.14986 -0.02952 0.036393 -0.007999 0.040323 -0.033668 -0.083282 0.18138 -0.070866 
las 0.0049589 -0.25267 0.18236 -0.027226 -0.053072 -0.078768 -0.017838 -0.014898 -0.3237 -0.14605 0.0567 -0.18763 -0.12534 0.095506 0.1397 -0.084491 0.14331 0.020771 0.0096076 -0.013083 0.041104 -0.047428 -0.079965 0.15804 -0.10413 
vegas 0.00079996 -0.19458 0.21285 0.012362 -0.078778 -0.061395 -0.041526 -0.020263 -0.30561 -0.15804 0.12797 -0.14854 -0.090011 0.022037 0.099841 -0.010878 0.15957 -0.01275 0.024278 0.018376 0.089931 -0.012946 -0.03992 0.20256 -0.040342 
findlaw.com 0.027468 -0.18107 0.21456 -0.030128 -0.07779 -0.016166 -0.020687 0.012456 -0.29967 -0.11615 0.057556 -0.16346 -0.098194 0.039138 0.1318 -0.10427 0.13774 0.0071011 0.0081615 -0.034748 0.050119 -0.087678 -0.035697 0.2008 -0.042291 
vitals.com 0.0013644 -0.2118 0.19082 0.017619 0.0013452 -0.038013 -0.010584 -0.020192 -0.29512 -0.15407 0.087907 -0.14318 -0.12308 0.01156 0.089804 0.0085894 0.13711 0.0031994 0.05286 -0.032187 0.026576 -0.075045 -0.081097 0.13643 -0.08445 
defense 0.060733 -0.23468 0.20961 0.0081017 -0.020852 -0.040877 -0.0094519 0.020907 -0.30859 -0.12024 0.065237 -0.19585 -0.10866 0.076756 0.086765 -0.11244 0.1455 -0.019913 0.021488 0.0035666 0.086673 -0.037215 -0.079973 0.19624 -0.098012 
kbb.com -0.023154 -0.24638 0.16591 -0.012773 -0.016039 -0.079385 -0.035878 0.016215 -0.29055 -0.10961 0.086924 -0.09379 -0.089476 0.045675 0.05797 -0.005247 0.10653 0.030434 0.019131 0.014038 -0.0067378 -0.0083599 -0.044429 0.12481 -0.095496 
used 0.0041694 -0.24412 0.21013 0.012094 -0.041237 -0.095775 0.00054623 0.028202 -0.2646 -0.13857 0.083643 -0.071474 -0.080772 0.066584 0.054043 -0.054832 0.12181 0.0068273 0.030925 0.00032518 0.028698 -0.0067035 -0.080803 0.12042 -0.050688 
orbitz.com 0.052808 -0.21141 0.15463 -0.014076 -0.05392 -0.052184 -0.028343 0.0058706 -0.23589 -0.16331 0.10403 -0.13665 -0.053226 0.0212 0.085268 -0.103 0.11221 -0.028403 -0.055871 -0.019818 0.086051 -0.042919 -0.050729 0.18138 -0.051917 
carrentals.com -0.0028969 -0.27107 0.2132 0.0031171 -0.042705 -0.038074 -0.064085 -0.0045243 -0.32616 -0.19666 0.10517 -0.16988 -0.13501 0.013635 0.095228 -0.014897 0.1757 -0.0088518 0.039963 0.034414 0.061284 -0.058529 -0.071314 0.22757 -0.10429 
airport 0.015081 -0.29025 0.26369 0.017745 -0.032405 -0.069411 -0.056151 0.017554 -0.33763 -0.1735 0.1061 -0.13798 -0.089406 0.074754 0.10322 -0.061823 0.13173 -0.020779 -0.014322 0.016923 0.049674 -0.050292 -0.079259 0.20156 -0.047832 
moz.com 0.13663 0.028754 -0.23922 -0.011658 0.060253 -0.048848 -0.12138 -0.10139 -0.067807 -0.042798 -0.012021 -0.00025055 -0.047687 -0.15021 -0.082205 0.24044 -0.12756 -0.11045 0.06616 0.0091071 -0.18015 -0.14768 -0.17382 -0.095812 -0.078295 
francisco 0.00065486 -0.29099 0.24155 -0.0029954 -0.026881 -0.037859 -0.030092 -0.0015983 -0.37672 -0.23289 0.10081 -0.20274 -0.078212 0.075382 0.12593 -0.071276 0.16204 -0.019673 0.02854 0.011414 0.068717 -0.0071501 -0.08745 0.22665 -0.065758 
glassdoor.com 0.16854 0.048246 -0.2774 -0.0080253 0.049631 -0.096272 -0.093344 -0.10525 -0.058013 -0.0086141 0.036744 0.03509 -0.092281 -0.16813 -0.054956 0.21891 -0.14821 -0.14502 0.1281 -0.012342 -0.14019 -0.13525 -0.14784 -0.11575 -0.10747 
e9079 0.19751 0.072426 -0.29447 -0.031963 0.037555 -0.070608 -0.090305 -0.10999 -0.057793 -0.035093 -0.03873 0.041932 -0.060275 -0.094302 -0.11965 0.25061 -0.10545 -0.085664 0.095244 -0.024159 -0.14134 -0.12123 -0.14623 -0.058238 -0.1019 
indeed.com -0.0042826 -0.25508 0.26311 -0.040537 -0.016746 -0.057382 -0.034672 0.015131 -0.3575 -0.16031 0.13754 -0.15357 -0.14225 0.054298 0.12498 -0.072049 0.16645 0.021114 0.015673 -0.030729 0.081034 -0.01949 -0.11248 0.23243 -0.072025 
jobs -0.0011823 -0.32153 0.27558 0.011174 -0.027352 -0.066041 -0.020645 0.047628 -0.39739 -0.22246 0.12993 -0.18632 -0.15399 0.087142 0.1085 -0.044968 0.19619 -0.022151 -0.016927 -0.0062723 0.082293 -0.009039 -0.11019 0.24651 -0.08447 
q -0.002684 -0.24629 0.30074 0.028531 -0.065208 -0.08736 -0.046716 0.019859 -0.39691 -0.23095 0.14805 -0.15933 -0.14792 0.083618 0.1049 -0.01365 0.20908 -0.0093091 0.0040959 -0.036205 0.03704 -0.062162 -0.069093 0.23566 -0.046858 
engineer -0.014536 -0.27802 0.25589 -0.040572 -0.020174 -0.098457 -0.049506 0.021004 -0.36145 -0.19028 0.14878 -0.12975 -0.093837 0.042837 0.1318 -0.04155 0.14588 0.02055 0.0081021 -0.017962 0.08152 -0.07067 -0.095885 0.22462 -0.091849 
l 0.05455 -0.25841 0.28646 -0.015041 -0.047318 -0.063796 0.010035 0.0394 -0.39544 -0.1644 0.10594 -0.14984 -0.11517 0.059257 0.13178 -0.079097 0.20177 0.046019 -0.021338 -0.0084715 0.042545 -0.06293 -0.053616 0.24422 -0.083716 
san 0.037498 -0.26996 0.2503 -0.037034 -0.050795 -0.10937 0.0075318 0.039237 -0.37047 -0.17557 0.10229 -0.19565 -0.14697 0.042668 0.14186 -0.036517 0.14294 0.04482 0.048013 -0.012956 0.091996 -0.062737 -0.055182 0.23844 -0.095336 
algorithm 0.16304 0.091352 -0.24482 -0.006701 0.010147 -0.068922 -0.11262 -0.14997 -0.07472 0.012146 -0.0025227 0.052554 -0.062682 -0.10989 -0.11289 0.19061 -0.15589 -0.098301 0.088399 -0.00021955 -0.16294 -0.14217 -0.13264 -0.052768 -0.052407 
thumbtack.com -0.0010176 -0.29137 0.24026 -0.048503 -0.029375 -0.10125 -0.027779 0.045109 -0.38489 -0.22553 0.11508 -0.15778 -0.11025 0.052189 0.17446 -0.011386 0.17459 0.041239 -0.015216 0.0016598 0.093573 -0.064021 -0.12281 0.27067 -0.12186 
house 0.053666 -0.26589 0.30656 0.00078388 -0.057014 -0.046122 -0.043975 -0.032386 -0.41059 -0.19238 0.11106 -0.20705 -0.10574 0.061548 0.13154 -0.021568 0.17712 -0.019565 0.01596 -0.016765 0.049278 -0.031518 -0.063006 0.23695 -0.12249 
cleaners 0.010495 -0.2894 0.25121 -0.034306 -0.071352 -0.061675 -0.043743 -0.014067 -0.37161 -0.19224 0.10379 -0.15195 -0.1177 0.1047 0.13274 -0.044449 0.205 -0.024011 0.055396 -0.047057 0.02931 -0.033586 -0.077692 0.26306 -0.10409 
near 0.065065 -0.29776 0.29287 -0.021343 -0.025645 -0.049984 -0.041097 0.037036 -0.37241 -0.19352 0.14036 -0.17626 -0.098566 0.057896 0.13922 -0.06473 0.1603 -0.028062 0.058134 -0.034688 0.038802 -0.025654 -0.063454 0.21813 -0.092437 
me -0.0023015 -0.32497 0.23788 0.0033041 -0.065862 -0.068746 0.0072053 -0.024785 -0.42003 -0.21562 0.13183 -0.20802 -0.15707 0.083842 0.17243 -0.067492 0.16324 0.019405 0.0072684 0.022917 0.066061 -0.085777 -0.07492 0.21974 -0.089681 
homeadvisor.com 0.016615 -0.33054 0.34879 -0.022563 0.0060442 -0.073046 -0.076175 -0.042346 -0.52685 -0.2671 0.1651 -0.22692 -0.21675 0.042377 0.15121 0.018995 0.22173 0.040031 0.06814 0.0012831 0.044907 -0.064386 -0.16258 0.26275 -0.077165 
task 0.04182 -0.37077 0.35669 0.018523 -0.01003 -0.14267 -0.083077 0.019933 -0.50406 -0.2559 0.14871 -0.22042 -0.24765 0.058096 0.11496 -0.010066 0.20526 0.064202 0.09111 0.051237 0.014744 -0.074568 -0.11396 0.31347 -0.093422 
css 0.18729 0.17451 -0.32438 -0.01381 -0.10507 -0.043397 -0.034662 -0.092638 0.22404 0.086083 -0.11076 -0.060004 0.22669 -0.10258 -0.085209 0.050067 -0.19677 -0.21345 -0.056781 -0.09751 0.038542 -0.058386 -0.043769 -0.112 -0.083451 
substack.com 0.16702 0.059367 -0.19023 -0.0091892 -0.0040315 -0.033268 -0.11104 -0.058168 -0.061223 0.013367 0.013843 0.036206 -0.063402 -0.083951 -0.04391 0.1587 -0.10277 -0.058229 0.049148 0.014926 -0.098028 -0.11654 -0.14383 -0.033516 -0.06324 
the 0.15238 0.05909 -0.24536 -0.055382 -0.028986 -0.081519 -0.10052 -0.065106 -0.045975 0.025317 -0.023811 -0.019003 -0.045248 -0.10766 -0.092969 0.19658 -0.13622 -0.078112 0.050399 -0.029658 -0.072156 -0.066855 -0.11385 -0.051859 -0.0588 
of 0.14465 0.029255 -0.24177 -0.064775 -0.0060989 -0.090761 -0.11079 -0.065714 -0.039539 -0.03157 0.035123 0.027819 -0.071548 -0.13571 -0.10305 0.1771 -0.12379 -0.095232 0.10058 0.0048629 -0.094617 -0.077539 -0.12371 -0.091561 -0.043939 
writing 0.17445 0.085158 -0.19554 0.013179 0.0075508 -0.048152 -0.11338 -0.095481 -0.027732 0.0059004 -0.0020414 -0.0074999 -0.035457 -0.090519 -0.04761 0.17559 -0.128 -0.12506 0.085633 0.019872 -0.070445 -0.091733 -0.094384 -0.026315 -0.020973 
css-tricks.com 0.14817 0.13167 -0.34878 -0.025739 0.024786 -0.070183 -0.14626 -0.17697 -0.0036202 0.0033403 0.03451 0.040137 -0.037386 -0.16778 -0.1481 0.29819 -0.13925 -0.085716 0.075815 0.0059781 -0.21921 -0.15752 -0.21647 -0.13145 -0.091223 
complete 0.18651 0.073055 -0.31959 -0.045336 0.020703 -0.12728 -0.10209 -0.17314 -0.031771 0.048913 -0.034079 0.017683 -0.083843 -0.11215 -0.13116 0.22889 -0.11857 -0.098521 0.076019 0.016591 -0.16451 -0.088056 -0.18166 -0.13507 -0.041488 
flexbox 0.17296 0.11909 -0.33724 -0.040994 0.030056 -0.064695 -0.16406 -0.16701 -0.039966 0.053796 -0.013329 0.020598 -0.10564 -0.15655 -0.13162 0.27255 -0.10796 -0.12023 0.091035 -0.023753 -0.20848 -0.12079 -0.15659 -0.078705 -0.043116 
smashingmagazine.com 0.16603 0.15762 -0.31374 -0.02578 -0.095663 -0.042514 -0.025011 -0.074946 0.18883 0.093744 -0.054967 -0.040797 0.22051 -0.10382 -0.049425 0.10873 -0.12564 -0.15007 -0.023387 -0.105 0.033371 -0.1183 -0.0041395 -0.14801 -0.049073 
year 0.19058 0.17575 -0.3406 -0.034678 -0.084782 -0.045499 -0.068645 -0.083118 0.14016 0.13733 -0.069361 -0.067514 0.13619 -0.1154 -0.10179 0.15248 -0.15858 -0.12643 -0.029358 -0.079016 -0.063291 -0.12172 -0.060315 -0.090447 -0.065069 
alistapart.com 0.18843 0.032578 -0.26192 -0.058626 0.028321 -0.063934 -0.098853 -0.13834 -0.10764 -0.067098 0.032414 -0.032639 -0.11172 -0.14346 -0.078555 0.24338 -0.12247 -0.085716 0.1412 0.062823 -0.15763 -0.10618 -0.16088 -0.049629 -0.080536 
responsive 0.19391 0.062048 -0.28607 -0.027379 -0.0043996 -0.066631 -0.15804 -0.11114 -0.11637 -0.034444 0.0038411 0.027242 -0.091022 -0.13793 -0.10596 0.25105 -0.12436 -0.134 0.1596 0.038529 -0.13799 -0.13027 -0.18384 -0.10788 -0.12783 
web 0.21917 0.0015408 -0.27992 -0.0088002 -0.010042 -0.098675 -0.13793 -0.090498 -0.090183 -0.053052 0.0088662 0.029679 -0.15084 -0.14257 -0.11065 0.27034 -0.14374 -0.10272 0.14356 0.076221 -0.1448 -0.11722 -0.15759 -0.055067 -0.061057 
markmanson.net 0.19289 0.037881 -0.27453 -0.0074565 0.028649 -0.080217 -0.13932 -0.13057 -0.02345 0.023999 0.033708 -0.003758 -0.032764 -0.15863 -0.076293 0.24753 -0.12727 -0.12939 0.051826 0.035482 -0.12315 -0.12379 -0.16499 -0.053478 -0.055201 
not 0.20288 0.11585 -0.31008 -0.074872 -0.028547 -0.091728 -0.11093 -0.12635 -0.058836 -0.0087372 -0.0073188 -0.006486 -0.058774 -0.11053 -0.11315 0.21639 -0.14333 -0.13593 0.056862 -0.032301 -0.17353 -0.16493 -0.15011 -0.077334 -0.093555 
giving 0.18191 0.086702 -0.27207 -0.0042536 0.038104 -0.093108 -0.14815 -0.13836 0.0092251 -0.017208 0.018532 0.035608 -0.076751 -0.15667 -0.064833 0.24382 -0.10474 -0.097035 0.11234 0.013063 -0.16464 -0.1658 -0.15009 -0.077065 -0.05468 
f 0.20775 0.048059 -0.26094 -0.04338 0.013847 -0.071603 -0.078183 -0.098285 -0.033358 0.041713 -0.01147 -0.0041552 -0.052032 -0.13907 -0.059668 0.18096 -0.15877 -0.14962 0.058845 -0.0011267 -0.16066 -0.11551 -0.13475 -0.10004 -0.09583 
avvo.com 0.03297 -0.14744 0.17035 -0.010596 -0.068615 -0.051838 0.0080335 -0.0087528 -0.22167 -0.078076 0.098334 -0.095243 -0.061528 0.068228 0.053317 -0.03317 0.11646 0.014777 0.035029 0.010308 0.024291 -0.0312 -0.0081637 0.12135 -0.053084 
my 0.16719 0.16029 -0.36935 -0.017266 -0.030652 -0.064829 -0.099008 -0.062049 0.15667 0.063615 -0.10965 -0.0034569 0.16286 -0.12464 -0.12655 0.16569 -0.19936 -0.15347 -0.0078435 -0.062744 -0.0093252 -0.088017 -0.042314 -0.09395 -0.05937 
johnsmith 0.19151 0.20073 -0.37946 0.013002 -0.083555 -0.058787 -0.094273 -0.072774 0.15186 0.082094 -0.10908 0.0084009 0.1445 -0.070916 -0.077104 0.10162 -0.18266 -0.15959 -0.012496 -0.058114 -0.042672 -0.090823 -0.051733 -0.10163 -0.077673 
medium.com 0.18341 0.16752 -0.36276 -0.012597 -0.0082238 -0.051789 -0.037462 -0.048525 0.13503 0.12046 -0.04436 -0.051155 0.13165 -0.11424 -0.067574 0.14081 -0.16325 -0.14792 -0.047152 -0.067905 -0.059913 -0.13275 -0.081113 -0.12346 -0.032161 
copyblogger.com 0.15711 0.18412 -0.27992 -0.041842 -0.042476 -0.064484 -0.013848 -0.0898 0.1678 0.1072 -0.079877 -0.019327 0.12979 -0.051708 -0.1057 0.071671 -0.14518 -0.12778 -0.053848 -0.097139 -0.013422 -0.069714 -0.043395 -0.14358 -0.013315 
media 0.15714 -0.004333 -0.24783 -0.070235 0.035785 -0.086677 -0.13548 -0.12487 -0.068185 -0.041143 0.04106 -0.012117 -0.13429 -0.12449 -0.044971 0.27247 -0.14578 -0.11197 0.16647 0.04842 -0.189 -0.15482 -0.21773 -0.10591 -0.075418 
social 0.19453 0.010114 -0.28092 -0.0077162 0.014524 -0.069269 -0.11351 -0.16551 -0.137 -0.054593 0.031395 -0.0024393 -0.1312 -0.18793 -0.051199 0.22923 -0.1317 -0.097093 0.15602 0.080986 -0.13489 -0.1729 -0.19281 -0.081718 -0.11018 
resources 0.21291 0.022753 -0.29965 -0.048294 0.016082 -0.11164 -0.097549 -0.090218 -0.12841 -0.071514 -0.01932 0.0065536 -0.14502 -0.15792 -0.047861 0.23146 -0.15229 -0.13184 0.13205 0.04041 -0.14637 -0.1659 -0.2321 -0.064178 -0.10097 
buffer.com 0.21998 0.027275 -0.28368 -0.024489 0.033929 -0.11344 -0.12785 -0.16113 -0.11174 -0.079461 0.015736 -0.0094401 -0.099523 -0.15433 -0.11383 0.27486 -0.10876 -0.086133 0.16175 0.080389 -0.20376 -0.15075 -0.17116 -0.048629 -0.1166 
strategy 0.12685 -0.02178 -0.21291 -0.010683 0.056647 -0.051793 -0.10895 -0.062708 -0.13091 -0.05897 0.031886 0.053066 -0.14511 -0.1284 -0.084018 0.22259 -0.085105 -0.077922 0.10939 0.086751 -0.15702 -0.12119 -0.15265 -0.072304 -0.083836 
semrush.com 0.16681 0.01549 -0.15436 -0.0024806 0.0027665 -0.050063 -0.13235 -0.087313 -0.12878 -0.026282 -0.015883 -0.009215 -0.097066 -0.1235 -0.081101 0.20513 -0.086423 -0.072306 0.13827 0.020745 -0.17719 -0.075498 -0.18658 -0.035908 -0.067119 
keyword 0.21501 0.0643 -0.29512 -0.077688 0.035308 -0.12374 -0.15487 -0.13428 -0.096749 -0.044379 -0.008378 0.015454 -0.10832 -0.15335 -0.078574 0.242 -0.17256 -0.083089 0.14294 0.052308 -0.16685 -0.10811 -0.22759 -0.097767 -0.05545 
ahrefs.com 0.21118 0.10843 -0.34712 -0.033409 0.034129 -0.08396 -0.14285 -0.18084 -0.061708 -0.011871 0.043129 0.04734 -0.13544 -0.16735 -0.076015 0.26118 -0.17286 -0.13397 0.12466 0.049121 -0.22624 -0.16403 -0.16842 -0.08369 -0.10163 
seo 0.18102 0.081559 -0.33632 -0.017081 0.030246 -0.085462 -0.18552 -0.1581 -0.11128 -0.060459 0.052428 0.045381 -0.1949 -0.16032 -0.15609 0.27827 -0.13889 -0.11374 0.1751 0.099349 -0.23869 -0.12108 -0.25635 -0.13546 -0.12074 
backlinko.com 0.23152 0.040679 -0.34414 -0.026643 0.055334 -0.12415 -0.18205 -0.17971 -0.1095 -0.092107 0.027818 0.020427 -0.14446 -0.17088 -0.1225 0.30078 -0.12017 -0.093719 0.15024 0.084279 -0.24615 -0.161 -0.23527 -0.13168 -0.12009 
update 0.15412 0.072185 -0.24095 -0.0038983 0.0025226 -0.05237 -0.081715 -0.075635 -0.085437 -0.052009 -0.012584 -0.0064646 -0.050973 -0.1583 -0.11045 0.24639 -0.1589 -0.061946 0.10129 0.031811 -0.1753 -0.096105 -0.12423 -0.11698 -0.072047 
entrepreneur.com -0.057189 -0.085464 0.14684 -0.026125 0.09863 -0.040134 -0.052051 -0.054685 -0.21486 -0.080542 0.067106 0.051524 -0.23742 -0.0075459 -0.014065 0.030139 0.082544 0.07797 0.13126 0.086045 -0.1382 -0.017401 -0.036438 0.036699 0.019489 
immigration -0.040438 -0.11411 0.088775 -0.10052 0.2112 -0.0038975 -0.074833 -0.073481 -0.3574 -0.15104 0.10909 0.09157 -0.46152 -0.0949 0.0079201 0.15617 0.11007 0.16239 0.25643 0.20575 -0.23792 -0.0073999 -0.16163 0.06216 -0.035315 
policy -0.057383 -0.13665 0.075533 -0.045884 0.16131 -0.0073557 -0.10522 -0.084776 -0.37827 -0.12109 0.15203 0.087152 -0.51431 -0.10008 -0.028782 0.15693 0.1121 0.15277 0.2914 0.19486 -0.2997 -0.055686 -0.18303 0.074573 -0.017861 
nbcnews.com -0.095801 -0.09061 0.14699 -0.084961 0.20011 0.00067292 -0.096118 -0.058769 -0.31595 -0.12265 0.13763 0.16702 -0.44587 -0.044649 -0.055393 0.14062 0.11955 0.13611 0.22389 0.1931 -0.23954 0.016723 -0.13483 0.029014 -0.022342 
california -0.08703 -0.12576 0.15393 -0.037775 0.23571 -0.0001886 -0.087146 -0.097038 -0.31736 -0.1095 0.12455 0.15503 -0.43494 -0.022858 -0.047241 0.12742 0.11728 0.15369 0.21862 0.19246 -0.22958 0.019275 -0.16983 0.023715 -0.024718 
wildfire -0.022066 -0.052758 0.14258 -0.088272 0.22434 -0.0096783 -0.12377 -0.10947 -0.27185 -0.08495 0.12141 0.088374 -0.44187 -0.035707 -0.064002 0.11839 0.094044 0.15325 0.23238 0.2259 -0.22794 -0.0063346 -0.18609 0.034357 0.01009 
thehill.com -0.15043 -0.17931 0.24291 -0.080147 0.20019 -0.033494 -0.024232 -0.016664 -0.37192 -0.18147 0.14964 0.07385 -0.42307 0.0078334 0.0048926 0.030762 0.16166 0.16268 0.21124 0.23851 -0.15708 0.057828 -0.094699 0.10216 0.052638 
homenews -0.1119 -0.20131 0.23774 -0.041035 0.20579 -0.011115 -0.017714 -0.069725 -0.34487 -0.16063 0.12938 0.063023 -0.43776 0.031531 0.066768 0.052029 0.13711 0.19712 0.19608 0.17221 -0.21108 0.026052 -0.097738 0.086985 0.026503 
senate -0.096328 -0.17491 0.26875 -0.058468 0.21486 -0.022378 -0.04085 -0.036547 -0.34382 -0.13351 0.1842 0.11672 -0.46467 0.0023201 0.012857 0.049455 0.17217 0.16472 0.18108 0.20049 -0.2072 0.050269 -0.10874 0.11978 0.010409 
biden 0.003794 -0.12447 0.094208 -0.066373 0.20214 -0.057741 -0.10803 -0.11961 -0.37938 -0.15725 0.13027 0.13669 -0.51439 -0.056339 -0.026258 0.17726 0.10197 0.18105 0.29717 0.22842 -0.25791 -0.029454 -0.19892 0.066849 -0.02035 
starting -0.047378 -0.054194 0.17974 -0.061873 0.069909 0.029204 -0.012111 0.009827 -0.20105 -0.085949 0.11394 0.046274 -0.24047 -0.040868 -0.014359 0.07993 0.060311 0.13135 0.11824 0.14747 -0.11935 -0.023373 -0.031232 0.081325 0.04099 
business -0.034725 -0.12316 0.1498 -0.060298 0.11856 -0.036237 -0.033114 -0.060441 -0.19703 -0.071856 0.12428 0.095407 -0.27173 0.034329 0.04806 0.027359 0.089875 0.11667 0.1585 0.1324 -0.079828 0.0018093 -0.060358 0.07484 0.031317 
hgtv.com -0.26206 0.10213 0.05668 0.056107 0.19187 0.027908 0.0041989 0.083694 0.088469 0.068865 -0.094 0.06278 0.11434 0.12458 -0.055896 -0.079273 0.046977 0.16194 -0.085056 -0.055804 -0.021536 0.16153 0.14031 -0.046576 0.075723 
living -0.29601 0.057109 0.016454 0.052626 0.18019 0.055542 0.024427 0.083539 0.11896 0.076547 -0.085583 0.12449 0.13397 0.19201 -0.043526 -0.043752 0.10699 0.1489 -0.10993 -0.048998 -0.029137 0.17846 0.14029 -0.025861 0.10363 
decorating -0.30237 0.079932 0.032451 0.029287 0.18667 0.049321 -0.015789 0.084392 0.11404 0.040796 -0.10478 0.10744 0.13549 0.1982 -0.086 -0.086505 0.071278 0.12254 -0.070438 -0.06315 -0.057304 0.19673 0.14906 -0.012194 0.078511 
thespruce.com -0.042007 -0.11089 0.10212 -0.081705 0.1849 -0.014538 -0.055395 -0.032663 -0.25636 -0.094751 0.086846 0.088477 -0.36254 -0.070177 0.021666 0.092483 0.050018 0.14775 0.18881 0.16599 -0.18365 -0.031597 -0.13307 0.046042 -0.034414 
indoor -0.037095 -0.068491 0.066519 -0.076779 0.18611 -0.040441 -0.054034 -0.044931 -0.22 -0.1177 0.1334 0.090353 -0.31075 -0.019453 0.01267 0.12974 0.057581 0.10552 0.14994 0.12626 -0.15546 0.027205 -0.11535 0.090577 0.011691 
plants -0.047006 -0.094273 0.093375 -0.03805 0.11416 -0.034716 -0.036073 -0.1033 -0.22421 -0.11622 0.09396 0.072841 -0.31443 -0.057231 -0.014813 0.13544 0.042655 0.13316 0.19515 0.12841 -0.22317 0.010924 -0.14801 0.07311 0.0028455 
foxnews.com -0.055482 -0.0755 0.11247 -0.08046 0.15969 -0.0090779 -0.10384 -0.090614 -0.32846 -0.097461 0.10365 0.087673 -0.46444 -0.10435 0.010193 0.20338 0.11356 0.11142 0.25626 0.25227 -0.23015 -0.069707 -0.18889 0.05565 -0.048603 
usatoday.com 0.15312 0.20236 -0.3269 -0.00011414 -0.070356 0.0082746 -0.023459 -0.083929 0.20644 0.12399 -0.12577 -0.023519 0.22036 -0.079339 -0.09757 0.06419 -0.18317 -0.17436 -0.078851 -0.13543 0.039506 -0.10003 -0.04913 -0.13345 -0.014955 
america 0.13866 0.16383 -0.32567 0.015055 -0.080659 -0.064106 -0.059651 -0.069584 0.15456 0.12303 -0.10819 -0.056629 0.17587 -0.1195 -0.088062 0.11533 -0.13165 -0.1919 -0.068101 -0.10001 -0.017168 -0.062484 -0.023738 -0.11731 -0.032958 
archive 0.18815 0.1911 -0.34678 -0.013699 -0.088072 -0.033415 -0.028363 -0.091758 0.15423 0.12339 -0.077531 -0.032453 0.12209 -0.11727 -0.060354 0.066958 -0.13013 -0.18806 -0.0020039 -0.063063 0.010774 -0.09833 -0.041224 -0.12475 -0.019878 
theatlantic.com 0.14049 0.17797 -0.32274 0.027575 -0.025323 -0.020372 -0.08655 -0.048401 0.17167 0.12325 -0.11334 -0.069241 0.20012 -0.076246 -0.12083 0.066367 -0.13867 -0.13601 -0.054804 -0.08357 -0.053457 -0.1258 -0.011011 -0.13194 -0.055592 
people 0.009085 -0.047096 0.043248 -0.052763 0.11182 -0.015439 -0.054573 -0.0035093 -0.18578 -0.045551 0.078305 0.036515 -0.21272 -0.037314 -0.019886 0.081776 0.050933 0.036915 0.1013 0.11524 -0.1051 0.003456 -0.078737 0.041607 -0.03342 
richest -0.034378 -0.059131 0.040337 -0.007402 0.046419 -0.016036 -0.02602 -0.011477 -0.18309 -0.083384 0.043549 0.02767 -0.18718 -0.02194 0.034879 0.079648 0.050973 0.031273 0.12816 0.091242 -0.073168 -0.010881 -0.095006 0.013493 -0.02461 
fortune.com 0.029428 -0.070834 0.057656 -0.056277 0.084597 -0.051146 -0.012983 -0.0058999 -0.1276 -0.031895 0.029571 0.074022 -0.19594 -0.027274 -0.021148 0.084248 0.075568 0.073569 0.096388 0.082016 -0.10445 0.024529 -0.10861 0.034184 0.030445 
phones -0.084072 -0.13485 0.11944 0.0016947 0.093557 0.026881 -0.044447 0.01872 -0.18302 -0.080224 0.076834 0.067776 -0.22725 -0.009504 0.023824 0.02621 0.09995 0.11631 0.08875 0.061801 -0.1088 0.010167 -0.02391 0.091785 -0.027268 
android -0.088019 -0.11307 0.18578 -0.033516 0.073139 -0.016857 0.010212 -0.024867 -0.17686 -0.09532 0.10706 0.052868 -0.21145 -0.0027172 0.057833 0.035903 0.079197 0.088632 0.080232 0.11808 -0.095101 0.024802 -0.079157 0.085475 0.043837 
androidauthority.com -0.023622 -0.059961 0.13791 0.0088078 0.057358 -0.042574 -0.026313 -0.047416 -0.19243 -0.10511 0.064839 0.028759 -0.19644 -0.014778 0.042203 -0.0086962 0.10167 0.099027 0.065476 0.082686 -0.040837 0.0012376 -0.067895 0.087884 0.029 
electric -0.033323 -0.028136 0.021876 -0.025609 0.14326 -0.052888 -0.037646 -0.083113 -0.16942 -0.071073 0.064597 0.041046 -0.30488 -0.061545 -0.013276 0.12687 -0.0063861 0.10625 0.19013 0.17323 -0.16365 -0.051752 -0.1456 0.048256 0.028661 
digitaltrends.com 0.021564 -0.063443 0.085329 -0.022223 0.095659 -0.041523 -0.09582 -0.045982 -0.19039 -0.086243 0.11141 0.091248 -0.31096 -0.085594 0.0016588 0.13658 0.018987 0.058753 0.18 0.10299 -0.13195 -0.0046616 -0.10571 0.023475 -0.012909 
gaming 0.10185 0.155 -0.23343 -0.044022 -0.0047912 -0.059833 -0.026264 -0.087038 0.090789 0.04128 -0.092146 -0.052544 0.12135 -0.049579 -0.037328 0.069918 -0.10078 -0.084614 -0.05662 -0.084675 -0.011578 -0.049153 -0.016574 -0.047787 -0.028239 
tomsguide.com 0.095491 0.11473 -0.23103 0.023695 -0.03663 -0.04169 -0.038322 -0.086611 0.11251 0.067039 -0.017974 -0.039646 0.12794 -0.045313 -0.094809 0.091312 -0.077327 -0.12207 -0.0089457 -0.071829 0.017864 -0.03143 -0.010883 -0.089347 -0.048534 
invest 0.14923 -0.078859 0.058593 0.061305 -0.30725 0.081725 0.10668 0.097961 0.059653 -0.067569 -0.071175 -0.22605 0.071718 -0.040352 0.1519 -0.26988 -0.16444 -0.17643 -0.050657 0.14283 0.21067 -0.072429 0.10206 0.099833 -0.051952 
aetna.com 0.13236 -0.051292 0.086931 0.0057319 -0.1821 0.02881 0.0308 0.097762 -0.051389 -0.094032 -0.029891 -0.12598 -0.0080718 -0.075963 0.0752 -0.1169 -0.057445 -0.12402 -0.03464 0.069025 0.16382 -0.10672 -0.01949 0.095956 -0.017006 
4090 0.13861 0.033996 -0.26475 0.002083 0.058219 -0.089529 -0.11 -0.093116 -0.072683 -6.1408e-05 -0.0034286 -0.0063179 -0.080059 -0.12478 -0.11458 0.19563 -0.14426 -0.093994 0.091801 0.064051 -0.12986 -0.070176 -0.15593 -0.039511 -0.092792 
homeowners 0.15456 -0.035466 0.0079964 0.0058942 -0.17602 0.05959 0.078591 0.064226 -0.022019 -0.06371 -0.012143 -0.13896 0.033326 -0.048179 0.12132 -0.1027 -0.083615 -0.12616 -0.024842 0.080658 0.13153 -0.04711 0.013703 0.07999 -0.050624 
allstate.com 0.16546 -0.043139 0.07203 -0.00084316 -0.17535 0.055895 0.038396 0.068114 0.012448 -0.075419 0.032442 -0.1192 0.020592 -0.090749 0.10504 -0.090476 -0.10203 -0.068553 -0.065986 0.084281 0.16371 -0.040645 -0.0097283 0.083029 -0.024027 
cd 0.18856 -0.024667 0.03742 0.055911 -0.2671 0.13345 0.080647 0.10798 -0.010631 -0.050182 -0.081157 -0.22977 0.012169 -0.07652 0.16466 -0.22631 -0.1758 -0.14263 -0.09103 0.15012 0.18965 -0.098935 0.041024 0.11516 -0.047983 
yield 0.15324 0.0080522 0.021664 -0.00087035 -0.26968 0.10948 0.10942 0.090549 0.023386 -0.062453 -0.024831 -0.20069 0.0089813 -0.051174 0.13299 -0.21012 -0.1496 -0.16141 -0.083476 0.11957 0.23516 -0.099881 0.1033 0.15507 -0.043866 
high 0.21192 -0.062096 0.056449 0.076172 -0.24421 0.09065 0.11671 0.098581 0.045631 -0.077104 -0.038169 -0.21014 -0.0084723 -0.11165 0.15684 -0.25539 -0.2073 -0.11232 -0.041129 0.14132 0.2231 -0.047423 0.073394 0.11177 -0.090571 
ally.com 0.16998 -0.047502 0.029255 0.066218 -0.24356 0.12339 0.13861 0.085528 0.011859 -0.094557 -0.019445 -0.23987 0.051503 -0.095213 0.12897 -0.22201 -0.14903 -0.13562 -0.086537 0.097939 0.2092 -0.071667 0.043454 0.095074 -0.054178 
capitalone.com 0.12089 -0.059957 0.031069 0.034505 -0.18443 0.05212 0.10668 0.05999 -0.031304 -0.046626 -0.027971 -0.11413 0.022768 -0.094242 0.11887 -0.15965 -0.10122 -0.11028 -0.065559 0.031031 0.11366 -0.088207 0.02233 0.096545 -0.069775 
citibank.com 0.11915 -0.010506 -0.0044299 0.0045099 -0.20768 0.044218 0.064821 0.053605 0.033502 0.0022997 -0.055466 -0.17277 0.05293 -0.053964 0.098811 -0.15689 -0.10376 -0.14071 -0.052504 0.029403 0.19617 -0.064254 0.061372 0.09296 -0.032217 
chase.com 0.18 0.0075965 0.01973 0.055095 -0.29942 0.11179 0.12717 0.12096 0.080669 -0.0081755 -0.11086 -0.19073 0.050552 -0.10974 0.1284 -0.23131 -0.17967 -0.16506 -0.054663 0.08699 0.27206 -0.10096 0.12637 0.10661 -0.065667 
checking 0.18675 -0.089826 0.068316 0.061088 -0.22704 0.068369 0.14395 0.065389 0.035529 -0.069817 -0.044007 -0.20593 0.033965 -0.11568 0.13818 -0.16245 -0.16017 -0.1126 -0.070941 0.11352 0.1946 -0.1053 0.028106 0.11745 -0.074009 
bankofamerica.com 0.16182 -0.025924 0.11402 0.029682 -0.22443 0.078502 0.13376 0.1032 0.0044809 -0.13303 -0.047017 -0.20305 0.03841 -0.1272 0.12634 -0.18131 -0.13415 -0.10449 -0.023549 0.076588 0.22166 -0.081063 0.030197 0.1098 -0.030593 
ml.com 0.14849 -0.010727 0.038587 0.064527 -0.21837 0.079836 0.079988 0.096746 0.031056 -0.062293 -0.0045928 -0.15196 0.064187 -0.077507 0.1004 -0.17839 -0.16648 -0.084585 -0.044257 0.095161 0.17512 -0.10809 0.075912 0.12304 -0.028376 
wipfli.com -0.13401 0.12397 -0.0032521 0.012595 0.10225 0.016565 0.033061 0.056884 0.21051 0.12584 -0.075265 0.09463 0.13295 0.092747 -0.075712 -0.086985 0.085951 0.075911 -0.11059 -0.095258 0.0068896 0.1607 0.11698 -0.052344 0.064754 
revolution -0.042083 -0.09279 0.18036 0.0091292 0.079297 0.01704 -0.034546 -0.060939 -0.19942 -0.10591 0.076207 0.055193 -0.27623 0.015689 0.029128 0.028231 0.11197 0.11001 0.16147 0.18058 -0.12972 0.048923 -0.056053 0.067319 -0.024352 
americancentury.com 0.16667 -0.0091948 0.099802 0.03862 -0.31317 0.088903 0.11428 0.14375 0.042277 -0.072207 -0.062694 -0.23739 0.047779 -0.077937 0.1654 -0.25393 -0.21138 -0.14601 -0.035585 0.15793 0.26124 -0.069423 0.065285 0.10627 -0.074488 
statefarm.com 0.15472 -0.052564 0.079685 0.025455 -0.19046 0.080356 0.099336 0.0825 -0.049686 -0.073817 -0.028801 -0.18846 -0.020332 -0.069497 0.099265 -0.15058 -0.11802 -0.14435 -0.041145 0.11536 0.18786 -0.078846 -0.011781 0.12745 -0.046348 
northwesternmutual.com 0.12478 -0.059266 0.070827 -0.010702 -0.16691 0.081446 0.044248 0.10847 -0.054563 -0.085386 -0.025552 -0.10029 -0.0071223 -0.04117 0.11964 -0.10813 -0.095056 -0.13606 -0.020462 0.11099 0.17149 -0.050086 0.047722 0.12815 -0.07639 
advisor 0.18175 0.026172 0.022013 0.067058 -0.25373 0.10058 0.099709 0.14514 0.099807 -0.056066 -0.046518 -0.21126 0.041964 -0.089715 0.15194 -0.27241 -0.20212 -0.10914 -0.078957 0.11476 0.22262 -0.085339 0.079123 0.082692 -0.060334 
edwardjones.com 0.10724 0.032476 0.040312 0.016142 -0.28545 0.084569 0.12894 0.11526 0.0605 -0.087374 -0.072897 -0.15324 0.067998 -0.068487 0.13927 -0.26464 -0.19363 -0.15533 -0.10064 0.087196 0.20446 -0.080163 0.13297 0.14034 -0.071568 
morganstanley.com 0.11582 -0.079096 0.04679 0.022037 -0.2212 0.10564 0.090926 0.072474 0.009005 -0.052116 -0.058814 -0.17431 0.056444 -0.10172 0.1774 -0.16329 -0.16316 -0.084156 -0.048882 0.083173 0.18364 -0.084159 0.09391 0.12778 -0.083469 
jpmorgan.com 0.141 -0.066804 0.076751 0.034422 -0.23014 0.11451 0.1432 0.14899 0.042068 -0.08621 -0.037867 -0.22564 0.052381 -0.093765 0.12026 -0.21654 -0.17899 -0.13723 -0.092054 0.13395 0.20362 -0.095457 0.10151 0.12083 -0.061859 
investors 0.19465 -0.097824 0.10679 0.055946 -0.28566 0.13389 0.14183 0.14033 0.026562 -0.14025 -0.0176 -0.21025 0.034926 -0.13123 0.19103 -0.24966 -0.17558 -0.19115 -0.051002 0.14387 0.24632 -0.12572 0.094546 0.12864 -0.095761 
vanguard.com 0.21321 -0.06592 0.14204 0.036363 -0.28346 0.13916 0.14094 0.13838 -0.0060868 -0.080406 0.015599 -0.20624 0.047537 -0.092498 0.18073 -0.28856 -0.19994 -0.1646 -0.012658 0.097917 0.29119 -0.12642 0.076691 0.1615 -0.047816 
iras 0.18175 -0.062855 0.078872 0.02604 -0.31443 0.07004 0.15112 0.12814 0.085886 -0.096436 -0.0079397 -0.19197 0.062117 -0.12083 0.2048 -0.25006 -0.19736 -0.17065 -0.056153 0.14247 0.23931 -0.045996 0.079342 0.12446 -0.015236 
fidelity.com 0.18792 -0.02675 0.05166 0.016573 -0.31947 0.081034 0.17001 0.14837 0.057709 -0.059489 -0.052225 -0.19499 0.04705 -0.04415 0.19928 -0.21971 -0.13991 -0.16946 -0.074328 0.089138 0.29069 -0.069488 0.062158 0.13736 -0.077396 
investing 0.19263 -0.087849 0.12495 0.075252 -0.30567 0.070103 0.1305 0.12928 0.014161 -0.10571 -0.016148 -0.23888 0.041624 -0.084084 0.18669 -0.23737 -0.14743 -0.14729 -0.046166 0.13705 0.25396 -0.11681 0.11282 0.13816 -0.031259 
schwab.com 0.22519 -0.070018 0.11524 0.062699 -0.27164 0.12329 0.16599 0.12311 0.035145 -0.078064 -0.0080525 -0.22003 0.081553 -0.060752 0.19019 -0.24577 -0.15144 -0.10949 -0.0391 0.11341 0.2393 -0.1122 0.072291 0.12781 -0.050919 
light -0.051651 -0.057104 0.082141 -0.036658 0.12107 0.0040412 -0.10061 -0.092183 -0.20745 -0.063082 0.12776 0.067036 -0.36193 -0.03164 -0.005829 0.15037 0.073927 0.13135 0.17211 0.13473 -0.20652 -0.018491 -0.10588 0.014979 -0.016559 
low -0.020769 -0.068708 0.12566 -0.031919 0.17234 0.0085241 -0.045385 -0.074555 -0.25789 -0.066117 0.11432 0.065136 -0.33511 -0.028984 0.0020762 0.086978 0.10514 0.12622 0.19605 0.14299 -0.16146 -0.02432 -0.11303 0.069524 0.014979 
markets -0.0026963 -0.05876 0.10492 -0.029203 0.095907 0.023436 -0.038886 -0.071486 -0.16099 -0.077461 0.059617 0.04233 -0.25457 -0.033678 0.018039 0.1139 0.012216 0.13633 0.16361 0.10821 -0.15123 0.030986 -0.089459 0.019451 0.038771 
decision -0.039134 -0.12051 0.090585 -0.043101 0.070407 -0.043084 -0.072717 -0.049062 -0.1815 -0.12001 0.10353 0.080622 -0.25975 -0.034255 9.03e-05 0.078206 0.057248 0.10086 0.14044 0.16762 -0.12876 0.032055 -0.061258 0.085324 -0.017085 
rate -0.031084 -0.10624 0.12513 -0.023225 0.13127 -0.019768 -0.074111 -0.0021122 -0.18662 -0.11899 0.057055 0.067376 -0.31605 0.0036952 -0.0070958 0.072458 0.05507 0.13687 0.12921 0.12869 -0.099725 -0.013525 -0.1239 0.048398 0.023082 
fed -0.041436 -0.1292 0.089134 -0.013558 0.088019 0.022453 -0.071281 -0.003036 -0.25888 -0.10819 0.11744 0.051981 -0.26782 -0.056763 0.018417 0.064283 0.082951 0.13325 0.15738 0.11557 -0.12712 0.015991 -0.075362 0.077178 -0.0044864 
cnbc.com -0.011158 -0.10375 0.15107 -0.05142 0.13915 -0.045461 -0.013546 -0.029329 -0.20741 -0.10634 0.12883 0.10038 -0.31244 -0.045356 -0.0060914 0.10541 0.096933 0.088687 0.1379 0.13698 -0.14583 -0.026506 -0.12953 0.040667 0.034228 
work 0.18891 0.090927 -0.22342 -0.020217 -0.053385 -0.010545 -0.034008 -0.051413 0.096446 0.085404 -0.014799 -0.024401 0.10512 -0.076408 -0.03171 0.097945 -0.12938 -0.13641 -0.048363 -0.075896 0.0047392 -0.087438 -0.067986 -0.075476 -0.045037 
wired.com 0.14067 0.13785 -0.21667 -0.015931 -0.042608 -0.04043 -0.082068 -0.057669 0.10831 0.072729 -0.062591 -0.011617 0.095511 -0.10164 -0.039757 0.094636 -0.10941 -0.13925 -0.053366 -0.03934 -0.051335 -0.092381 -0.025794 -0.066198 -0.063578 
funding -0.039203 -0.09083 0.09194 -0.062563 0.14624 -0.05418 -0.07019 -0.056491 -0.23623 -0.12044 0.11853 0.11287 -0.24584 -0.035189 -0.02432 0.10695 0.01697 0.10041 0.17418 0.16201 -0.12623 0.03016 -0.12171 0.0077415 0.037689 
raises -0.057794 -0.11278 0.11418 -0.039654 0.12109 0.0017237 -0.077542 -0.031001 -0.1876 -0.11776 0.053253 0.09469 -0.27689 -0.053222 -0.020099 0.061196 0.081365 0.069258 0.12629 0.17916 -0.11389 -0.013751 -0.091952 0.025322 -0.019358 
openai -0.05952 -0.06542 0.084434 -0.060591 0.10063 -0.0057161 -0.082454 -0.028857 -0.21807 -0.12818 0.064963 0.072352 -0.30224 -0.027002 -0.04978 0.10889 0.086721 0.10438 0.15377 0.14446 -0.17106 0.011645 -0.065634 0.015898 -0.013251 
techcrunch.com -0.046485 -0.11182 0.12404 -0.030871 0.11828 0.0046374 -0.024974 -0.055659 -0.1796 -0.095981 0.087227 0.10197 -0.30041 -0.04217 0.0075062 0.066045 0.0089654 0.11822 0.12501 0.16722 -0.11211 0.010117 -0.076785 0.017025 0.0027865 
sites -0.039017 -0.077909 0.097139 0.013412 0.067581 -0.03106 -0.030715 0.011907 -0.15198 -0.10013 0.072555 0.0091169 -0.18854 -0.057086 0.037816 0.039526 0.010669 0.090669 0.13243 0.099124 -0.068091 -0.028049 -0.099828 0.046979 -0.033431 
forbes.com -0.010481 -0.089416 0.077984 -0.046634 0.05862 -0.038536 -0.024868 0.0028218 -0.14943 -0.12837 0.11349 0.054381 -0.16916 -0.053531 0.050442 0.073242 0.043727 0.06435 0.094114 0.11893 -0.064048 -0.0083125 -0.029866 0.020457 -0.017324 
results 0.17456 0.056798 -0.24013 -0.0094347 -0.041159 -0.031085 -0.041209 -0.038292 0.078726 0.049751 -0.07253 -0.041363 0.065381 -0.12135 -0.047081 0.11328 -0.10518 -0.1526 -0.033815 -0.066696 -0.012536 -0.059488 -0.091244 -0.094677 -0.076315 
apnews.com 0.16749 0.086305 -0.22786 0.020711 -0.062641 -0.019191 -0.024299 -0.080427 0.090714 0.01738 -0.013499 -0.049813 0.065553 -0.10635 -0.087124 0.06526 -0.1377 -0.13374 0.032647 -0.0028271 -0.0025488 -0.081321 -0.049644 -0.060572 -0.041767 
rise -0.049865 -0.1016 0.06524 -0.064067 0.10276 -0.018986 -0.081614 -0.037017 -0.21042 -0.098271 0.11456 0.10171 -0.30226 -0.023555 0.0081716 0.054547 0.042588 0.11416 0.10699 0.12069 -0.13079 -0.0073488 -0.073868 0.05954 0.0068451 
marketwatch.com 0.225 0.037963 -0.24559 -0.055225 -0.026517 -0.083615 -0.10552 -0.15328 -0.042919 -0.049979 0.013241 0.0090504 -0.048144 -0.16644 -0.088403 0.17754 -0.17791 -0.12148 0.12278 -0.0081858 -0.12373 -0.19021 -0.16278 -0.092638 -0.098339 
reuters.com -0.02206 -0.041099 0.13336 -0.039226 0.11945 -0.0081912 -0.063428 -0.005099 -0.229 -0.097859 0.11593 0.048391 -0.23263 -0.0062559 -0.027035 0.1238 0.082799 0.12865 0.11562 0.13342 -0.17851 -0.0014481 -0.10157 0.025969 0.010366 
change -0.0045144 -0.070795 0.059152 -0.065922 0.12213 -0.04004 -0.061591 -0.027013 -0.18109 -0.047371 0.075292 0.072429 -0.27876 -0.014782 -0.042982 0.085176 0.0069357 0.10641 0.11403 0.11217 -0.17933 0.0090709 -0.1095 -0.007145 -0.0020793 
climate -0.065141 -0.085406 0.11214 0.0062901 0.1139 -0.029483 -0.083243 -0.085233 -0.21432 -0.099803 0.10025 0.093357 -0.2602 -0.018982 -0.021386 0.086445 0.059503 0.087873 0.16845 0.14871 -0.16013 -0.014268 -0.10888 0.025328 -0.0075868 
apr -0.057623 -0.071596 0.10966 -0.041383 0.12162 -0.021358 -0.026154 -0.061267 -0.2004 -0.061989 0.088513 0.09116 -0.23024 -0.041339 -0.048907 0.11527 0.024935 0.13278 0.11726 0.1202 -0.14 0.013959 -0.076517 0.049892 -0.021097 
theguardian.com -0.035306 -0.10367 0.098011 -0.055517 0.12435 -0.043164 -0.044403 -0.046325 -0.17863 -0.11627 0.10191 0.11858 -0.27406 0.0034523 -0.05492 0.093625 0.014094 0.069021 0.11019 0.10866 -0.1584 0.020868 -0.089353 0.053073 -0.015044 
ukraine -0.052288 -0.065799 0.048725 -0.049131 0.11842 -0.030764 -0.050369 -0.08762 -0.15382 -0.077292 0.030447 0.090433 -0.23861 -0.028229 -0.059998 0.12546 0.050312 0.059377 0.11994 0.12548 -0.16355 -0.019467 -0.081734 0.005985 0.01067 
europe -0.066481 -0.054357 0.061109 0.0057134 0.081745 -0.00029593 -0.017326 -0.055073 -0.15765 -0.082626 0.094521 0.10409 -0.21874 -0.030246 -0.033954 0.12654 0.07807 0.11807 0.13619 0.12314 -0.17771 0.0034221 -0.10753 0.033042 -0.0090512 
nytimes.com -0.029724 -0.053523 0.058842 -0.057942 0.13992 0.022704 -0.059845 -0.028049 -0.13953 -0.049884 0.060999 0.11229 -0.27488 0.0098747 -0.041728 0.080385 0.014421 0.10803 0.11008 0.12337 -0.13973 -0.019985 -0.050579 0.05608 -0.0069113 
