584 100
</s> -0.32793 -0.45097 0.073094 -0.21869 0.31274 0.072226 0.083556 0.1265 -0.53784 0.70425 0.050142 0.27757 0.15892 0.031583 0.54342 -0.43833 -0.11422 0.41489 0.3577 0.27936 -0.13075 -0.18877 -0.22514 0.54646 0.67473 0.025744 -0.12732 -0.26252 0.0060467 0.12723 0.043384 0.53333 -0.33653 0.019187 -0.39971 -0.17807 -0.37865 0.21081 -0.3869 -0.17997 0.076334 0.091001 0.19616 0.016663 0.22178 -0.37808 -0.026534 0.057108 0.49301 -0.10845 -0.24065 0.30061 -0.21668 -0.1739 -0.048513 -0.16044 0.23491 -0.11019 -0.33838 -0.1622 -0.048833 -0.16765 -0.0095563 -0.49894 -0.2186 0.25652 0.077341 -0.51584 -0.10683 -0.18898 -0.29912 0.20778 -0.083773 0.15316 -0.13921 0.12216 0.074993 -0.21162 -0.19954 -0.29247 0.067199 -0.14923 -0.17498 0.29539 0.028286 -0.16822 0.03943 -0.26466 0.53505 0.43625 0.34162 -0.065301 0.62051 0.11097 -0.25233 0.34368 -0.094275 -0.11734 -0.13901 -0.401 
tips 0.4041 0.17708 0.27451 0.089149 0.15024 -0.14877 0.024829 0.34599 -0.20887 -0.70458 0.33838 -0.71966 -0.16591 -0.40509 -0.22638 0.52951 0.48761 -0.44934 -0.36816 -0.047916 -0.23449 -0.023892 0.38606 -0.65761 -0.42401 0.64361 -1.0187 0.3279 -0.0014438 -0.31166 0.011907 0.021164 0.13195 -0.29625 0.29871 0.34915 -0.54953 0.028935 0.10077 0.29632 -0.51323 -0.46508 0.23942 -0.46423 0.56347 0.64365 -0.17928 0.59446 -0.34413 -0.10119 0.54336 -0.38101 0.32005 0.013724 0.14356 0.31334 -0.46773 -0.10475 -0.2644 0.25519 -0.19341 -0.16716 -0.32417 0.95913 -0.1253 -0.086543 -0.18569 0.20144 -0.30748 0.03576 1.0823 0.36258 -0.077683 -0.65828 0.11675 -0.49481 -1.0286 -0.17894 0.21497 0.65469 0.16636 -0.1949 -0.41385 0.23971 0.52043 0.90648 -0.63979 0.38156 -0.2384 0.052859 0.23496 -0.020332 -0.070055 0.15397 0.041415 -0.17474 0.18501 -0.12843 -0.45961 -0.0075294 
find 0.23972 -0.44849 0.14016 0.12156 -0.34543 0.3293 -0.069959 -0.38726 0.27776 -0.3304 -0.35157 0.10399 -0.071648 -0.11681 -0.13526 -0.13784 -0.29895 -0.51917 0.11846 -0.067775 0.12999 0.34355 -0.11378 -0.45828 -0.50781 -0.29377 0.73067 -0.065563 -0.32143 -0.16466 -0.26022 -0.34969 -0.022527 0.57322 0.018353 0.11568 0.17266 -0.36628 0.30739 -0.034298 0.30681 0.14584 -0.36078 0.22665 -0.23103 -0.15652 0.13014 0.040409 0.038421 0.2774 -0.31468 -0.3844 0.19054 -0.075218 -0.22169 -0.25282 0.33241 -0.14627 0.48789 -0.33793 -0.0053057 0.26578 0.24844 -0.075345 -0.1735 0.15315 -0.32949 0.086228 0.21101 0.054541 0.32796 -0.21387 0.023319 0.088593 0.1477 0.6341 0.42313 -0.096327 0.45742 -0.19541 0.28093 0.39911 0.29091 0.0084051 0.046257 -0.17993 0.16641 0.49327 -0.1438 -0.42468 -0.0087954 -0.48812 -0.55943 -0.57953 0.67206 -0.20334 -0.64757 -0.07566 0.19943 -0.25354 
reviews 0.16449 -0.25445 -0.023734 0.099709 -0.2515 0.22793 0.037047 -0.22618 0.20612 -0.21784 -0.20957 0.1775 -0.010138 -0.047722 -0.058128 -0.11042 -0.16064 -0.40364 0.13473 0.020697 0.21657 0.27458 -0.10444 -0.28521 -0.30153 -0.22057 0.52712 0.062143 -0.21302 -0.13314 -0.1547 -0.19616 -0.027152 0.44756 0.086251 0.067865 0.087025 -0.31329 0.22849 0.075316 0.21338 0.12753 -0.36402 0.22685 -0.14466 -0.03117 0.080982 0.093572 0.061633 0.22158 -0.29091 -0.33153 0.18513 -0.076252 -0.27449 -0.25659 0.25056 -0.09453 0.24685 -0.30182 0.025487 0.14833 0.16186 -0.10886 -0.060125 0.20425 -0.28563 0.094231 0.12954 0.0080148 0.20614 -0.13381 0.012594 0.12269 0.12382 0.56104 0.28608 -0.066279 0.20886 -0.17422 0.23431 0.38184 0.29155 0.025399 0.15185 -0.18503 0.10721 0.44986 -0.12873 -0.30335 0.026162 -0.32093 -0.42477 -0.4251 0.46871 -0.082994 -0.41489 -0.016735 0.13855 -0.15926 
local -0.30626 -0.24305 0.23159 -0.0033533 -0.18164 0.21485 -0.18279 -0.29578 -0.010895 0.018362 -0.21456 -0.020741 0.037296 0.033537 -0.16277 -0.32354 -0.37035 -0.05915 0.1418 -0.060088 0.058396 0.10321 -0.06183 0.044231 -0.12155 -0.20838 0.2896 -0.2525 -0.18755 0.16325 -0.03953 -0.2276 -0.16038 0.35287 -0.19635 0.072487 0.11128 -0.073366 0.13216 -0.13657 0.17906 0.32826 0.14895 0.12137 -0.024729 -0.41153 0.14493 -0.24197 -0.091218 0.23713 -0.19535 -0.093713 -0.24489 0.12029 0.12637 -0.064776 0.14763 -0.069128 0.31272 -0.029014 0.12224 0.10418 0.23742 -0.15731 0.093882 -0.12685 -0.034613 0.036231 0.030454 -0.025586 -0.22453 -0.11221 -0.086628 0.06885 0.064169 0.10973 0.45119 -0.15675 0.12905 -0.3447 0.020579 -0.00057262 0.062496 -0.052317 -0.36267 -0.060461 0.41072 -0.019899 -0.064328 -0.04531 -0.17182 -0.25384 0.017695 -0.24764 0.060278 -0.18143 -0.25239 -0.16652 0.21123 -0.2041 
clinic -0.047339 -0.41471 0.25752 0.048606 -0.16138 0.18653 -0.085871 -0.18866 -0.05677 0.031914 -0.20658 0.03261 -0.031654 -0.10752 0.033801 -0.2055 -0.25156 -0.089314 0.20379 0.0035337 -0.019251 0.13732 -0.063571 -0.12811 -0.086524 -0.19579 0.30259 -0.11116 -0.23892 -0.059309 -0.083786 -0.16532 -0.14832 0.32818 -0.15813 0.00057209 0.010168 -0.11861 0.07038 -0.12085 0.2168 0.13715 -0.0087392 0.12956 0.0029863 -0.2593 0.10265 -0.033464 0.095742 0.13496 -0.17398 -0.17328 -0.036483 -0.043267 -0.038629 -0.14924 0.22968 -0.1103 0.28459 -0.19493 0.019704 0.10602 0.12456 -0.18105 -0.11637 -0.0098183 -0.095375 -0.07884 0.0048702 -0.002851 -0.044264 -0.05891 -0.052912 -0.001829 0.12478 0.35198 0.37166 -0.12644 0.25708 -0.15439 0.2116 0.097163 0.1006 0.091382 -0.14542 -0.078446 0.22151 0.15166 0.061662 -0.13426 0.053456 -0.30866 -0.12247 -0.26643 0.26439 -0.065167 -0.36426 -0.12875 0.11985 -0.25531 
book 0.089325 -0.21568 0.18956 0.05586 -0.10182 0.095919 -0.031579 -0.070538 -0.017007 -0.15285 -0.078499 -0.092714 -0.064607 -0.147 -0.03689 -0.00040725 -0.060974 -0.17377 0.041842 -0.0088552 -0.025913 0.10923 0.026146 -0.24281 -0.17354 -0.016989 0.051493 0.012759 -0.14414 -0.096669 -0.06853 -0.13888 -0.04763 0.16541 -0.011361 0.07063 -0.051522 -0.090089 0.090019 -0.014079 0.054025 -0.0041935 -0.0035147 0.0023615 0.068555 -0.024451 0.040664 0.090919 -0.0068331 0.06018 -0.0086077 -0.18282 0.067571 -0.033258 -0.017093 -0.050933 0.064373 -0.079294 0.15916 -0.088805 -0.023447 0.062706 0.0098353 0.064573 -0.10722 -0.0029581 -0.11583 0.018682 -0.02519 0.02484 0.1939 0.0037922 -0.045015 -0.10357 0.10578 0.16299 0.04704 -0.09637 0.21267 0.03051 0.16744 0.067955 0.019612 0.072893 0.028692 0.091441 0.023354 0.205 -0.016328 -0.12022 0.065576 -0.20482 -0.14662 -0.16504 0.2083 -0.091466 -0.20799 -0.090527 0.013589 -0.14485 
appointment -0.093821 -0.22773 0.043195 0.03566 -0.071439 0.06211 0.050662 -0.025601 -0.086437 0.1072 -0.060691 0.10857 0.043823 -0.035699 0.11913 -0.15205 -0.077323 0.0077339 0.19426 0.11437 0.1062 0.063297 -0.078835 0.029316 0.10651 -0.14385 0.11304 0.06164 -0.12075 -0.030463 0.019015 -0.0056742 -0.13022 0.20956 -0.073062 -0.064753 -0.068162 -0.082508 0.032422 0.017922 0.12181 0.11943 -0.055004 0.15914 0.079987 -0.074379 0.056309 0.078266 0.13759 0.085259 -0.15545 -0.13242 0.017186 -0.052271 -0.14435 -0.16343 0.15426 -0.065627 0.019865 -0.19445 0.076214 -0.0091426 0.039728 -0.20156 -0.0080978 0.069756 -0.075764 -0.045724 -0.064322 -0.065144 -0.14163 0.017367 -0.07188 0.043934 0.10514 0.32691 0.213 -0.087941 0.0017172 -0.12608 0.17972 0.11038 0.12094 0.097629 -0.005538 -0.097372 0.145 0.16387 0.083638 -0.052365 0.10504 -0.14663 -0.036368 -0.15505 0.10912 0.057241 -0.14809 -0.062233 0.082221 -0.14168 
health 0.12257 0.18258 0.032815 -0.033046 0.14538 -0.11873 -0.029548 0.13288 -0.039224 -0.12464 0.12843 -0.21561 -0.068178 -0.035613 -0.048201 0.20578 0.16881 0.020709 -0.18708 -0.070326 -0.17737 -0.10754 0.12441 -0.085484 -0.060081 0.23554 -0.32848 0.0051448 0.11842 -0.02301 0.01809 0.079275 0.11336 -0.27779 0.054796 0.073676 -0.062284 0.11988 -0.063729 0.021356 -0.19623 -0.21263 0.14342 -0.21374 0.080573 0.15506 -0.078268 0.063122 -0.11298 -0.11928 0.23532 0.099818 0.021631 0.035121 0.15572 0.20099 -0.20614 0.0299 -0.10989 0.20526 -0.10754 -0.05238 -0.11419 0.29361 -0.049199 -0.092443 0.08623 0.0033926 -0.047138 0.039904 0.24135 0.077518 0.028331 -0.15045 -0.056052 -0.35676 -0.37644 0.054168 0.021107 0.24717 -0.11737 -0.17827 -0.2001 -0.0049429 0.0907 0.24992 -0.23659 -0.1144 -0.033627 0.095178 0.0085971 0.13489 0.099415 0.21445 -0.1481 -0.033069 0.18472 0.025477 -0.15882 0.10205 
location 0.14536 -0.34736 0.12219 0.095255 -0.25702 0.26113 -0.04652 -0.28328 0.17657 -0.23804 -0.26563 0.076105 -0.042208 -0.092311 -0.096686 -0.1324 -0.24298 -0.37682 0.10997 -0.050578 0.082494 0.25325 -0.082387 -0.32907 -0.36972 -0.22278 0.54437 -0.062943 -0.23414 -0.12185 -0.18926 -0.26761 -0.024691 0.42693 -0.00282 0.085527 0.1218 -0.26312 0.21553 -0.042654 0.24266 0.12303 -0.25639 0.17419 -0.16577 -0.14225 0.1005 0.014709 0.031097 0.2009 -0.23919 -0.28868 0.12359 -0.054398 -0.14388 -0.19211 0.25721 -0.098322 0.38 -0.24533 -0.011675 0.19104 0.18458 -0.075253 -0.13012 0.09965 -0.23736 0.061393 0.14319 0.046188 0.21984 -0.16336 0.0095488 0.078547 0.11658 0.47749 0.32293 -0.077489 0.33997 -0.15424 0.21529 0.2818 0.22238 0.0078609 0.010551 -0.12774 0.13253 0.35319 -0.098559 -0.29696 0.0015395 -0.35495 -0.38377 -0.42476 0.46906 -0.14793 -0.48472 -0.067804 0.14136 -0.21488 
booking -0.092564 -0.22883 0.054334 0.047027 -0.068272 0.064154 0.050172 -0.025127 -0.10144 0.12322 -0.055299 0.11469 0.045199 -0.045986 0.11658 -0.16089 -0.076998 0.01056 0.20782 0.11932 0.10488 0.061198 -0.062946 0.02674 0.1185 -0.14407 0.11452 0.048248 -0.12158 -0.027141 0.033813 -0.016905 -0.14744 0.20192 -0.065816 -0.080717 -0.083305 -0.067525 0.018806 0.0020511 0.11108 0.11655 -0.050121 0.14826 0.090716 -0.078597 0.047714 0.073802 0.1277 0.075481 -0.15784 -0.13266 0.0095498 -0.06227 -0.13696 -0.16785 0.15627 -0.058973 0.018915 -0.18412 0.086258 0.00037826 0.033459 -0.19301 -0.0057677 0.081218 -0.067683 -0.049584 -0.067901 -0.053238 -0.13768 0.024292 -0.062619 0.031391 0.096046 0.31222 0.22298 -0.092366 0.0069739 -0.13161 0.18052 0.11146 0.1039 0.091339 -0.0063593 -0.10869 0.1487 0.15057 0.084407 -0.043415 0.091825 -0.14053 -0.0067451 -0.15346 0.099345 0.056588 -0.13744 -0.061045 0.070549 -0.14106 
dentist -0.0045599 -0.23085 0.12893 0.043144 -0.10732 0.11639 -0.031764 -0.11316 -0.017377 -0.013844 -0.13062 0.021211 -0.01057 -0.061275 0.019128 -0.11307 -0.13857 -0.07955 0.10629 0.0035578 0.0036144 0.094527 -0.039548 -0.084516 -0.081506 -0.11179 0.18972 -0.050334 -0.14369 -0.034715 -0.050558 -0.098098 -0.07324 0.1883 -0.078136 0.0055242 0.018046 -0.08107 0.056021 -0.065037 0.13283 0.080068 -0.017284 0.084185 -0.010709 -0.13419 0.058717 -0.0074677 0.046425 0.086205 -0.10817 -0.10454 0.0032046 -0.037474 -0.025835 -0.086687 0.13529 -0.066926 0.1775 -0.12623 0.018233 0.072344 0.077736 -0.083952 -0.064133 -0.0015391 -0.064914 -0.027349 0.0086589 0.0002885 -0.0060604 -0.044295 -0.020233 0.012905 0.067492 0.21798 0.20608 -0.067342 0.16641 -0.093089 0.12739 0.073002 0.059441 0.047682 -0.06535 -0.042812 0.13297 0.10517 0.029116 -0.10494 0.026129 -0.17239 -0.090937 -0.15672 0.17571 -0.044096 -0.22389 -0.070382 0.064095 -0.14468 
compare 0.11466 -0.2266 0.063194 0.055511 -0.1629 0.16887 -0.040279 -0.19253 0.13669 -0.1704 -0.17291 0.062148 -0.023878 -0.046154 -0.063728 -0.07417 -0.15253 -0.25995 0.070881 -0.04044 0.070064 0.17385 -0.049607 -0.22506 -0.25508 -0.15311 0.36848 -0.022501 -0.14805 -0.085182 -0.13005 -0.1736 -0.0032416 0.28665 0.0028695 0.06514 0.098201 -0.19342 0.14191 -0.023608 0.16277 0.067054 -0.17165 0.10583 -0.10921 -0.090569 0.060737 0.022398 0.017751 0.13712 -0.15296 -0.19915 0.088683 -0.038801 -0.10828 -0.13572 0.15729 -0.072481 0.2386 -0.16953 -0.0035789 0.13466 0.12684 -0.041857 -0.090393 0.081625 -0.16992 0.04361 0.10794 0.025145 0.16204 -0.10183 0.015237 0.045487 0.075844 0.30461 0.21068 -0.038126 0.22271 -0.089166 0.13593 0.2015 0.1508 0.0015758 0.027945 -0.086127 0.086517 0.23703 -0.079156 -0.20226 -0.001865 -0.24714 -0.27509 -0.29092 0.32046 -0.10597 -0.30977 -0.048863 0.094399 -0.13695 
news -0.55023 0.29211 -0.00061852 -0.12562 -0.060353 0.082633 -0.23802 -0.23658 0.038845 0.021523 -0.033266 -0.079209 0.14295 0.28748 -0.42757 -0.28894 -0.30484 0.071026 -0.075126 -0.15852 0.11642 -0.06102 0.003745 0.39853 -0.047981 -0.034213 -0.017113 -0.35026 0.057937 0.45326 0.066238 -0.088425 -0.058072 0.08844 -0.10656 0.15656 0.18873 0.057515 0.094891 -0.043886 -0.052208 0.43714 0.32866 -0.015165 -0.033723 -0.36983 0.086149 -0.48684 -0.36949 0.25011 -0.076905 0.14977 -0.50377 0.3564 0.33055 0.14555 -0.13288 0.061198 0.08399 0.31195 0.18657 -0.018145 0.2842 0.017183 0.41743 -0.25343 0.11016 0.21603 0.057697 -0.057376 -0.40385 -0.084963 -0.040783 0.12246 -0.12532 -0.48628 0.24042 -0.097429 -0.28484 -0.44343 -0.35343 -0.20203 -0.088846 -0.26093 -0.46945 0.041287 0.41573 -0.38609 -0.24719 0.21116 -0.48242 0.077057 0.29601 0.015141 -0.43345 -0.25476 0.17934 -0.089664 0.20868 0.0495 
accessories 0.32544 0.16621 0.0085105 0.17961 0.028484 -0.38075 0.082568 0.259 0.14927 0.21556 0.053737 -0.02648 -0.23502 -0.11961 0.29056 0.48753 0.32534 0.54766 -0.11092 -0.026514 -0.24368 -0.13761 0.12882 -0.11279 0.24137 -0.10233 -0.070978 0.35676 0.1389 -0.27449 0.17585 -0.15397 0.19717 -0.54648 0.070141 -0.39021 0.26275 0.21595 -0.17702 -0.1583 0.05077 -0.43781 -0.035885 -0.023985 -0.16867 0.30007 -0.028215 -0.0076993 0.1712 -0.43096 0.39014 0.22463 0.22867 -0.17044 0.00010521 0.13202 -0.097044 0.18681 0.083866 0.040504 -0.075923 0.061499 -0.37238 -0.057258 -0.13072 -0.29618 0.36436 -0.11501 -0.082657 0.16534 -0.35906 -0.068657 0.079133 -0.14142 0.10691 0.014637 0.021599 0.43852 0.13776 0.60173 0.011424 -0.14518 0.071169 -0.036325 -0.15603 -0.12769 -0.13491 -0.2035 0.20163 -0.23966 0.11098 0.35413 -0.16117 0.39101 0.0071679 0.2025 0.32055 0.22212 0.0046743 0.45221 
food 0.12573 -0.023883 0.13678 0.088503 0.011866 -0.15963 0.0066571 0.13599 -0.039381 0.1032 0.032623 -0.11849 -0.12357 -0.135 0.1669 0.22265 0.13912 0.26228 -0.02071 -0.0098164 -0.16061 -0.079476 0.083196 -0.093989 0.11935 -0.019047 -0.15088 0.17957 -0.0062334 -0.16816 0.10477 -0.087427 0.048375 -0.2348 -0.032427 -0.17398 0.022454 0.11268 -0.085056 -0.084674 0.020831 -0.2151 0.097052 -0.038854 0.030184 0.10728 -0.0049939 0.06107 0.083004 -0.19615 0.22406 0.05496 0.09634 -0.094016 0.046814 0.082038 -0.049671 0.03922 0.064512 0.0086469 -0.03242 0.0069131 -0.20563 0.0095424 -0.10421 -0.19156 0.18003 -0.083818 -0.11874 0.069988 -0.11904 0.02877 -0.02311 -0.16432 0.11462 0.001287 -0.0051481 0.12707 0.14252 0.31728 0.079298 -0.11059 -0.019653 0.050665 -0.10621 0.038059 -0.047445 -0.07661 0.13724 -0.10672 0.096119 0.10216 -0.0268 0.16959 0.017443 0.089047 0.11056 0.033176 -0.0164 0.13765 
delivery 0.14284 -0.036996 0.03747 0.004165 0.10734 -0.11504 0.0032892 0.10408 -0.0087319 0.21388 0.016288 0.025919 -0.10399 -0.038325 0.23695 0.13339 0.089262 0.30023 -0.025057 -0.010789 -0.21611 -0.10177 0.017131 0.034404 0.17266 -0.011157 -0.00030308 0.012148 0.068154 -0.093457 0.04086 0.041816 0.064256 -0.27003 -0.090376 -0.17656 0.074853 0.14624 -0.16824 -0.16647 0.04068 -0.21096 0.035337 -0.056299 -0.089052 0.019983 -0.029191 -0.019988 0.17969 -0.2426 0.14685 0.22452 0.056839 -0.12057 0.047495 0.062319 0.013682 0.062522 0.020539 0.018315 -0.10118 0.015122 -0.13581 -0.098436 -0.18556 -0.075461 0.20322 -0.19734 0.0060991 0.059536 -0.13199 -0.0060939 0.060148 -0.016758 -0.020296 -0.036663 -0.010224 0.17212 0.10978 0.23212 -0.036394 -0.12129 -0.04685 0.034307 -0.066056 -0.073756 -0.11491 -0.21826 0.21666 -0.0014023 0.11816 0.14168 0.065845 0.21659 -0.024539 0.12703 0.076344 0.081684 -0.049862 0.097671 
school 0.071333 0.058411 0.067515 0.068454 -0.087449 -0.038791 -0.064017 -0.03367 0.11769 -0.14363 -0.035458 -0.11144 -0.074036 -0.038313 -0.12239 0.12589 0.013173 -0.025774 -0.080651 -0.097931 -0.02766 0.029047 0.064441 -0.1483 -0.1552 -0.022107 0.020614 0.044639 -0.025367 -0.038197 0.0024847 -0.18051 0.070639 -0.036762 0.04991 0.0055368 0.12609 -0.016437 0.078416 -0.025722 0.015357 -0.041352 0.013517 -0.014728 -0.050236 0.040638 0.026363 -0.055599 -0.1158 -0.0036708 0.09276 -0.050838 0.022117 0.035085 0.072755 0.058205 -0.047548 0.029699 0.14684 0.052449 -0.0032002 0.054622 -0.0038993 0.11794 0.022785 -0.1295 0.036786 0.10503 0.0034124 0.066407 0.014925 -0.051975 0.0064529 -0.069983 0.062922 -0.053765 0.028006 0.070304 0.11665 0.10975 -0.0012629 -0.018832 0.022271 -0.071743 -0.091104 0.055275 0.028752 0.015443 -0.088465 -0.13268 -0.076511 -0.0018669 -0.12865 -0.0011678 0.062735 -0.09807 0.015155 0.0051205 0.043048 0.10579 
design 0.14834 0.014026 -0.12681 -0.22239 0.29613 0.085984 -0.0050138 0.042266 -0.098706 -0.019009 0.090534 0.019696 0.03571 0.078091 0.072742 -0.033787 0.025563 -0.16146 -0.12849 -0.014472 -0.17383 -0.09242 -0.068961 0.076192 -0.046758 0.30742 -0.092345 -0.29839 0.14498 0.056008 -0.17854 0.37457 0.072714 -0.12884 -0.033235 0.17926 -0.17738 0.062505 -0.17364 -0.026814 -0.14835 -0.13243 -0.013669 -0.23963 -0.027791 -0.040983 -0.12942 0.082241 0.070773 -0.084086 -0.044602 0.24936 -0.0074496 -0.03403 0.06963 0.076318 -0.055077 -0.02066 -0.21962 0.11432 -0.225 -0.065918 0.036955 0.13962 -0.22802 0.26294 -0.054509 -0.19509 0.13366 -0.012292 0.46749 0.09928 0.10508 0.060934 -0.28724 -0.29792 -0.44314 -0.054841 -0.031732 -0.027778 -0.17842 -0.088861 -0.25155 0.069906 0.32758 0.10819 -0.36996 -0.15337 0.083885 0.28691 0.11401 0.043453 0.23899 0.095748 -0.12322 0.038783 -0.05487 0.0070912 -0.27655 -0.15533 
care 0.00045101 -0.19766 0.25837 0.077819 -4.7597e-05 -0.065561 -0.025126 0.086118 -0.15224 0.12611 -0.01832 -0.13471 -0.083279 -0.15981 0.15592 0.057222 0.025662 0.20716 0.069731 0.016948 -0.15555 -0.040826 0.071604 -0.069717 0.11991 -0.038894 -0.15337 0.079641 -0.078727 -0.11266 0.085763 -0.079549 -0.066225 -0.073476 -0.12354 -0.1189 -0.073942 0.1015 -0.075821 -0.12395 0.049425 -0.10418 0.16185 -0.02154 0.13498 -0.012879 0.023484 0.048561 0.094438 -0.1239 0.1368 -0.014137 0.014071 -0.073422 0.054137 0.030977 0.020668 -0.025367 0.084385 -0.03332 -0.017796 0.0028097 -0.13826 -0.034066 -0.11298 -0.16921 0.12007 -0.10718 -0.1425 0.024227 -0.12521 0.052853 -0.073701 -0.17214 0.12283 0.054974 0.081895 0.012264 0.17121 0.18019 0.14853 -0.12698 -0.053527 0.10814 -0.15334 0.091291 0.034194 -0.031232 0.16668 -0.055383 0.13416 -0.038715 0.055602 0.068249 0.021215 0.049467 -0.0078637 -0.05297 -0.0076717 -0.023344 
review -0.0071456 0.16373 0.11647 0.0097457 0.035233 -0.03655 -0.059157 0.075149 -0.067828 -0.30357 0.13114 -0.33381 -0.013888 -0.077571 -0.23485 0.1406 0.11065 -0.18657 -0.16984 -0.075279 -0.066136 -0.031975 0.17404 -0.15752 -0.19619 0.26354 -0.44659 0.032147 0.010911 0.011177 0.025116 -0.022968 0.030199 -0.088137 0.088018 0.19705 -0.16226 0.032506 0.082775 0.1291 -0.24514 -0.057848 0.21087 -0.19628 0.23473 0.16558 -0.054744 0.10308 -0.26743 0.051558 0.21027 -0.12869 -0.034146 0.12211 0.1682 0.1757 -0.23054 -0.031206 -0.092118 0.21643 -0.027637 -0.076165 -0.051122 0.42191 0.077396 -0.11646 -0.042711 0.16717 -0.11614 -0.0083365 0.33237 0.13481 -0.045846 -0.22973 0.0071165 -0.35831 -0.36136 -0.11211 -0.0026612 0.123 -0.037248 -0.1363 -0.20775 0.0085337 0.078738 0.40352 -0.14392 0.061933 -0.18649 0.07632 -0.051192 0.018489 0.067729 0.067845 -0.13382 -0.16847 0.13424 -0.09602 -0.13722 0.0099127 
listings 0.079768 -0.37778 0.1794 0.071505 -0.21321 0.22187 -0.066516 -0.23004 0.070898 -0.1258 -0.23579 0.06353 -0.046739 -0.096086 -0.02451 -0.14509 -0.2262 -0.23741 0.15761 -0.024017 0.046822 0.19496 -0.066237 -0.25171 -0.24025 -0.2174 0.43524 -0.067268 -0.24539 -0.10131 -0.13009 -0.21574 -0.076308 0.38949 -0.066947 0.030227 0.069012 -0.20431 0.14385 -0.076515 0.23858 0.11929 -0.15232 0.15009 -0.08681 -0.18695 0.10247 0.016587 0.071888 0.15104 -0.20119 -0.22928 0.075006 -0.067204 -0.11489 -0.18191 0.24049 -0.117 0.33199 -0.23313 -0.0015148 0.1539 0.14767 -0.11943 -0.14462 0.045574 -0.16229 -0.0079704 0.086383 0.025066 0.10128 -0.11546 -0.023189 0.035897 0.124 0.43725 0.3283 -0.08946 0.31381 -0.13077 0.21909 0.19927 0.168 0.045976 -0.044948 -0.095609 0.17067 0.27103 -0.020206 -0.24454 0.044417 -0.34278 -0.28655 -0.35541 0.40418 -0.11314 -0.42425 -0.091602 0.14011 -0.22799 
rating 0.11693 -0.27494 0.11245 0.079692 -0.21724 0.21247 -0.046259 -0.22974 0.1554 -0.18232 -0.21164 0.056614 -0.041127 -0.066147 -0.082115 -0.093467 -0.18995 -0.2852 0.079433 -0.03591 0.064568 0.21583 -0.075881 -0.26647 -0.29253 -0.17931 0.44087 -0.039255 -0.20349 -0.095679 -0.14773 -0.21814 -0.014221 0.35017 0.0013166 0.07573 0.11489 -0.20995 0.16806 -0.035202 0.18869 0.096525 -0.20903 0.13882 -0.12837 -0.12086 0.089093 0.0031848 0.016742 0.15584 -0.18112 -0.21631 0.097956 -0.030808 -0.1176 -0.16501 0.20003 -0.077965 0.31505 -0.19729 -0.008327 0.15507 0.14395 -0.057488 -0.096478 0.068463 -0.17599 0.044087 0.12564 0.037373 0.17353 -0.13288 -0.0023037 0.049679 0.098042 0.3735 0.26888 -0.071167 0.27231 -0.12416 0.1622 0.23227 0.17146 0.013238 -0.0057125 -0.10384 0.13024 0.27396 -0.079198 -0.24982 -0.0083569 -0.3029 -0.31875 -0.34748 0.39089 -0.11742 -0.38393 -0.056642 0.12557 -0.17504 
software 0.040342 0.17215 -0.38089 0.063444 -0.04121 -0.042983 0.26345 0.11386 0.075884 -0.013188 0.10525 0.27648 0.13452 0.086912 0.061264 0.026423 0.20066 -0.14926 0.082782 0.19859 0.37882 0.077278 -0.086189 0.073508 0.1362 -0.055441 0.032738 0.34032 0.058498 -0.053616 0.065738 0.12502 -0.0077436 0.11962 0.25474 -0.072655 -0.10316 -0.14968 0.076821 0.32745 -0.048753 0.061272 -0.35055 0.22844 0.047535 0.30598 -0.038649 0.23803 0.092695 0.067443 -0.16762 -0.18359 0.19318 -0.068022 -0.39562 -0.20957 0.04239 0.0099468 -0.31516 -0.2008 0.1341 -0.090709 -0.038767 -0.10674 0.18909 0.30217 -0.20399 0.13607 -0.034728 -0.094096 -0.029891 0.043804 0.00229 0.14943 0.038954 0.33492 -0.058655 -0.028317 -0.33726 -0.078502 0.12548 0.31211 0.23145 0.030248 0.36586 -0.17648 -0.059188 0.3475 -0.079852 -0.030926 0.076179 0.062995 -0.14535 -0.10519 0.077729 0.17717 0.093379 0.1235 0.026314 0.086122 
kids 0.22939 0.11024 0.028952 0.10721 0.02849 -0.21114 0.041427 0.17083 0.057466 0.024419 0.060614 -0.10462 -0.14149 -0.11289 0.12727 0.33128 0.22437 0.22478 -0.094682 -0.024298 -0.14783 -0.073553 0.11648 -0.15 0.07239 0.019818 -0.15231 0.22953 0.059169 -0.17892 0.091509 -0.08975 0.12937 -0.30558 0.068082 -0.15078 0.0744 0.10925 -0.075532 -0.038912 -0.031017 -0.29786 0.012343 -0.07282 -0.025806 0.22937 -0.047848 0.071909 0.034688 -0.23913 0.28363 0.056062 0.17237 -0.097676 0.02388 0.11642 -0.095665 0.082008 0.024368 0.043194 -0.056886 0.010646 -0.23368 0.092086 -0.095278 -0.16007 0.17256 -0.036098 -0.069397 0.102 -0.052213 0.012264 0.027833 -0.14811 0.071501 -0.060031 -0.12083 0.20929 0.10648 0.39779 0.024393 -0.093633 -0.017943 -0.0014609 -0.018503 0.053143 -0.1478 -0.049418 0.071021 -0.11791 0.091752 0.17831 -0.10068 0.21463 0.026364 0.077517 0.18337 0.091646 -0.051118 0.2417 
routine 0.19186 0.069805 0.13934 0.054445 0.056984 -0.072476 0.0031426 0.15572 -0.095478 -0.36374 0.15592 -0.34402 -0.082603 -0.20854 -0.12966 0.25776 0.22854 -0.25128 -0.18097 -0.016206 -0.10282 -0.0065302 0.18486 -0.3329 -0.21403 0.32096 -0.48761 0.14453 -0.015883 -0.14403 0.011453 0.0041039 0.047714 -0.12722 0.13936 0.18105 -0.28099 -0.0072103 0.063415 0.15237 -0.25356 -0.21391 0.12449 -0.22672 0.26908 0.31346 -0.093206 0.28685 -0.17989 -0.041327 0.25167 -0.20399 0.15991 0.018551 0.077767 0.15527 -0.22836 -0.059672 -0.12819 0.12429 -0.084694 -0.092645 -0.15081 0.47323 -0.067983 -0.045166 -0.093767 0.11261 -0.14532 0.011447 0.53396 0.18111 -0.04494 -0.31245 0.064052 -0.23392 -0.49807 -0.098966 0.10116 0.30161 0.08216 -0.093545 -0.20508 0.11805 0.24956 0.45462 -0.30877 0.20224 -0.13039 0.014445 0.10043 -0.033901 -0.046531 0.061991 0.021832 -0.10611 0.071966 -0.073091 -0.22657 -0.015818 
directory 0.098183 -0.19224 0.066155 0.063825 -0.14709 0.15022 -0.029435 -0.1708 0.11623 -0.1426 -0.14555 0.044648 -0.03345 -0.052544 -0.057341 -0.069019 -0.13671 -0.21134 0.058026 -0.036608 0.049609 0.14714 -0.051904 -0.19052 -0.22605 -0.13451 0.30808 -0.03489 -0.13766 -0.078424 -0.12183 -0.15661 -0.0014715 0.25212 0.0032488 0.052311 0.080326 -0.16331 0.12931 -0.014355 0.13651 0.069735 -0.15884 0.10493 -0.11105 -0.07392 0.055093 0.015893 0.022736 0.12681 -0.14458 -0.16228 0.077585 -0.021647 -0.083569 -0.12012 0.14292 -0.067568 0.22366 -0.1435 0.00058735 0.10779 0.11339 -0.035639 -0.063333 0.057965 -0.1399 0.047534 0.083481 0.02891 0.12494 -0.10441 0.015924 0.041787 0.07149 0.27423 0.19135 -0.048705 0.20504 -0.07895 0.11559 0.17401 0.13702 0.005965 0.018862 -0.075808 0.084863 0.21278 -0.069407 -0.18088 0.00039513 -0.21575 -0.22961 -0.23713 0.28074 -0.096591 -0.27147 -0.033501 0.078934 -0.10449 
hospital 0.11779 -0.13505 -0.02799 -0.039033 0.015991 0.13028 0.00050817 -0.096037 0.068426 -0.070187 -0.082256 0.0852 -0.014788 0.0074205 -0.0060695 -0.071893 -0.085945 -0.19624 0.0020086 -0.026961 -0.019275 0.075923 -0.069022 -0.090041 -0.14263 -0.00059715 0.22956 -0.1187 -0.0375 -0.01529 -0.14379 0.039125 0.013809 0.12059 0.0029718 0.074729 0.013301 -0.094004 0.028776 -0.040823 0.05348 -0.0015682 -0.14497 0.012455 -0.11464 -0.07263 -0.0093654 0.011657 0.064463 0.049632 -0.11638 -0.015181 0.060056 -0.039252 -0.061462 -0.072461 0.091619 -0.04016 0.067163 -0.06735 -0.0754 0.071277 0.084564 -0.029075 -0.13331 0.15098 -0.11064 -0.059257 0.12093 0.025776 0.23108 -0.053965 0.044049 0.081571 -0.06541 0.11946 0.007447 -0.031303 0.10397 -0.070602 0.017789 0.11642 0.031191 0.026183 0.12327 -0.06423 -0.077487 0.071991 0.004482 -0.039586 0.03014 -0.1202 -0.089878 -0.12317 0.16694 -0.025864 -0.2186 -0.0019465 -0.022312 -0.12641 
buy 0.041467 -0.10537 0.12604 0.070392 -0.044958 -0.05869 -0.013635 0.029256 -0.0091151 0.099348 -0.062021 -0.0073723 -0.075071 -0.087207 0.12117 0.056065 0.0032063 0.15601 0.057061 -0.00045959 -0.086705 0.0026959 0.0094274 -0.064678 0.062932 -0.11349 0.07304 0.061678 -0.05356 -0.09368 0.035466 -0.10763 -0.0010345 -0.035231 -0.063266 -0.13099 0.067413 0.030619 -0.03238 -0.11702 0.11137 -0.0683 0.020755 0.032941 -0.034235 -0.027009 0.039929 -0.013811 0.098596 -0.083612 0.068939 0.0018283 0.04956 -0.063061 -0.0043264 -0.0055914 0.052024 0.0028608 0.13334 -0.057345 -0.0011566 0.054866 -0.078044 -0.08827 -0.083855 -0.1142 0.084812 -0.07227 -0.042877 0.033235 -0.14135 -0.024252 -0.020343 -0.0436 0.083951 0.12747 0.16361 0.080844 0.13728 0.12338 0.079769 -0.034111 0.043715 0.032329 -0.12338 -0.057011 0.06318 -0.02255 0.099393 -0.09961 0.059137 -0.015085 -0.051952 0.028937 0.078895 0.049829 -0.045078 -0.0044605 0.05518 0.018913 
management 0.0322 0.17339 -0.33794 -0.059795 0.10573 -0.037041 0.19638 0.13027 -0.0072101 0.072351 0.13747 0.23142 0.10856 0.11139 0.11043 -0.0097131 0.15824 -0.057753 0.024099 0.1423 0.19041 -0.020558 -0.07794 0.16872 0.17441 0.070001 -0.038612 0.13247 0.12625 0.027669 0.0098285 0.27469 0.0085001 -0.031178 0.15109 -0.017807 -0.13522 -0.038141 -0.039412 0.2011 -0.089096 0.0083026 -0.21059 0.078258 0.026459 0.18226 -0.083619 0.16214 0.094218 -0.0087568 -0.11432 0.021597 0.095425 -0.053584 -0.23169 -0.097941 -0.012086 0.019886 -0.3459 -0.073045 0.023366 -0.12142 -0.028216 -0.065007 0.073099 0.28883 -0.099992 0.0005682 0.014475 -0.06873 0.042273 0.062171 0.032333 0.14413 -0.089387 0.074784 -0.19799 0.00096916 -0.31336 -0.077593 -0.018926 0.15676 0.063789 0.029493 0.33126 -0.11736 -0.14858 0.10833 0.012428 0.10509 0.09504 0.12034 0.042472 0.036924 -0.074509 0.17722 0.11878 0.091438 -0.075701 0.039699 
categories 0.16667 -0.29718 0.094645 0.082471 -0.23482 0.20964 -0.040999 -0.24917 0.17593 -0.22877 -0.22228 0.061189 -0.042097 -0.074808 -0.079528 -0.090684 -0.19493 -0.34302 0.070697 -0.03944 0.081697 0.24081 -0.073515 -0.32492 -0.33914 -0.19026 0.47778 -0.023511 -0.1985 -0.12079 -0.18434 -0.23114 -0.00092809 0.37914 0.036016 0.079777 0.12244 -0.2468 0.20775 -0.015671 0.20356 0.083703 -0.26051 0.14587 -0.15906 -0.096758 0.080717 0.035199 0.032898 0.17008 -0.19485 -0.26447 0.13603 -0.055091 -0.15286 -0.1682 0.21383 -0.087497 0.33385 -0.2189 -0.0058653 0.17365 0.15179 -0.051602 -0.1098 0.10964 -0.20929 0.061061 0.13104 0.040439 0.22919 -0.14683 0.021519 0.062835 0.10672 0.42377 0.26698 -0.062371 0.31118 -0.12067 0.17795 0.2658 0.20418 0.0055804 0.052081 -0.11757 0.090833 0.3319 -0.10645 -0.28728 -0.0021115 -0.31937 -0.37409 -0.38143 0.43954 -0.1205 -0.42266 -0.055398 0.11729 -0.17377 
wedding -0.23913 -0.41136 0.31075 0.0053434 -0.064826 0.085285 -0.082955 -0.067448 -0.22954 0.235 -0.1265 -0.017191 -0.0020852 -0.10507 0.13607 -0.25718 -0.22203 0.17658 0.23097 0.053769 -0.096853 -0.00078391 -0.055923 0.08573 0.16129 -0.14962 0.051381 -0.13743 -0.18142 0.029235 0.042202 -0.061887 -0.221 0.17823 -0.27866 -0.078019 -0.08822 0.035884 -0.048868 -0.17052 0.16568 0.13448 0.22204 0.059497 0.13814 -0.3173 0.097516 -0.067189 0.13487 0.035636 -0.075605 -0.032027 -0.15844 -0.04344 0.05788 -0.087757 0.16479 -0.088724 0.16012 -0.10761 0.045427 0.018556 0.039722 -0.23009 -0.098376 -0.10301 0.049232 -0.15931 -0.11565 -0.063138 -0.25793 0.03565 -0.10501 -0.043328 0.11167 0.17768 0.33554 -0.139 0.14804 -0.14324 0.17124 -0.089242 -0.029214 0.13152 -0.26461 -0.012727 0.26151 -0.044188 0.18865 0.027694 0.09171 -0.21114 0.15198 -0.10192 0.02233 0.020433 -0.19552 -0.14894 0.07785 -0.23419 
search 0.10226 -0.19045 0.050573 0.057232 -0.13238 0.14222 -0.019486 -0.15902 0.09823 -0.14212 -0.13917 0.051865 -0.036036 -0.050407 -0.057679 -0.054182 -0.13179 -0.20875 0.061068 -0.016561 0.054049 0.15177 -0.04994 -0.19691 -0.21109 -0.11606 0.30598 -0.018235 -0.12046 -0.068894 -0.099622 -0.13594 -0.0080638 0.23193 0.0093881 0.053501 0.072411 -0.15399 0.12368 -0.023444 0.13155 0.06072 -0.15264 0.1001 -0.10209 -0.073341 0.046572 0.012131 0.015234 0.10134 -0.13096 -0.15692 0.071485 -0.034996 -0.084481 -0.11976 0.13489 -0.048926 0.19842 -0.13723 -0.00019165 0.1002 0.10133 -0.037322 -0.067257 0.068935 -0.13955 0.033096 0.090639 0.020651 0.14105 -0.082903 0.016746 0.045755 0.055064 0.25452 0.17805 -0.035692 0.19064 -0.07181 0.11277 0.16652 0.12723 0.016009 0.018785 -0.067603 0.069112 0.19875 -0.050267 -0.16564 -0.0062637 -0.20642 -0.23262 -0.24148 0.27218 -0.082158 -0.2616 -0.038414 0.079107 -0.1122 
commercial -0.10456 -0.27991 0.1428 -0.078005 0.075406 0.10095 -0.043168 -0.052907 -0.18582 0.19918 -0.054962 0.048638 0.015762 -0.018613 0.15792 -0.20134 -0.15298 0.082007 0.12334 0.038584 -0.10805 -0.02497 -0.085606 0.10711 0.12732 -0.012755 0.053973 -0.21258 -0.056445 0.045494 -0.038479 0.11479 -0.13051 0.089719 -0.21156 -0.02092 -0.098987 0.062275 -0.10701 -0.15599 0.078028 0.04761 0.10643 -0.012755 0.036255 -0.24106 0.026671 -0.024173 0.15575 -0.0070626 -0.090035 0.089175 -0.10818 -0.051391 0.038542 -0.044368 0.11676 -0.068378 0.03234 -0.047803 -0.055356 -0.0048291 0.048341 -0.16297 -0.15432 0.042502 0.027527 -0.20152 -0.0078462 -0.038391 -0.055248 0.03082 -0.018025 0.037354 -0.049764 0.047572 0.10902 -0.10056 0.085114 -0.13255 0.038448 -0.07825 -0.083244 0.090677 -0.07699 -0.044786 0.05529 -0.10603 0.19181 0.10845 0.094751 -0.12081 0.19081 -0.02395 -0.020323 0.041736 -0.16237 -0.078133 -0.032415 -0.22036 
home 0.20069 0.066292 -0.01502 -0.016832 0.12917 -0.095257 0.026374 0.12996 -0.0058613 -0.030489 0.092686 -0.068529 -0.066289 -0.056797 0.083739 0.19791 0.16519 0.045354 -0.11063 -0.026121 -0.1519 -0.075044 0.056803 -0.079805 -0.0047801 0.144 -0.15619 0.04032 0.097314 -0.089868 -0.014648 0.085642 0.091879 -0.22295 0.043652 -0.0093025 -0.033348 0.078775 -0.10109 -0.013583 -0.082946 -0.22585 0.012945 -0.14493 -0.013245 0.15344 -0.066542 0.089027 0.028759 -0.15982 0.16076 0.10231 0.10096 -0.06033 0.034175 0.095464 -0.089864 0.044254 -0.076561 0.080898 -0.12501 -0.015479 -0.13354 0.12792 -0.12969 -0.00092902 0.058944 -0.067285 0.0057427 0.049916 0.17173 0.039888 0.055439 -0.08767 -0.053833 -0.16103 -0.26697 0.10057 0.063066 0.23962 -0.044761 -0.091318 -0.11284 0.029696 0.12775 0.096541 -0.23886 -0.068241 0.054577 0.030757 0.081568 0.10758 0.019814 0.1623 -0.024095 0.050714 0.089194 0.057388 -0.14734 0.079644 
office -0.11928 0.017566 0.10314 0.02402 -0.029784 -0.063213 -0.072684 -0.0010755 -0.010952 0.14491 -0.035668 -0.044341 -0.026483 0.019301 0.014947 0.010954 -0.042338 0.23832 0.013624 -0.034866 -0.068169 -0.067026 0.029105 0.10225 0.11304 -0.099369 -0.024678 -0.018327 0.0038695 0.042489 0.095533 -0.11446 -0.013745 -0.082245 -0.098357 -0.11428 0.12995 0.098645 -0.045652 -0.12031 0.044302 0.033041 0.14394 0.0050239 -0.017725 -0.10688 0.037783 -0.1645 -0.0091247 -0.043859 0.090137 0.10143 -0.11182 0.036789 0.10855 0.067034 -0.025775 0.055493 0.10021 0.066237 0.054059 0.020094 -0.018674 -0.087223 0.048595 -0.21266 0.17476 -0.0095503 -0.049648 0.017498 -0.31386 -0.051653 -0.02254 -0.024538 0.05315 -0.065571 0.1868 0.071014 0.017861 0.027889 -0.043044 -0.1377 -0.0066876 -0.051712 -0.27857 -0.030079 0.16786 -0.18001 0.052825 -0.019163 -0.086756 0.068132 0.08056 0.097065 -0.10101 -0.0010939 0.093662 0.0038389 0.083503 0.085767 
accounting -0.012956 -0.081067 -0.06304 -0.07297 0.10183 0.040466 0.053049 0.043905 -0.090214 0.12955 0.033304 0.11204 0.052814 0.028769 0.11927 -0.089269 0.0092193 0.0028292 0.056759 0.087117 0.004635 -0.033913 -0.068761 0.10933 0.12691 0.033127 0.0048245 -0.056757 0.020679 0.02493 -0.019158 0.18296 -0.054408 0.017623 -0.039658 -0.004021 -0.11728 0.0082946 -0.086252 0.010501 -0.0071154 0.0025922 -0.040886 0.00017046 0.025643 -0.027338 -0.024578 0.05806 0.13266 -0.0093899 -0.081204 0.071463 -0.0048172 -0.049166 -0.066457 -0.063274 0.047878 -0.025849 -0.14054 -0.066973 -0.027582 -0.047551 0.012221 -0.10928 -0.053825 0.14074 -0.040344 -0.10665 0.01125 -0.055546 0.025254 0.049432 0.0014632 0.076835 -0.069655 0.055353 -0.05707 -0.053714 -0.078276 -0.065875 0.017516 0.029305 -0.028975 0.05716 0.11446 -0.067252 -0.05305 -0.025289 0.10106 0.10959 0.097661 -0.011807 0.10766 0.013429 -0.03359 0.097444 -0.025833 -0.0026221 -0.070944 -0.090612 
shipping 0.12626 0.13238 -0.20555 -0.041617 0.11817 -0.075827 0.1185 0.12566 0.024482 0.098628 0.089593 0.14256 0.0050247 0.062683 0.13189 0.10035 0.15879 0.071028 -0.044577 0.051978 0.015401 -0.06042 -0.044374 0.095003 0.14717 0.060848 -0.029589 0.068076 0.13428 -0.040735 0.00673 0.1744 0.076042 -0.17122 0.070236 -0.070338 -0.010726 0.053296 -0.11131 0.048245 -0.047785 -0.11927 -0.13644 -0.0036641 -0.060617 0.14863 -0.079773 0.064547 0.10643 -0.12575 0.016671 0.12657 0.094178 -0.075195 -0.096623 -0.0086759 -0.029442 0.057209 -0.18763 -0.0079029 -0.05381 -0.040083 -0.081917 -0.045756 -0.038251 0.13701 0.033274 -0.077647 0.044963 -0.0013165 0.014655 0.020033 0.064636 0.08637 -0.095422 -0.0096784 -0.16162 0.095321 -0.12816 0.086529 -0.070078 0.025578 -0.0013621 -0.0027183 0.19135 -0.10297 -0.17554 -0.057389 0.070242 0.067882 0.073498 0.1609 0.033108 0.13043 -0.054436 0.14757 0.11515 0.12522 -0.080496 0.10129 
planning 0.083089 -0.0082394 -0.17276 -0.23791 0.28007 0.10452 -0.0038096 -0.01169 -0.060141 0.099221 0.054073 0.14243 0.051306 0.14018 0.10364 -0.11649 -0.043165 -0.067265 -0.078869 0.0026487 -0.14206 -0.09809 -0.11641 0.18237 0.037114 0.19682 0.048643 -0.33274 0.15261 0.11544 -0.17631 0.38859 0.044134 -0.10011 -0.082261 0.10948 -0.083478 0.082161 -0.20154 -0.079893 -0.076377 -0.079938 -0.042335 -0.16947 -0.12305 -0.13151 -0.090804 -0.026124 0.13257 -0.07198 -0.11096 0.31233 -0.039617 -0.054589 0.048303 0.031736 0.018094 0.0016682 -0.1977 0.068956 -0.20103 -0.035788 0.067444 -0.027911 -0.21307 0.27109 -0.01614 -0.23255 0.18899 -0.018652 0.28644 0.052747 0.11719 0.16746 -0.31169 -0.23635 -0.2872 -0.013933 -0.074783 -0.11958 -0.20972 -0.058156 -0.18845 0.023538 0.23308 -0.046432 -0.27308 -0.24992 0.12348 0.28321 0.082631 0.05536 0.2587 0.1011 -0.13515 0.080347 -0.066841 0.036414 -0.20727 -0.15027 
payroll 0.032927 0.15798 -0.31554 -0.076037 0.13268 -0.028786 0.16941 0.11551 -0.0082412 0.071992 0.13777 0.21868 0.10194 0.10761 0.1013 -0.014395 0.14615 -0.056332 -8.6049e-05 0.12189 0.17487 -0.036238 -0.078925 0.15829 0.15721 0.095468 -0.040948 0.099627 0.12998 0.040072 0.0063835 0.28271 0.012382 -0.028986 0.13136 -0.00071999 -0.11858 -0.01686 -0.062601 0.17253 -0.10339 0.0030383 -0.2003 0.041224 0.020008 0.16403 -0.078907 0.14166 0.093169 -0.014579 -0.11558 0.050882 0.083843 -0.050822 -0.19033 -0.074438 -0.00071015 0.012664 -0.32117 -0.060251 -0.0097992 -0.10449 -0.020742 -0.048796 0.06797 0.2686 -0.094666 -0.0019753 0.035991 -0.074097 0.064464 0.062576 0.04354 0.13534 -0.11899 0.02857 -0.21865 -0.00085423 -0.28879 -0.062921 -0.034735 0.13223 0.031884 0.014556 0.3229 -0.11067 -0.16259 0.072681 0.0047301 0.13586 0.068936 0.12528 0.059008 0.051046 -0.08796 0.14819 0.10519 0.094904 -0.083048 0.030913 
business -0.18356 -0.14735 0.1434 0.0021425 -0.11402 0.12364 -0.11189 -0.1666 -0.0086317 0.010585 -0.12277 -0.0081717 0.019918 0.024895 -0.11151 -0.19222 -0.22819 -0.018501 0.091594 -0.031502 0.032995 0.067239 -0.031504 0.036453 -0.075741 -0.12145 0.14888 -0.1511 -0.11486 0.10186 -0.027487 -0.12402 -0.098184 0.21021 -0.1228 0.032047 0.073699 -0.053778 0.074697 -0.075696 0.10158 0.196 0.10512 0.070547 -0.021484 -0.24712 0.083908 -0.15478 -0.064768 0.14677 -0.10578 -0.065995 -0.152 0.079602 0.075338 -0.049364 0.084226 -0.040565 0.18691 -0.014847 0.080028 0.062227 0.1388 -0.10264 0.051979 -0.090245 -0.015023 0.032176 0.021539 -0.012734 -0.14434 -0.059025 -0.047454 0.039009 0.034899 0.052114 0.28887 -0.081093 0.069391 -0.20537 0.005926 -0.014537 0.029166 -0.030369 -0.22946 -0.020737 0.26025 -0.030498 -0.033987 -0.034311 -0.11325 -0.15631 0.0099506 -0.14793 0.028404 -0.12136 -0.14803 -0.097723 0.13609 -0.10872 
financial -0.081626 0.097785 -0.11275 -0.20474 0.19122 0.085414 -0.079945 -0.067554 -0.028922 0.037943 0.017339 0.051452 0.071287 0.1636 -0.059977 -0.15039 -0.1144 -0.054359 -0.09566 -0.060712 -0.079776 -0.084695 -0.067653 0.22734 -0.023655 0.15128 0.018498 -0.34986 0.13463 0.1961 -0.10095 0.23706 0.040608 -0.056824 -0.08175 0.14253 0.0021957 0.073551 -0.10219 -0.069229 -0.08398 0.055237 0.06646 -0.15368 -0.098646 -0.18076 -0.041623 -0.16703 -0.030709 0.01974 -0.08361 0.26662 -0.17662 0.071583 0.16481 0.080132 -0.043263 0.024504 -0.096269 0.16225 -0.10045 -0.035627 0.13661 0.017892 -0.031937 0.10559 0.026769 -0.096625 0.15913 -0.023779 0.12006 -0.0066512 0.076674 0.14212 -0.26674 -0.33895 -0.17122 -0.021439 -0.11961 -0.17803 -0.2642 -0.12027 -0.17824 -0.066012 0.025655 -0.0032311 -0.10249 -0.2873 -0.0094217 0.25907 -0.093354 0.059827 0.2566 0.078191 -0.22263 -0.034399 0.012878 -0.0091108 -0.10634 -0.075703 
portfolio 0.12315 -0.12027 -0.057796 -0.10943 0.099006 0.15316 -0.01806 -0.094635 0.03431 -0.025412 -0.046696 0.10567 0.013454 0.046868 0.038853 -0.085733 -0.087501 -0.17802 -0.016802 -0.019185 -0.078292 0.032043 -0.095829 -0.018922 -0.11485 0.074448 0.21402 -0.21575 0.010408 0.011026 -0.1686 0.16099 0.028136 0.057458 -0.039589 0.10217 -0.0093849 -0.043224 -0.049069 -0.073578 0.026923 -0.033958 -0.13079 -0.063202 -0.12785 -0.11558 -0.025 0.012178 0.090635 0.0035906 -0.14166 0.098906 0.029362 -0.046823 -0.019481 -0.037124 0.082258 -0.045843 0.0097697 -0.049876 -0.15303 0.035801 0.088559 -0.022047 -0.20052 0.208 -0.094673 -0.13444 0.17302 0.0027355 0.29004 -0.0223 0.085299 0.12116 -0.16269 0.0032588 -0.10083 -0.034835 0.088226 -0.093836 -0.05409 0.070769 -0.046721 0.02267 0.16463 -0.064403 -0.16057 -0.022656 0.048606 0.08048 0.066588 -0.088307 0.010255 -0.08156 0.094298 0.007535 -0.20003 0.0092307 -0.08635 -0.15152 
cleaning -0.12764 -0.26135 0.20032 0.013878 -0.033391 0.056322 -0.05141 -0.043153 -0.15707 0.15133 -0.074377 -0.017383 -0.0063597 -0.080742 0.105 -0.15218 -0.12592 0.11701 0.1551 0.044476 -0.064309 -6.4024e-05 -0.022966 0.036969 0.11458 -0.097887 0.022139 -0.076054 -0.10661 -0.01471 0.01906 -0.042838 -0.14341 0.10012 -0.17549 -0.05943 -0.053129 0.018141 -0.043565 -0.11227 0.099939 0.064367 0.11233 0.051973 0.081081 -0.19015 0.065606 -0.020557 0.10503 0.016728 -0.038152 -0.031426 -0.071626 -0.037046 0.017458 -0.064691 0.11046 -0.050274 0.086277 -0.079634 0.018677 0.015597 0.013917 -0.14136 -0.077884 -0.052155 0.025979 -0.10606 -0.075715 -0.026481 -0.15571 0.015718 -0.06672 -0.039226 0.073558 0.12597 0.21159 -0.071035 0.097274 -0.056009 0.11467 -0.058965 -0.012864 0.076279 -0.16194 -0.023117 0.14357 -0.015061 0.14447 -0.0039967 0.078074 -0.1354 0.094208 -0.060448 0.037803 0.01087 -0.12918 -0.10348 0.042412 -0.15406 
shoes 0.18998 0.087406 0.009543 0.097383 0.0019307 -0.22115 0.046932 0.14377 0.091004 0.11979 0.033171 -0.02895 -0.12631 -0.066111 0.16127 0.2857 0.19402 0.30058 -0.056667 -0.029085 -0.12931 -0.076452 0.075819 -0.069624 0.12094 -0.056972 -0.040662 0.21534 0.066143 -0.17083 0.10857 -0.1081 0.11605 -0.30531 0.046756 -0.22725 0.15502 0.12264 -0.10446 -0.093828 0.025393 -0.26252 -0.015526 -0.011776 -0.10795 0.17151 -0.026198 0.004427 0.1 -0.24863 0.22658 0.12416 0.14043 -0.090501 0.0069175 0.071613 -0.062706 0.10992 0.054151 0.011081 -0.043322 0.04157 -0.21497 -0.026625 -0.08992 -0.17005 0.21851 -0.065211 -0.041916 0.093078 -0.20283 -0.034269 0.04896 -0.086373 0.063048 0.0051069 0.0031494 0.25436 0.087554 0.34506 0.0087613 -0.070167 0.038801 -0.022992 -0.087935 -0.073169 -0.086936 -0.11903 0.12214 -0.14379 0.064383 0.20763 -0.097317 0.23105 0.01812 0.11665 0.18216 0.13685 0.0059073 0.26651 
specialist 0.083607 -0.1462 0.038077 0.044742 -0.12047 0.102 -0.018841 -0.1204 0.096409 -0.11294 -0.10068 0.03442 -0.029512 -0.028778 -0.03719 -0.047654 -0.098299 -0.17803 0.032006 -0.032955 0.03742 0.11976 -0.042105 -0.15349 -0.17284 -0.099107 0.23283 -0.020726 -0.10262 -0.047736 -0.079759 -0.10724 -0.011308 0.18053 0.010201 0.040471 0.056659 -0.12928 0.10365 -0.0095145 0.097096 0.033865 -0.12772 0.074807 -0.071955 -0.040885 0.032015 0.0088091 0.01243 0.078298 -0.10978 -0.11981 0.057698 -0.02842 -0.062105 -0.09212 0.099219 -0.044494 0.16228 -0.11071 -0.0020748 0.081443 0.084735 -0.01348 -0.047476 0.055313 -0.10228 0.02951 0.069613 0.022207 0.10927 -0.063082 0.0028911 0.031724 0.04232 0.21078 0.13624 -0.021135 0.15396 -0.055839 0.085508 0.13514 0.10405 0.011374 0.029406 -0.065036 0.047059 0.15482 -0.053877 -0.14182 -0.00035512 -0.1544 -0.18279 -0.17908 0.22492 -0.065493 -0.21375 -0.018945 0.057983 -0.080274 
doctor 0.090044 -0.14677 0.038709 0.040911 -0.11745 0.098878 -0.027321 -0.11709 0.086837 -0.12063 -0.11852 0.031335 -0.017502 -0.031504 -0.05329 -0.03606 -0.097728 -0.17832 0.039404 -0.016908 0.039623 0.12289 -0.024176 -0.14724 -0.17891 -0.092455 0.24458 -0.0084495 -0.096691 -0.048781 -0.092912 -0.12118 -0.0029966 0.18771 0.011725 0.050316 0.054967 -0.13163 0.09383 -0.015617 0.091614 0.035073 -0.12144 0.07411 -0.084495 -0.054479 0.039974 0.018641 0.016963 0.095192 -0.10172 -0.13471 0.061618 -0.017604 -0.065335 -0.075495 0.11592 -0.039319 0.16198 -0.11298 -0.0066625 0.0846 0.074077 -0.024558 -0.046657 0.054304 -0.099001 0.032873 0.069587 0.031759 0.1078 -0.062366 0.001474 0.036095 0.046582 0.20751 0.13299 -0.034667 0.15378 -0.065464 0.086846 0.13818 0.098892 0.0010775 0.028934 -0.049028 0.054059 0.16489 -0.049327 -0.12872 -0.0015969 -0.15722 -0.19616 -0.17753 0.21938 -0.060966 -0.21436 -0.024123 0.058143 -0.078216 
research -0.31465 0.17062 0.0053004 -0.076573 -0.03913 0.033667 -0.13918 -0.13561 0.018419 0.013793 -0.016412 -0.039681 0.085058 0.16496 -0.23593 -0.16686 -0.17729 0.044971 -0.034369 -0.096696 0.060919 -0.042977 0.0086201 0.21797 -0.035509 -0.023479 -0.010089 -0.20295 0.037022 0.25731 0.027906 -0.047514 -0.037277 0.054661 -0.057734 0.082446 0.11878 0.031245 0.046932 -0.029387 -0.038656 0.23651 0.18431 -0.013373 -0.030741 -0.20312 0.047706 -0.26335 -0.20098 0.13109 -0.044291 0.080958 -0.28442 0.18705 0.1905 0.089829 -0.061954 0.040783 0.06402 0.17656 0.10062 -0.0057973 0.14965 -0.0037906 0.24257 -0.14207 0.065485 0.11141 0.037519 -0.030921 -0.21859 -0.058627 -0.019808 0.072476 -0.063759 -0.25455 0.13086 -0.050446 -0.16012 -0.24685 -0.20516 -0.11611 -0.036417 -0.15618 -0.26285 0.010543 0.23265 -0.21823 -0.13374 0.11702 -0.26111 0.044786 0.15495 0.015081 -0.22932 -0.13484 0.10923 -0.047608 0.11853 0.036103 
fitness -0.026109 -0.11022 0.15562 0.028563 0.0058004 -0.0018092 -0.021944 0.025166 -0.12054 -0.01944 0.005463 -0.12501 -0.021818 -0.11129 0.014714 0.003263 0.0051396 -0.0034591 0.026924 0.0078727 -0.079681 0.00050974 0.043465 -0.081875 0.0029098 0.039859 -0.1466 0.020238 -0.069573 -0.037473 0.010449 -0.028354 -0.058097 0.017436 -0.060881 0.013607 -0.10611 0.013494 -0.00045091 -0.017447 -0.022214 -0.024813 0.12436 -0.042151 0.14092 -0.0021643 0.012073 0.071041 -0.0040681 -0.0086048 0.062894 -0.075902 -0.0031569 -0.020073 0.039095 0.022336 -0.020233 -0.043493 0.023892 0.0068172 -0.0072969 -0.015581 -0.050055 0.056169 -0.062085 -0.05574 -0.013112 -0.021139 -0.10074 -0.020771 0.062817 0.058895 -0.052617 -0.13072 0.055997 -0.0026012 -0.046481 -0.074614 0.097945 0.063633 0.085235 -0.069162 -0.076749 0.083819 -0.027758 0.13431 0.0026055 0.047472 0.047503 0.019361 0.078007 -0.074129 0.043851 -0.011813 0.024907 -0.013478 -0.034127 -0.086204 -0.041582 -0.081634 
personal -0.031996 -0.13641 0.15504 0.016144 -0.0053174 0.0086648 -0.031026 0.02429 -0.11262 0.0047944 -0.013129 -0.091456 -0.023331 -0.08667 0.020793 -0.021454 -0.022902 0.020281 0.04446 0.0091476 -0.056864 -0.007195 0.030202 -0.048308 0.006966 0.014259 -0.10429 0.0024139 -0.059994 -0.036775 0.022858 -0.027571 -0.065849 0.03118 -0.059266 0.016824 -0.083648 0.013607 -0.0087623 -0.035131 0.010862 -0.0044577 0.10231 -0.038793 0.11382 -0.035887 0.020633 0.050347 0.019878 -0.0036838 0.026341 -0.065318 -0.013627 -0.020291 0.038235 0.0035231 0.014802 -0.053383 0.037479 -0.021349 -0.00075354 -0.01389 -0.017789 0.034839 -0.049368 -0.044256 -0.0052189 -0.044584 -0.071985 -0.0073474 0.035134 0.049096 -0.059056 -0.091198 0.053647 0.018803 -0.00058012 -0.07614 0.073778 0.027695 0.093095 -0.05429 -0.048167 0.080713 -0.048472 0.092699 0.020476 0.031789 0.054131 0.018049 0.05392 -0.074111 0.048216 -0.0069856 0.026106 -0.024909 -0.053399 -0.072414 -0.026649 -0.095062 
price 0.080191 -0.17245 0.060868 0.051832 -0.1199 0.12932 -0.028942 -0.14228 0.09428 -0.11141 -0.12337 0.034087 -0.019692 -0.038045 -0.046694 -0.061777 -0.10476 -0.17794 0.044472 -0.033793 0.038449 0.11988 -0.030739 -0.16814 -0.18166 -0.10547 0.25544 -0.027749 -0.11244 -0.049551 -0.089128 -0.13796 -0.0071139 0.21209 -0.0020158 0.048177 0.06332 -0.14241 0.11425 -0.018282 0.11994 0.051396 -0.12176 0.091867 -0.076514 -0.076151 0.036373 0.009144 0.0077329 0.10556 -0.11204 -0.14654 0.060805 -0.017564 -0.080456 -0.086319 0.11894 -0.060114 0.18017 -0.11511 0.0054505 0.086338 0.08261 -0.035159 -0.060286 0.049142 -0.12474 0.029193 0.065229 0.012487 0.10744 -0.076176 -0.00055421 0.040243 0.051177 0.23882 0.16026 -0.042873 0.1626 -0.07924 0.099833 0.14168 0.11061 -0.001926 0.00042361 -0.067222 0.059158 0.17811 -0.051242 -0.14761 -0.0039901 -0.17669 -0.20255 -0.20988 0.23797 -0.070523 -0.23655 -0.039171 0.081124 -0.097799 
filter 0.078358 -0.131 0.042092 0.032786 -0.11896 0.11313 -0.011967 -0.11045 0.094063 -0.11825 -0.10007 0.030201 -0.024095 -0.03838 -0.03341 -0.044682 -0.098949 -0.17682 0.03863 -0.018626 0.032899 0.10396 -0.027836 -0.14201 -0.16026 -0.095572 0.22421 -0.0052148 -0.089677 -0.054482 -0.088858 -0.11548 -0.0020794 0.18831 0.0089767 0.041975 0.06064 -0.11562 0.10445 -0.017031 0.10073 0.049167 -0.12758 0.069251 -0.073652 -0.051093 0.032167 0.018117 0.015784 0.091601 -0.10011 -0.12213 0.06744 -0.021313 -0.066349 -0.077345 0.094801 -0.051131 0.14777 -0.11659 -0.0046846 0.073952 0.083367 -0.029745 -0.05807 0.049774 -0.11064 0.03355 0.062285 0.013556 0.11525 -0.060673 0.015816 0.037391 0.040049 0.21123 0.12458 -0.021933 0.14176 -0.06236 0.085275 0.12883 0.098484 0.0092056 0.017721 -0.04646 0.055484 0.1559 -0.051488 -0.12396 -0.005505 -0.15424 -0.18391 -0.1713 0.2121 -0.056298 -0.20192 -0.013252 0.051216 -0.071336 
sale 0.1634 -0.046134 0.024832 0.077563 -0.076243 -0.029071 0.017092 -0.0072066 0.11492 -0.034341 -0.069974 0.010596 -0.078052 -0.056448 0.055995 0.11583 0.024906 0.010978 -0.011501 -0.028345 -0.041352 0.046301 0.021738 -0.14876 -0.06337 -0.091235 0.15188 0.10479 -0.038046 -0.13348 -0.010391 -0.13836 0.066563 -0.010478 0.025178 -0.07685 0.12643 -0.023765 0.020796 -0.050575 0.088925 -0.10862 -0.096484 0.036351 -0.097246 0.053491 0.0098178 0.020789 0.043522 -0.068123 0.045163 -0.039862 0.12778 -0.062695 -0.041373 -0.027874 0.05 0.015571 0.13596 -0.063863 -0.017445 0.074664 -0.044648 -0.035494 -0.080532 -0.044226 0.018003 -0.001887 0.036304 0.058615 -0.0027156 -0.079875 0.031624 -0.02841 0.061082 0.15079 0.098044 0.101 0.15829 0.13253 0.06782 0.057365 0.091652 -0.017728 -0.026494 -0.065346 -0.014842 0.05853 0.0092114 -0.17245 0.026839 -0.015244 -0.18772 -0.022155 0.16154 0.0015516 -0.060264 0.054092 0.039367 0.074184 
analytics -0.0015872 0.17209 -0.28181 0.020061 0.0024392 -0.078283 0.19344 0.12964 0.02371 0.034953 0.11622 0.1947 0.10471 0.069826 0.071259 0.01706 0.17536 -0.044179 0.042229 0.14837 0.25162 0.012718 -0.050775 0.112 0.15771 0.00080212 -0.04345 0.24393 0.071772 -0.010252 0.068645 0.14588 -0.016731 0.011435 0.16346 -0.065177 -0.09484 -0.070129 0.031817 0.23847 -0.071429 0.033128 -0.20635 0.12486 0.058681 0.23073 -0.036715 0.15185 0.050513 0.023334 -0.094264 -0.092299 0.12343 -0.043419 -0.24174 -0.12181 0.00491 0.014408 -0.26918 -0.12053 0.098591 -0.094386 -0.042352 -0.067015 0.15911 0.21045 -0.11406 0.095654 -0.032597 -0.068346 -0.063108 0.06138 0.0096294 0.097106 0.01683 0.17108 -0.084556 -0.012045 -0.29058 -0.053561 0.04954 0.18259 0.12571 0.025586 0.24086 -0.11501 -0.059574 0.18067 -0.031498 0.02601 0.062365 0.093259 -0.048832 -0.01281 -0.016267 0.15052 0.12394 0.080203 -0.0088832 0.081572 
shop 0.0099646 -0.094526 0.1047 0.05031 -0.016771 -0.063806 -0.016812 0.03627 -0.031175 0.14247 -0.025316 -0.0019078 -0.053148 -0.068948 0.12153 0.036963 0.019146 0.20705 0.047562 0.0023735 -0.0912 -0.034236 0.0054635 -0.011194 0.12364 -0.095541 0.021015 0.052906 -0.021255 -0.069457 0.057359 -0.062534 -0.012047 -0.072502 -0.068178 -0.13202 0.058577 0.069898 -0.051213 -0.093934 0.081661 -0.059926 0.061389 0.01539 -0.0074581 -0.029884 0.020883 -0.025254 0.10276 -0.09047 0.076721 0.041539 0.010472 -0.055172 0.023562 0.012682 0.036203 0.011034 0.091751 -0.023979 0.0060208 0.031152 -0.075502 -0.095605 -0.068023 -0.11402 0.12068 -0.088887 -0.044875 0.024048 -0.17808 -0.023269 -0.024818 -0.03889 0.061034 0.077174 0.12515 0.06322 0.08326 0.11233 0.061884 -0.06361 0.030142 0.035199 -0.14228 -0.050377 0.05875 -0.061097 0.11131 -0.056519 0.059414 0.013107 -0.0078236 0.064252 0.017638 0.054623 0.015691 0.0099922 0.040953 0.034349 
venue 0.089256 -0.094514 -0.028654 -0.042096 0.020452 0.098038 -0.019933 -0.075514 0.037874 -0.058263 -0.046238 0.074147 -0.0071795 0.025513 0.00023659 -0.064893 -0.068687 -0.13814 -0.0064403 -0.0098188 -0.032494 0.035118 -0.065005 -0.043097 -0.10803 0.0043341 0.17328 -0.12746 -0.016996 -0.0083864 -0.11915 0.042894 0.027743 0.085149 -0.016173 0.077113 0.0022289 -0.048977 0.0011448 -0.03077 0.028847 -0.00052982 -0.09798 -0.018487 -0.092014 -0.074415 -0.0029078 0.0029434 0.04462 0.035676 -0.096851 0.016868 0.039457 -0.03269 -0.027202 -0.037141 0.065215 -0.022746 0.041011 -0.050802 -0.078594 0.041378 0.071034 -0.016594 -0.11421 0.1308 -0.07655 -0.055828 0.11563 0.0096056 0.1927 -0.026525 0.056693 0.070694 -0.067422 0.06058 -0.019003 -0.027888 0.082378 -0.071395 -0.010181 0.077301 0.0059591 0.022878 0.1094 -0.050047 -0.078662 0.030309 0.014602 -0.0025084 0.040103 -0.089508 -0.037378 -0.087938 0.09842 -0.010988 -0.1581 0.00012873 -0.040629 -0.11125 
update -0.27119 0.14867 -0.0066927 -0.073025 -0.034148 0.044365 -0.12261 -0.11793 0.010059 0.0061651 -0.016962 -0.034554 0.07831 0.14362 -0.21202 -0.1547 -0.15846 0.031175 -0.023502 -0.081589 0.057487 -0.035957 0.011027 0.19412 -0.032703 -0.029858 -0.011138 -0.18184 0.032685 0.23267 0.034405 -0.042391 -0.028333 0.049799 -0.052707 0.081004 0.10432 0.039586 0.037025 -0.028782 -0.026003 0.22807 0.15537 -0.0035535 -0.018199 -0.17745 0.054097 -0.24099 -0.18086 0.13723 -0.04322 0.062957 -0.24692 0.18602 0.16852 0.076348 -0.056827 0.036532 0.056264 0.1566 0.10461 0.0012122 0.14869 0.0022973 0.21206 -0.12129 0.056255 0.10861 0.019428 -0.034018 -0.19367 -0.05058 -0.024835 0.056547 -0.066512 -0.23821 0.12523 -0.046913 -0.14691 -0.23068 -0.1753 -0.10059 -0.037635 -0.14162 -0.24319 0.015502 0.21055 -0.18166 -0.11501 0.10185 -0.24174 0.033943 0.15227 -0.00029806 -0.21693 -0.13798 0.092789 -0.049791 0.10499 0.030077 
portrait -0.013422 -0.10811 0.14677 0.025635 0.0098505 -0.0041953 -0.020823 0.03856 -0.10743 -0.006303 0.0055792 -0.096835 -0.018683 -0.095801 0.031342 0.00038313 -0.0027401 0.021832 0.025602 0.015426 -0.060014 -0.017765 0.046746 -0.059424 0.010778 0.036587 -0.12882 0.011132 -0.050207 -0.043224 0.021042 -0.016859 -0.048333 0.015304 -0.045989 0.019001 -0.097108 0.022659 -0.016567 -0.028118 -0.016274 -0.01825 0.11394 -0.053265 0.12823 -0.017895 0.013361 0.067087 0.0058647 -0.0074001 0.055617 -0.050996 -0.0081701 -0.0052091 0.050889 0.011337 -0.0041764 -0.044318 0.0086456 -0.00092211 -0.0092398 -0.026626 -0.030345 0.053003 -0.050472 -0.047645 -0.0015403 -0.029108 -0.079731 -0.020017 0.055406 0.054607 -0.050111 -0.11509 0.060276 -0.017768 -0.029458 -0.060481 0.076496 0.047014 0.081475 -0.074286 -0.064714 0.066815 -0.017991 0.11118 0.0011305 0.023823 0.035578 0.0083763 0.059129 -0.068634 0.052411 0.0062863 0.014236 -0.0098102 -0.031579 -0.073428 -0.033215 -0.071351 
exam -0.24284 -0.016209 0.090103 -0.039818 -0.03219 0.046018 -0.10418 -0.07221 -0.062995 0.081959 -0.038033 -0.03942 0.038182 0.056323 -0.081663 -0.16446 -0.141 0.083937 0.053819 -0.020291 -0.0019122 -0.031273 -0.016059 0.15967 0.05322 -0.045757 -0.0057169 -0.15196 -0.027527 0.14003 0.045513 -0.047125 -0.092846 0.064615 -0.12688 0.011493 0.033034 0.045417 -0.0040795 -0.062445 0.033516 0.15744 0.16482 0.001787 0.039274 -0.19266 0.062712 -0.17266 -0.072592 0.076796 -0.046573 0.042973 -0.20534 0.1061 0.12002 0.02373 0.012894 -0.0040018 0.063623 0.058923 0.082231 -0.0067802 0.083163 -0.066994 0.10184 -0.12251 0.063591 0.007072 -0.019143 -0.03696 -0.21582 -0.022687 -0.044468 0.014346 -0.012151 -0.099244 0.17639 -0.067688 -0.054069 -0.16146 -0.053677 -0.11042 -0.037533 -0.042652 -0.2252 0.010668 0.21037 -0.13861 -0.013854 0.072863 -0.11083 -0.019439 0.14339 -0.010398 -0.12889 -0.067317 0.010109 -0.062181 0.076195 -0.050881 
event 0.098776 -0.089229 -0.019761 -0.042698 0.029667 0.09803 -0.011129 -0.086897 0.048018 -0.049348 -0.059148 0.071425 -0.011374 0.026487 0.0074342 -0.053175 -0.071437 -0.14063 0.0030079 -0.01861 -0.035781 0.03454 -0.062524 -0.059718 -0.11201 0.02008 0.16833 -0.11141 -0.0093356 -0.014146 -0.1275 0.061711 0.01557 0.092813 -0.010418 0.069851 0.0041359 -0.064894 -0.0075746 -0.028538 0.03864 0.00090735 -0.11133 -0.016799 -0.099487 -0.066937 -0.0098369 0.013362 0.062398 0.028922 -0.099601 0.018178 0.036167 -0.02623 -0.022318 -0.041774 0.07225 -0.026033 0.032219 -0.044843 -0.074751 0.052973 0.064958 -0.01402 -0.11975 0.13644 -0.083038 -0.063193 0.11812 0.010925 0.19411 -0.034633 0.046291 0.078203 -0.067285 0.06776 -0.014731 -0.025782 0.078892 -0.066069 -0.011803 0.063651 -0.0048176 0.016753 0.10197 -0.040258 -0.073123 0.034119 -0.0011281 0.00096749 0.022508 -0.074686 -0.045854 -0.079034 0.10809 -0.01382 -0.15657 -0.012587 -0.027018 -0.11021 
support 0.044032 0.061595 -0.18342 -0.090422 0.10519 0.024742 0.085888 0.04789 -0.0038372 0.03626 0.054878 0.12288 0.062063 0.082166 0.058381 -0.038829 0.061876 -0.063379 -0.012656 0.059243 0.038305 -0.026818 -0.057722 0.10344 0.060893 0.080613 -0.0021208 -0.035558 0.088113 0.044468 -0.0397 0.21287 0.029117 -0.023352 0.039574 0.043425 -0.078369 0.0061577 -0.062931 0.059688 -0.054358 -0.011735 -0.11095 -0.0069949 -0.021195 0.042736 -0.058487 0.053393 0.073324 -0.024924 -0.086381 0.093637 0.040529 -0.039133 -0.071209 -0.024725 0.0024007 0.003068 -0.18733 -0.010304 -0.049546 -0.064098 0.0023039 -0.028362 -0.022871 0.19247 -0.056342 -0.053916 0.070933 -0.039251 0.10163 0.040369 0.042255 0.10765 -0.11411 -0.023541 -0.15853 -0.011461 -0.14035 -0.064936 -0.069945 0.051791 -0.027918 0.021772 0.21268 -0.061613 -0.14631 -0.0086059 0.028187 0.12824 0.055853 0.06755 0.07665 0.022992 -0.062657 0.089507 0.018887 0.042151 -0.087769 -0.01971 
services 0.097522 -0.012831 -0.12567 -0.17469 0.21184 0.080438 -0.0090413 -0.0078581 -0.038792 0.051074 0.042639 0.095019 0.036346 0.089136 0.064971 -0.076878 -0.010653 -0.073983 -0.082658 -0.014044 -0.11373 -0.07749 -0.094204 0.11536 -0.0023687 0.17795 0.033956 -0.25416 0.11141 0.070863 -0.15017 0.2788 0.050314 -0.085724 -0.036992 0.10487 -0.072696 0.044228 -0.14458 -0.056951 -0.073647 -0.061741 -0.047623 -0.14773 -0.092743 -0.072542 -0.084776 0.0008707 0.091305 -0.070081 -0.069566 0.2388 -0.021989 -0.036604 0.048484 0.043116 -0.0049457 0.0010926 -0.13179 0.063192 -0.17355 -0.033159 0.057294 0.01183 -0.18064 0.19629 -0.019904 -0.16633 0.15127 -0.014463 0.26676 0.029061 0.089648 0.11399 -0.22838 -0.18563 -0.24189 -0.005463 -0.033898 -0.066625 -0.16261 -0.031688 -0.1462 0.018292 0.18952 -0.016719 -0.23632 -0.16066 0.090364 0.2038 0.067474 0.047531 0.175 0.066136 -0.078076 0.046324 -0.048461 0.036976 -0.16804 -0.10354 
corporate 0.083074 0.0098187 -0.12912 -0.15886 0.21187 0.070303 0.0027514 -0.0054108 -0.041214 0.044722 0.048282 0.088069 0.031855 0.092042 0.079439 -0.058861 -0.010284 -0.054749 -0.065979 -0.0078738 -0.11113 -0.067731 -0.082219 0.12204 -0.0013405 0.16825 0.02274 -0.23522 0.10657 0.071086 -0.12905 0.26747 0.056426 -0.089699 -0.036125 0.10162 -0.065574 0.066742 -0.1334 -0.052772 -0.073361 -0.062951 -0.039419 -0.12531 -0.091475 -0.073255 -0.080656 -0.0044669 0.080337 -0.068219 -0.064574 0.22677 -0.026914 -0.022993 0.046294 0.030772 0.0089425 -0.0080568 -0.1425 0.067886 -0.16137 -0.025807 0.047499 0.00073232 -0.15201 0.19758 -0.022429 -0.15387 0.1369 0.00073191 0.23533 0.026368 0.099153 0.10915 -0.23204 -0.17748 -0.24086 -0.00013741 -0.042053 -0.055557 -0.15526 -0.042978 -0.14407 0.011409 0.1718 -0.012822 -0.21738 -0.17559 0.074703 0.19053 0.048745 0.045488 0.15934 0.086414 -0.096263 0.042147 -0.030252 0.024552 -0.16625 -0.099975 
reporting 0.046128 0.1019 -0.21877 -0.086231 0.12757 -0.01015 0.10037 0.070557 -0.002807 0.044494 0.078436 0.14388 0.066216 0.074885 0.063806 -0.013201 0.07968 -0.054758 -0.017947 0.064005 0.069658 -0.03739 -0.062304 0.10012 0.075832 0.094175 -0.011349 0.0052593 0.10111 0.026591 -0.040062 0.21419 0.018497 -0.037982 0.070593 0.02557 -0.082373 -0.00027544 -0.064217 0.094277 -0.074279 -0.020469 -0.12744 -0.0031158 -0.014457 0.087833 -0.071088 0.092244 0.064279 -0.018801 -0.073936 0.071919 0.048876 -0.043842 -0.1129 -0.042049 -0.013114 0.0057166 -0.21704 -0.014117 -0.040417 -0.065287 -0.010582 -0.020541 0.0020422 0.2063 -0.067681 -0.030428 0.045366 -0.041281 0.10218 0.043766 0.052817 0.10003 -0.11719 -0.01257 -0.18371 0.0073653 -0.17854 -0.052004 -0.062897 0.068241 -0.00080958 0.0087607 0.22966 -0.07057 -0.16272 0.0054708 0.01585 0.12481 0.061086 0.082737 0.069442 0.046962 -0.064385 0.098497 0.049926 0.071017 -0.090957 0.00062114 
compliance 0.042663 0.08538 -0.22031 -0.080622 0.10218 -0.0064005 0.1159 0.061555 0.0013174 0.033651 0.083794 0.15432 0.077132 0.077815 0.068697 -0.023842 0.075207 -0.052274 -0.012523 0.079309 0.082742 -0.032866 -0.059513 0.12624 0.089142 0.087455 -0.0039854 0.0093956 0.10629 0.038586 -0.019533 0.21445 0.024858 -0.036997 0.081253 0.012146 -0.097931 -0.0043649 -0.054079 0.099064 -0.06053 -0.003539 -0.14019 0.012299 -0.019761 0.080745 -0.057392 0.078968 0.07774 -0.0081529 -0.089777 0.061346 0.050729 -0.029159 -0.12563 -0.045013 -0.0099897 0.0090534 -0.22281 -0.022258 -0.021609 -0.059718 -0.010426 -0.040213 0.0095266 0.22078 -0.059013 -0.040305 0.055874 -0.050476 0.090421 0.051559 0.046685 0.11088 -0.10547 -0.004821 -0.16478 0.00031229 -0.18256 -0.04869 -0.041725 0.077559 -0.0078991 0.012065 0.22392 -0.071792 -0.14479 0.020618 0.02278 0.11663 0.0673 0.079612 0.057059 0.026784 -0.060461 0.098128 0.043895 0.054689 -0.074957 -0.014309 
campaigns 0.036586 0.08031 -0.21148 -0.076639 0.096364 0.0093572 0.098734 0.05114 -0.0019739 0.038473 0.0739 0.15264 0.078761 0.084407 0.072081 -0.019553 0.07941 -0.072246 -0.0094067 0.068729 0.088893 -0.01474 -0.06722 0.10993 0.073579 0.085493 -0.0046907 0.0097303 0.092742 0.031279 -0.036924 0.1941 0.016366 -0.018805 0.064499 0.020256 -0.087882 -0.01322 -0.044414 0.10279 -0.064646 -0.00010023 -0.13799 0.015115 -0.0152 0.071256 -0.061611 0.073091 0.071657 -0.0062503 -0.090785 0.059233 0.049443 -0.034011 -0.1184 -0.041108 0.0029395 0.0025037 -0.2146 -0.039064 -0.027133 -0.059762 0.003445 -0.026381 0.0079465 0.20963 -0.059868 -0.026406 0.042789 -0.03883 0.09991 0.038861 0.049223 0.096968 -0.11291 0.012693 -0.15439 -0.0068778 -0.16551 -0.070027 -0.040947 0.077003 0.0069517 0.01282 0.21867 -0.064162 -0.13081 0.028241 0.010509 0.11371 0.049144 0.075551 0.051168 0.022391 -0.054172 0.097282 0.044225 0.057066 -0.072927 -0.015833 
hr 0.035685 0.080936 -0.18449 -0.072737 0.11395 0.0045648 0.086406 0.057912 -0.020037 0.041914 0.078558 0.1249 0.056103 0.083888 0.064166 -0.011813 0.062465 -0.049301 -0.011607 0.057809 0.045049 -0.042653 -0.061292 0.11541 0.086085 0.093538 -0.017533 -0.016275 0.093851 0.029936 -0.033309 0.20633 0.025834 -0.047211 0.055479 0.022784 -0.085273 0.01211 -0.062621 0.07288 -0.060036 -0.01185 -0.089235 -0.0093208 -0.022322 0.057288 -0.062245 0.062871 0.069336 -0.018919 -0.072854 0.093639 0.028692 -0.02468 -0.082968 -0.034243 -0.0088024 0.007101 -0.19215 0.0020247 -0.045276 -0.072342 0.00056975 -0.029031 -0.020232 0.17666 -0.051437 -0.050929 0.046287 -0.028481 0.092292 0.049381 0.043499 0.08687 -0.10975 -0.032768 -0.15923 -0.0080545 -0.14772 -0.055008 -0.069076 0.052779 -0.022901 0.0089292 0.19246 -0.04598 -0.13278 -0.011842 0.022169 0.12567 0.052368 0.083022 0.0872 0.041137 -0.07949 0.091505 0.03876 0.052155 -0.080816 -0.0064964 
consulting 0.07378 -0.014302 -0.11108 -0.1634 0.21307 0.079634 -0.019282 -7.3174e-06 -0.045413 0.048705 0.029388 0.074389 0.029069 0.092354 0.084112 -0.058499 -0.015398 -0.044823 -0.080342 -0.019156 -0.13236 -0.079313 -0.082839 0.1072 0.0085214 0.16045 0.026162 -0.2545 0.10506 0.066771 -0.12535 0.27635 0.05295 -0.080151 -0.054391 0.10012 -0.07285 0.061951 -0.13816 -0.068209 -0.066866 -0.076251 -0.027179 -0.13319 -0.086978 -0.079599 -0.064765 -0.018684 0.090158 -0.06894 -0.068588 0.23385 -0.039823 -0.026726 0.054581 0.035515 0.0079747 0.0013565 -0.13793 0.069986 -0.15723 -0.03401 0.040318 0.0025615 -0.17558 0.18461 -0.015515 -0.17739 0.13714 -0.00096398 0.24222 0.032119 0.085193 0.10521 -0.22721 -0.20007 -0.23708 0.0017861 -0.028162 -0.062801 -0.16402 -0.063507 -0.15695 0.031437 0.16671 -0.01855 -0.21826 -0.18326 0.090803 0.21254 0.06414 0.052319 0.17836 0.078106 -0.099432 0.059817 -0.052204 0.017083 -0.16008 -0.11186 
city -0.10847 0.018215 0.030882 -0.015287 -0.099606 0.096158 -0.081744 -0.15438 0.072167 -0.080818 -0.075404 0.0038922 0.035526 0.069085 -0.16932 -0.11654 -0.15341 -0.10009 0.003799 -0.067817 0.059897 0.062494 -0.019871 0.013155 -0.13498 -0.081613 0.14563 -0.12387 -0.051522 0.1011 -0.042521 -0.10927 -0.017798 0.14069 -0.016456 0.063167 0.1056 -0.070489 0.10511 -0.013255 0.037811 0.15939 0.02304 0.041829 -0.070667 -0.14236 0.055127 -0.14813 -0.12563 0.12675 -0.094337 -0.02874 -0.10909 0.10133 0.051808 -0.0054026 0.022094 -0.013549 0.14225 0.030144 0.065421 0.058857 0.14048 -0.015937 0.094495 -0.038339 -0.030104 0.092141 0.069595 0.0099708 -0.041434 -0.070778 0.0013294 0.062119 0.0032655 -0.02302 0.16475 -0.036504 0.0058873 -0.17517 -0.048821 0.02378 0.042959 -0.086289 -0.12297 -0.032875 0.16618 -0.017615 -0.12373 -0.030059 -0.16111 -0.075424 -0.032858 -0.1096 0.0077915 -0.13426 -0.08274 -0.03312 0.098868 -0.019462 
agency 0.070841 -0.010415 -0.11048 -0.1542 0.2034 0.082904 -0.0031056 -0.015563 -0.037026 0.054379 0.028355 0.081139 0.023936 0.078503 0.06987 -0.061182 -0.024878 -0.059008 -0.055892 -0.016687 -0.11954 -0.073944 -0.084698 0.099603 -0.00096695 0.15684 0.035442 -0.24072 0.10893 0.078262 -0.12549 0.2626 0.048653 -0.073396 -0.04372 0.089866 -0.05882 0.04473 -0.13081 -0.073001 -0.063245 -0.061008 -0.036999 -0.12054 -0.082733 -0.084484 -0.063644 -0.019104 0.082005 -0.065507 -0.076686 0.21182 -0.031348 -0.035713 0.048789 0.027078 0.0072549 -0.0017579 -0.12379 0.063304 -0.15662 -0.018738 0.046692 -0.00065438 -0.17036 0.18628 -0.020197 -0.15812 0.13673 0.0013893 0.2201 0.033969 0.094094 0.10005 -0.22701 -0.17142 -0.22421 -0.0021179 -0.024747 -0.069374 -0.15931 -0.036549 -0.13551 0.025261 0.17095 -0.023992 -0.19702 -0.16315 0.087209 0.1793 0.042071 0.027046 0.1609 0.066773 -0.074046 0.042444 -0.050912 0.017529 -0.15108 -0.10384 
marketing 0.045926 0.078711 -0.21555 -0.074784 0.10859 0.0034045 0.091632 0.049371 -0.004944 0.032878 0.080771 0.14848 0.062144 0.074306 0.055604 -0.031934 0.072254 -0.063113 -0.012954 0.071933 0.076447 -0.022392 -0.07118 0.11029 0.079854 0.067066 -0.002338 -0.0017704 0.092958 0.027607 -0.023317 0.19487 0.017147 -0.014174 0.06289 0.022994 -0.085651 -0.018486 -0.057552 0.088189 -0.057194 -0.00094889 -0.13165 0.011092 -0.0087245 0.077947 -0.059137 0.081543 0.078441 -0.01883 -0.091191 0.051155 0.058985 -0.029092 -0.10779 -0.047321 -0.001283 0.0090683 -0.20255 -0.028815 -0.029939 -0.059026 0.008837 -0.026606 -0.0029415 0.19359 -0.069757 -0.038149 0.041352 -0.033062 0.093031 0.03889 0.04702 0.10784 -0.099864 -0.00023945 -0.16058 -0.0042868 -0.15943 -0.052844 -0.040241 0.074273 0.004102 0.012486 0.21174 -0.074303 -0.13977 0.025891 0.012529 0.10625 0.06141 0.064572 0.051047 0.0137 -0.051898 0.087775 0.025434 0.05514 -0.081421 -0.014174 
staffing 0.071853 -0.0083537 -0.11636 -0.16902 0.21728 0.082805 -0.011418 -0.0075938 -0.048301 0.048703 0.03326 0.070511 0.037897 0.091851 0.074398 -0.072468 -0.024234 -0.060335 -0.068889 -0.0059218 -0.12824 -0.064659 -0.082499 0.11981 0.012561 0.166 0.019591 -0.25387 0.11955 0.081287 -0.13647 0.28274 0.051633 -0.09321 -0.057678 0.10469 -0.059543 0.056203 -0.153 -0.058909 -0.063048 -0.074655 -0.034366 -0.13421 -0.0941 -0.086781 -0.077754 -0.010671 0.079993 -0.075849 -0.055903 0.23674 -0.035163 -0.033321 0.061121 0.041065 0.0066393 -0.0018887 -0.13786 0.05784 -0.17358 -0.018885 0.044473 0.015576 -0.17702 0.19518 -0.0012806 -0.16519 0.13649 -0.016043 0.23998 0.0337 0.093216 0.11073 -0.23525 -0.19931 -0.22992 -0.0069421 -0.041967 -0.052864 -0.15777 -0.059336 -0.15601 0.025726 0.18237 -0.0088918 -0.21731 -0.18746 0.08644 0.20447 0.055211 0.040531 0.18476 0.081644 -0.099275 0.05423 -0.038733 0.015468 -0.15841 -0.10301 
monitoring 0.034453 0.065329 -0.19364 -0.080104 0.12372 0.01462 0.085411 0.058461 -0.019803 0.037126 0.07321 0.12964 0.057053 0.091221 0.058015 -0.030007 0.065761 -0.065801 -0.023934 0.062189 0.05878 -0.021549 -0.07521 0.12265 0.071345 0.08248 0.0082611 -0.024197 0.10432 0.035087 -0.045533 0.20914 0.023432 -0.037161 0.041027 0.038293 -0.077886 -0.0099691 -0.058333 0.067334 -0.054528 -0.0057511 -0.11843 -0.016743 -0.028755 0.046389 -0.063556 0.067883 0.075104 -0.0092228 -0.093238 0.086533 0.031614 -0.040133 -0.07868 -0.040386 -0.0047872 0.0075738 -0.19768 -0.014304 -0.037669 -0.050571 0.013521 -0.032868 -0.016339 0.20248 -0.064835 -0.047215 0.058326 -0.036717 0.11051 0.033969 0.047478 0.10984 -0.12728 -0.019343 -0.16012 -0.0047931 -0.15581 -0.062259 -0.062313 0.065557 -0.01479 0.0094414 0.21955 -0.064372 -0.14052 -0.010771 0.02471 0.12233 0.046612 0.072757 0.086059 0.023733 -0.059475 0.083855 0.025613 0.061448 -0.082363 -0.023415 
cloud 0.047126 0.079771 -0.20732 -0.088422 0.11308 0.003855 0.098326 0.056846 -0.0088701 0.043752 0.067001 0.13321 0.059908 0.080094 0.065424 -0.026652 0.055744 -0.056796 -0.0043781 0.064384 0.071335 -0.03055 -0.062462 0.11671 0.067348 0.087171 0.011778 -0.019911 0.10127 0.030273 -0.041201 0.21301 0.012911 -0.029435 0.06346 0.029301 -0.072269 -0.0041638 -0.054028 0.075896 -0.068956 -0.02095 -0.1242 -0.011188 -0.029873 0.05731 -0.06773 0.076557 0.078277 -0.009975 -0.095702 0.076663 0.033919 -0.042897 -0.093259 -0.044872 0.0041179 0.015145 -0.19853 -0.02713 -0.044404 -0.053964 0.013534 -0.033441 -0.0029475 0.21486 -0.066464 -0.035967 0.049946 -0.032866 0.11634 0.037048 0.043611 0.11731 -0.12965 -0.0096121 -0.15762 -0.00077694 -0.1548 -0.067245 -0.050174 0.06321 -0.022571 0.01336 0.22285 -0.068638 -0.15019 0.0081058 0.02008 0.11649 0.061206 0.0629 0.059942 0.025702 -0.055073 0.089994 0.035277 0.064746 -0.085886 -0.029197 
university -0.10154 -0.013438 0.024375 -0.0089765 -0.11856 0.11394 -0.092375 -0.17648 0.10202 -0.091051 -0.10609 0.00782 0.028616 0.066355 -0.17242 -0.11439 -0.16358 -0.13064 0.013584 -0.080869 0.062578 0.082419 -0.017333 -0.0042711 -0.16676 -0.08134 0.18843 -0.11064 -0.0661 0.09517 -0.044223 -0.13167 -0.0046192 0.18079 -0.015196 0.081826 0.12071 -0.074436 0.10864 -0.021091 0.060392 0.15761 -0.013281 0.062211 -0.088958 -0.14993 0.067656 -0.13317 -0.11552 0.14654 -0.10954 -0.067761 -0.1044 0.094348 0.040603 -0.01759 0.054543 -0.022556 0.16062 0.0063376 0.056627 0.062326 0.14404 -0.007422 0.095191 -0.042445 -0.05706 0.10089 0.072079 0.013148 -0.027288 -0.097455 -9.6249e-05 0.061066 0.0051104 0.017319 0.18544 -0.038547 0.037253 -0.17175 -0.032106 0.043881 0.050155 -0.083577 -0.12606 -0.035937 0.15561 0.017275 -0.12885 -0.055879 -0.14294 -0.099951 -0.066754 -0.14315 0.045353 -0.1289 -0.10931 -0.047706 0.10953 -0.034837 
reports 0.0041423 0.14965 -0.25088 0.026039 0.018783 -0.072754 0.17085 0.12072 0.02018 0.040516 0.10117 0.16501 0.087428 0.062263 0.050224 0.020838 0.14669 -0.026569 0.051995 0.14176 0.22783 0.0066293 -0.036572 0.11233 0.15063 0.0041165 -0.046032 0.21312 0.067056 -0.014376 0.060885 0.13255 -0.017917 0.018299 0.1437 -0.055802 -0.095885 -0.053698 0.011849 0.20902 -0.069919 0.022726 -0.19222 0.11825 0.058371 0.20617 -0.032611 0.14121 0.054769 0.013758 -0.079339 -0.073982 0.10766 -0.028129 -0.22667 -0.097506 -0.0086995 0.025093 -0.26525 -0.092713 0.084526 -0.082575 -0.048251 -0.054654 0.14568 0.18359 -0.092092 0.083614 -0.042181 -0.061259 -0.051296 0.044541 -0.0037016 0.097156 0.0011881 0.1464 -0.082028 -0.013437 -0.27029 -0.052899 0.041019 0.15599 0.12213 0.0092781 0.23403 -0.10616 -0.061361 0.16101 -0.030764 0.01905 0.058997 0.083989 -0.02734 -0.011745 -0.035018 0.13948 0.12401 0.083703 -0.0065186 0.071145 
toys 0.15362 0.078227 -0.0053162 0.072945 0.0060823 -0.18827 0.032678 0.1309 0.07003 0.10218 0.035782 -0.0039185 -0.11545 -0.06059 0.1364 0.23695 0.15009 0.26711 -0.041064 -0.018248 -0.11028 -0.06503 0.059276 -0.051928 0.12462 -0.049642 -0.02374 0.181 0.074893 -0.13256 0.089615 -0.08543 0.097252 -0.26134 0.029308 -0.19011 0.13036 0.10405 -0.081203 -0.070385 0.034552 -0.21591 -0.024012 -0.0036407 -0.08222 0.14957 -0.015247 0.00041363 0.090181 -0.19904 0.18092 0.11832 0.099287 -0.076736 -0.0058791 0.068805 -0.046228 0.085824 0.048044 0.012555 -0.023591 0.031501 -0.1655 -0.047654 -0.072209 -0.13059 0.17562 -0.052435 -0.046196 0.080185 -0.18985 -0.043336 0.027784 -0.0644 0.050619 0.0084948 0.010051 0.20858 0.065111 0.27303 -0.0088601 -0.057075 0.031891 -0.02423 -0.07181 -0.075908 -0.066579 -0.10691 0.10639 -0.11476 0.039686 0.17289 -0.071716 0.17887 0.0096625 0.10919 0.16655 0.10806 -0.0011383 0.22789 
platform -0.0045363 0.16704 -0.28118 0.01412 0.014916 -0.059592 0.181 0.11546 0.010098 0.052467 0.10871 0.18136 0.095277 0.066321 0.060683 0.018998 0.16251 -0.041546 0.043194 0.13638 0.23722 0.0087381 -0.042677 0.12297 0.16681 0.0007851 -0.054931 0.22382 0.07013 -0.0078276 0.064197 0.14942 -0.015972 0.010016 0.15244 -0.044264 -0.098448 -0.057316 0.009665 0.23045 -0.061219 0.043954 -0.18628 0.13266 0.061213 0.21338 -0.050348 0.15842 0.049733 0.025134 -0.092741 -0.071835 0.10378 -0.037756 -0.24501 -0.10908 -0.0039515 0.017603 -0.28246 -0.091445 0.085541 -0.10845 -0.044795 -0.069103 0.14759 0.20469 -0.099396 0.08663 -0.040186 -0.066297 -0.062879 0.050388 0.0035164 0.10772 -0.0040254 0.14527 -0.091753 -0.0091607 -0.28778 -0.048144 0.051351 0.17581 0.11796 0.014011 0.23592 -0.10423 -0.068293 0.16894 -0.027154 0.03272 0.055489 0.10193 -0.016797 -0.0026093 -0.027543 0.14003 0.13234 0.093801 -0.0082107 0.074727 
data -0.0061815 0.17344 -0.28648 0.020343 0.015914 -0.06801 0.18618 0.13088 0.0089479 0.048705 0.11249 0.19488 0.11043 0.07686 0.06117 0.024081 0.16984 -0.034541 0.058787 0.14431 0.25577 0.0098676 -0.04484 0.10817 0.16017 0.0055358 -0.066659 0.22865 0.085394 -0.011109 0.0696 0.14357 -0.0045149 0.013205 0.15906 -0.062054 -0.093257 -0.071481 0.019643 0.22121 -0.058021 0.035531 -0.19058 0.13308 0.068735 0.22011 -0.039561 0.16439 0.06155 0.032166 -0.0934 -0.088146 0.11005 -0.02597 -0.23639 -0.11296 -0.010285 0.017834 -0.28084 -0.09798 0.099767 -0.10106 -0.042399 -0.07203 0.16014 0.20662 -0.095195 0.08103 -0.05206 -0.063348 -0.06322 0.057609 -0.0010089 0.10717 0.0089029 0.15599 -0.078941 -0.010903 -0.30054 -0.057637 0.045871 0.17321 0.1259 0.0087765 0.24067 -0.11158 -0.059497 0.17081 -0.023758 0.024126 0.05512 0.10174 -0.028557 -0.013231 -0.043597 0.13449 0.12373 0.09211 -0.0086183 0.075197 
supplies 0.17471 0.10335 0.0055721 0.10342 0.02036 -0.20985 0.039002 0.14369 0.090182 0.10765 0.042374 -0.011537 -0.12894 -0.068847 0.16662 0.27879 0.19302 0.3008 -0.054608 -0.016387 -0.13262 -0.086851 0.0754 -0.058199 0.13796 -0.052243 -0.058731 0.21652 0.07193 -0.15232 0.10182 -0.077678 0.11772 -0.29752 0.048555 -0.21175 0.13905 0.11363 -0.092076 -0.067467 0.017648 -0.24847 -0.023096 -0.02123 -0.08794 0.16652 -0.017869 0.011464 0.082807 -0.23961 0.22562 0.11796 0.13314 -0.094371 -0.0083277 0.072812 -0.052629 0.097601 0.034233 0.028164 -0.026755 0.030345 -0.20473 -0.023453 -0.078253 -0.15446 0.201 -0.055376 -0.037951 0.093872 -0.19384 -0.035475 0.046794 -0.074552 0.062634 -0.0016239 0.0001612 0.22803 0.071251 0.33028 0.00055273 -0.081946 0.046195 -0.02409 -0.086752 -0.072241 -0.073936 -0.10172 0.10168 -0.13431 0.06581 0.18325 -0.083314 0.21431 0.014499 0.12327 0.18612 0.12747 0.0067659 0.24845 
therapy -0.013311 -0.09427 0.15011 0.027795 -0.00034844 -0.0052153 -0.03275 0.045678 -0.12474 -0.036815 0.013088 -0.12571 -0.028127 -0.10047 0.017855 0.0043267 0.011678 -0.0027443 0.019651 0.020722 -0.076375 -0.0055876 0.058334 -0.079 -0.012096 0.064302 -0.17241 0.012611 -0.059749 -0.036166 0.020958 -0.0096479 -0.04656 -0.0058233 -0.039022 0.033841 -0.1297 0.021654 -0.010432 -0.004428 -0.031666 -0.039474 0.12906 -0.067913 0.15551 0.00060564 -0.0073152 0.080998 -0.01159 -0.0027934 0.083349 -0.067173 -0.0019146 -0.01826 0.047705 0.018716 -0.022607 -0.056081 -0.0016074 0.012539 -0.012521 -0.026526 -0.055841 0.088021 -0.055467 -0.062162 -0.011947 -0.022966 -0.099322 -0.013158 0.089251 0.073239 -0.062122 -0.14049 0.063968 -0.038538 -0.07323 -0.072526 0.07617 0.076417 0.083941 -0.072455 -0.082636 0.094036 -0.0062159 0.15944 -0.022344 0.042597 0.039244 0.026524 0.078713 -0.068809 0.050709 0.010818 0.0058646 -0.028829 -0.027647 -0.082912 -0.058665 -0.074612 
help -0.071737 -0.067288 -0.032553 0.022966 -0.0094687 -0.0044271 0.075061 0.034388 -0.08246 0.10785 0.018546 0.085744 0.045034 -0.01233 0.10035 -0.071841 0.020428 0.05653 0.11355 0.10182 0.096485 -0.0038299 -0.038266 0.076216 0.13866 -0.04671 -0.014754 0.069279 -0.026518 -0.0065356 0.042361 0.060583 -0.071695 0.057595 -0.018574 -0.073662 -0.078564 -0.021458 -0.014094 0.058457 0.022708 0.053126 -0.031812 0.08663 0.073067 0.012104 0.0014144 0.056098 0.087876 0.016679 -0.063612 -0.052518 0.0028513 -0.032771 -0.10134 -0.093787 0.05822 -0.030349 -0.087682 -0.10101 0.058667 -0.045843 -0.010955 -0.11433 0.030168 0.070226 -0.019239 -0.013953 -0.052994 -0.044619 -0.12837 0.033661 -0.031878 0.037078 0.036453 0.14663 0.062137 -0.05086 -0.081027 -0.050391 0.092207 0.054649 0.066066 0.047998 0.031173 -0.061945 0.065599 0.066485 0.058735 0.010395 0.073266 -0.013204 0.033718 -0.032828 0.0089885 0.077862 -0.0067307 -0.0067739 0.017408 -0.045827 
sports -0.025399 0.12263 0.010044 0.027375 -0.015503 -0.086948 -0.040282 0.023816 0.04802 0.066145 -0.0025821 -0.038621 -0.027145 0.030826 -0.021687 0.078848 0.027516 0.17028 -0.042336 -0.056771 -0.048976 -0.046784 0.034452 0.061428 0.05192 -0.033531 -0.029241 0.02781 0.040983 0.020758 0.05645 -0.077436 0.051871 -0.14322 -0.013753 -0.07847 0.12307 0.072463 -0.026315 -0.044356 -0.0019144 -0.034152 0.074423 -0.0074079 -0.054137 0.010358 0.017474 -0.12428 -0.043877 -0.060626 0.10706 0.10166 -0.055559 0.035961 0.079756 0.076848 -0.060012 0.06005 0.050509 0.084129 0.035503 0.021771 -0.049962 -0.018593 0.067789 -0.14577 0.12578 0.015311 -0.011527 0.042519 -0.20178 -0.051279 0.017745 -0.0079755 0.0035491 -0.11459 0.067541 0.10072 -0.012578 0.062797 -0.078381 -0.091468 0.0044054 -0.071035 -0.15661 -0.020669 0.055742 -0.15096 0.0030754 -0.033005 -0.094237 0.12348 0.01551 0.11601 -0.086866 -0.00032197 0.14353 0.040972 0.040335 0.14147 
science -0.22024 -0.053374 0.098094 -0.02665 -0.032474 0.040153 -0.097192 -0.084343 -0.065864 0.085937 -0.048592 -0.035922 0.048303 0.045207 -0.063216 -0.16306 -0.14062 0.095102 0.053615 -0.019755 -0.0064174 -0.023381 -0.010182 0.13097 0.044295 -0.059544 0.0041508 -0.13455 -0.034953 0.12181 0.037736 -0.034029 -0.079175 0.06585 -0.13526 0.0013045 0.02186 0.045431 -0.0085282 -0.081817 0.04593 0.14875 0.17414 0.013382 0.036453 -0.20985 0.059543 -0.14546 -0.059564 0.075124 -0.042165 0.035979 -0.1888 0.084433 0.11365 0.0066772 0.012553 -0.019351 0.068259 0.05076 0.064805 2.1956e-05 0.08979 -0.077915 0.076342 -0.11253 0.056541 -0.0093048 -0.022135 -0.041671 -0.2104 -0.021585 -0.042272 0.011664 0.0070523 -0.077107 0.17258 -0.070808 -0.034823 -0.15508 -0.035821 -0.08734 -0.023975 -0.034934 -0.22566 -0.0067009 0.19349 -0.12308 -0.00050861 0.073028 -0.10196 -0.033316 0.14235 -0.0177 -0.11864 -0.055004 -0.00035487 -0.06882 0.080011 -0.067472 
products 0.16002 0.086268 -0.013324 0.10043 -0.0029186 -0.1966 0.043304 0.1419 0.079943 0.13546 0.025659 -0.0094166 -0.13017 -0.06288 0.16443 0.25523 0.17797 0.31198 -0.042382 -0.027176 -0.13204 -0.082976 0.064791 -0.042326 0.13964 -0.087106 -0.018377 0.20344 0.067219 -0.14702 0.10738 -0.095411 0.11847 -0.29288 0.027283 -0.22037 0.17006 0.11318 -0.093978 -0.094996 0.041263 -0.22365 -0.028994 -0.0039679 -0.11107 0.15543 -0.0094928 -0.010193 0.088241 -0.24291 0.19889 0.1183 0.12758 -0.086004 0.0065309 0.075215 -0.043249 0.10674 0.051508 0.017204 -0.03281 0.045175 -0.18966 -0.051544 -0.074066 -0.16762 0.2129 -0.065404 -0.044346 0.085341 -0.21861 -0.040284 0.039402 -0.066401 0.057626 0.025173 0.045151 0.24775 0.065494 0.31766 0.0040223 -0.07774 0.047898 -0.023409 -0.090704 -0.093546 -0.068153 -0.12037 0.11835 -0.14124 0.039042 0.19606 -0.088581 0.20656 0.011588 0.12533 0.17614 0.11928 0.0098407 0.25538 
store 0.028849 -0.0059012 -0.12005 0.024857 -0.052895 0.023771 0.090704 -0.0058918 0.051423 -0.045803 -0.0086054 0.10974 0.043565 0.015928 0.0015577 -0.030151 0.026125 -0.12374 0.054413 0.067184 0.15793 0.077935 -0.042572 -0.03074 -0.0024337 -0.058241 0.10444 0.097495 -0.022026 -0.025979 -0.014242 0.0098948 -0.021944 0.12119 0.084501 -0.012565 -0.025407 -0.10657 0.073769 0.11645 0.026257 0.047153 -0.16761 0.10925 -0.02277 0.066427 0.00043865 0.08563 0.028547 0.070064 -0.10552 -0.11777 0.085342 -0.032248 -0.15435 -0.11276 0.065139 -0.018562 -0.044638 -0.11249 0.054336 0.0025192 0.016523 -0.053125 0.045878 0.12508 -0.10773 0.051329 0.011337 -0.027601 0.015792 -0.01067 0.0016358 0.072232 0.03258 0.20988 0.035234 -0.028789 -0.060906 -0.064706 0.07423 0.16354 0.11968 0.0013611 0.12397 -0.094807 0.014075 0.17276 -0.041754 -0.064923 0.027281 -0.036291 -0.1108 -0.10577 0.11002 0.034791 -0.056908 0.025076 0.03326 -0.014689 
politics -0.29215 0.17805 -0.0017629 -0.081656 -0.031889 0.043377 -0.12369 -0.10862 0.016181 0.011206 -0.0068473 -0.049108 0.084993 0.14565 -0.23345 -0.14336 -0.16476 0.044723 -0.041873 -0.077626 0.058393 -0.044607 0.015039 0.22287 -0.016687 -0.0091958 -0.030412 -0.18755 0.02833 0.24776 0.026224 -0.041756 -0.032923 0.036256 -0.056007 0.088106 0.11604 0.035486 0.052962 -0.011868 -0.042782 0.22865 0.17867 -0.0064682 -0.020818 -0.18315 0.045346 -0.26084 -0.19881 0.13569 -0.032908 0.089424 -0.25567 0.19723 0.19398 0.07997 -0.078015 0.039764 0.043024 0.17595 0.10395 -0.020483 0.14849 -0.0012435 0.22712 -0.1381 0.059961 0.12232 0.025904 -0.036824 -0.21131 -0.056445 -0.026996 0.066692 -0.079238 -0.27299 0.10724 -0.043326 -0.14933 -0.22652 -0.19721 -0.11414 -0.041336 -0.13817 -0.24044 0.023507 0.21698 -0.20387 -0.12319 0.11848 -0.25227 0.057336 0.16435 0.010951 -0.24487 -0.1345 0.10229 -0.047274 0.107 0.03262 
economy -0.30794 0.18131 -0.011221 -0.074707 -0.017463 0.036014 -0.13994 -0.11497 0.028552 0.0020808 -0.011827 -0.047435 0.090724 0.16991 -0.24712 -0.16021 -0.1613 0.029463 -0.046193 -0.096664 0.061746 -0.035647 0.0054938 0.22942 -0.03979 -0.014068 -0.034162 -0.19136 0.029424 0.25985 0.036801 -0.041335 -0.013659 0.035767 -0.054212 0.082223 0.1093 0.033482 0.04097 -0.0052205 -0.048931 0.23146 0.18867 -0.014902 -0.021178 -0.18846 0.043613 -0.27096 -0.21523 0.12767 -0.036585 0.083796 -0.27857 0.19091 0.19841 0.08386 -0.076944 0.042142 0.04564 0.17211 0.11502 -0.010411 0.15812 0.018204 0.24582 -0.13185 0.06223 0.12288 0.021427 -0.037252 -0.20552 -0.03927 -0.02049 0.076945 -0.068526 -0.28288 0.10622 -0.0455 -0.16153 -0.24681 -0.21062 -0.10837 -0.056425 -0.14895 -0.25601 0.021221 0.21202 -0.20671 -0.14699 0.11885 -0.26178 0.046054 0.16665 0.024383 -0.2556 -0.15053 0.12005 -0.049262 0.11033 0.040948 
control -0.035125 -0.13109 0.037396 -0.089794 0.088076 0.073469 -0.026388 -0.014056 -0.10087 0.1252 -0.026456 0.037791 0.019136 0.003719 0.10773 -0.10672 -0.062315 0.025009 0.04095 0.025169 -0.087645 -0.048602 -0.062878 0.086329 0.058418 0.038282 0.036077 -0.17171 0.0054088 0.039141 -0.047521 0.13842 -0.053097 0.0114 -0.11356 0.0085636 -0.061002 0.054685 -0.099725 -0.096513 0.015382 -0.0073914 0.042592 -0.055756 -0.0089186 -0.13229 -0.013287 -0.022132 0.097247 -0.019744 -0.070325 0.11327 -0.057736 -0.029517 0.032238 -0.019417 0.054848 -0.031619 -0.035408 -0.0042929 -0.078096 -0.014383 0.035511 -0.086489 -0.12431 0.075281 0.01612 -0.15811 0.02768 -0.024522 0.043835 0.039125 0.018449 0.041232 -0.082122 -0.028034 -0.013942 -0.048761 0.025897 -0.079938 -0.026587 -0.049663 -0.091574 0.051281 0.019815 -0.020215 -0.03542 -0.11483 0.11149 0.1223 0.060967 -0.036315 0.13818 0.022921 -0.030148 0.047683 -0.085068 -0.033832 -0.065542 -0.12681 
healthcare 0.065144 -0.038708 -0.049835 -0.055645 0.074236 0.069598 -0.0092175 -0.027457 0.0096747 -0.0056076 -0.020338 0.051438 0.01708 0.033379 0.0204 -0.046873 -0.024963 -0.077139 -0.027486 -0.0057968 -0.049976 -0.0039039 -0.042754 -0.0029974 -0.046849 0.055746 0.091232 -0.11828 0.019827 0.019004 -0.090166 0.097635 0.034223 0.0053267 -0.0081517 0.056676 -0.017831 -0.015027 -0.040106 -0.030836 0.0045882 -0.024083 -0.073815 -0.041747 -0.063648 -0.042039 -0.0225 0.0096495 0.052161 -0.014505 -0.070406 0.068864 0.010623 -0.024083 -0.017407 -0.013613 0.037873 -0.0073599 -0.030669 -0.014931 -0.087778 0.0073841 0.045137 -0.0030284 -0.089642 0.12088 -0.041131 -0.078679 0.09291 0.0018742 0.16249 -0.003694 0.043913 0.057821 -0.096683 -0.0059501 -0.083729 -0.011432 0.016964 -0.039983 -0.054076 0.032949 -0.02807 0.02104 0.11603 -0.040347 -0.092797 -0.020913 0.026175 0.046518 0.040522 -0.015671 0.022771 -0.023849 0.025267 0.010514 -0.074398 0.0022833 -0.063893 -0.061414 
technology -0.11154 0.08008 0.017416 -0.017826 0.0045219 0.012832 -0.066097 -0.019821 -0.012982 -0.059037 0.02066 -0.081255 0.016973 0.02924 -0.12908 -0.022739 -0.028537 -0.018561 -0.051283 -0.053784 -0.0019135 -0.017093 0.045199 0.04394 -0.060587 0.039921 -0.10325 -0.049974 0.0076502 0.086135 0.014599 -0.016418 -0.0059681 -0.0034067 -0.0044188 0.076234 0.0045396 0.017383 0.031588 0.023841 -0.056201 0.066365 0.10644 -0.05085 0.045836 -0.039503 0.010532 -0.074973 -0.12101 0.064201 0.038609 0.0088331 -0.099251 0.096764 0.097691 0.056365 -0.076222 -0.0044925 -0.0026774 0.095392 0.028936 -0.020415 0.042558 0.085274 0.098114 -0.079039 0.019575 0.075692 -0.022677 -0.013982 0.0064843 0.0070571 -0.023769 -0.024912 -0.011655 -0.1714 -0.028964 -0.046428 -0.045577 -0.044348 -0.08178 -0.063852 -0.062489 -0.04291 -0.072954 0.088253 0.035903 -0.066544 -0.085965 0.056959 -0.095628 0.005291 0.071833 0.027122 -0.0954 -0.082403 0.059148 -0.04256 0.010525 0.024272 
firm -0.020061 -0.15376 0.070312 -0.075357 0.07998 0.06286 -0.045882 -0.021873 -0.10608 0.099964 -0.020026 0.029486 -0.0011921 -0.0056401 0.095022 -0.10648 -0.085574 0.025466 0.048252 0.0027924 -0.09882 -0.02947 -0.053453 0.07143 0.049025 0.032603 0.040181 -0.17586 -0.016095 0.041289 -0.067656 0.11456 -0.055682 0.0070824 -0.13208 0.013045 -0.06641 0.049938 -0.089284 -0.096387 0.027074 0.00059664 0.064157 -0.061427 -0.0055578 -0.14894 -0.0017369 -0.020636 0.10033 -0.025264 -0.056971 0.10474 -0.062416 -0.025862 0.050448 -0.011516 0.055164 -0.044348 -0.0085731 -0.0069324 -0.061329 -0.0066576 0.036138 -0.069758 -0.13798 0.058794 0.021642 -0.15207 0.036958 -0.017851 0.05193 0.032474 0.012713 0.02603 -0.080291 -0.034046 -0.01591 -0.052577 0.054602 -0.071713 -0.028591 -0.069185 -0.096293 0.062741 0.0003148 -0.013614 -0.030867 -0.099099 0.12463 0.1012 0.058721 -0.048372 0.12541 0.014013 -0.024508 0.021941 -0.09494 -0.039717 -0.062651 -0.13792 
law -0.044208 -0.14682 0.069056 -0.077686 0.075012 0.062724 -0.043092 -0.018423 -0.10922 0.10873 -0.037475 0.033074 0.013614 0.0017935 0.079064 -0.11999 -0.077107 0.032448 0.0486 0.013519 -0.085661 -0.039127 -0.062559 0.078719 0.069265 0.019382 0.028676 -0.17138 -0.004944 0.046118 -0.054023 0.10479 -0.050887 0.023769 -0.11965 0.011451 -0.062676 0.04421 -0.085148 -0.10611 0.029888 0.0077007 0.062878 -0.04375 0.015152 -0.14946 0.0093735 -0.026872 0.10108 -0.023627 -0.051527 0.098488 -0.075872 -0.033845 0.045021 -0.0081135 0.065363 -0.032442 -0.006674 -0.013079 -0.05858 -0.0069968 0.040507 -0.078808 -0.10721 0.049513 0.018686 -0.14794 0.025608 -0.014367 0.019137 0.030157 0.0012039 0.031197 -0.066416 -0.01012 0.013911 -0.043074 0.037136 -0.074172 -0.010299 -0.063964 -0.075414 0.058491 -0.022886 -0.0049253 -0.0042498 -0.097949 0.10809 0.10356 0.066397 -0.056949 0.14219 -0.0040986 -0.023543 0.037178 -0.083353 -0.051587 -0.041934 -0.12984 
resume 0.10816 -0.07667 0.066045 0.047193 -0.058078 0.059931 -0.018295 -0.036136 0.02113 -0.15455 -0.039321 -0.076852 -0.042889 -0.077805 -0.048552 0.038504 -0.0011435 -0.16449 -0.027074 -0.013563 -0.01252 0.068199 0.019387 -0.19237 -0.1613 0.01271 0.037824 0.024896 -0.07975 -0.080738 -0.051388 -0.079147 0.0078032 0.084504 0.047001 0.074915 -0.030023 -0.082497 0.085593 0.022507 0.0078933 -0.026487 -0.04989 -0.018688 0.020794 0.052879 3.328e-05 0.094162 -0.026737 0.043691 0.013272 -0.1408 0.083573 -0.0068223 -0.020798 -0.018859 0.014429 -0.045717 0.080534 -0.040223 -0.025366 0.033354 -0.0017698 0.097104 -0.055287 0.0099525 -0.09703 0.052234 0.0064654 0.02498 0.20889 0.0082167 -0.0064834 -0.069322 0.042493 0.076067 -0.043278 -0.047758 0.13707 0.05311 0.090362 0.066386 0.0066272 0.031926 0.071055 0.086524 -0.054759 0.16163 -0.061043 -0.091995 0.031318 -0.1 -0.12839 -0.11091 0.14397 -0.065871 -0.1115 -0.041535 -0.025198 -0.056091 
restaurant -0.060321 -0.20841 0.12773 0.02038 -0.068742 0.08083 -0.03171 -0.080333 -0.060969 0.040931 -0.092743 0.013134 -0.0036944 -0.055098 0.033466 -0.12448 -0.1202 -0.011116 0.094792 0.0033953 -0.01831 0.043808 -0.034944 -0.023898 -0.027116 -0.099646 0.12747 -0.0691 -0.11948 -0.016825 -0.034321 -0.079637 -0.090253 0.15488 -0.086362 -0.011172 -0.01237 -0.041421 0.030258 -0.069998 0.10601 0.0841 0.015961 0.058102 0.0056781 -0.13345 0.05332 -0.015807 0.057951 0.061585 -0.082428 -0.072313 -0.0324 -0.017561 -0.014194 -0.071765 0.10904 -0.054416 0.12757 -0.07975 0.010534 0.049504 0.050575 -0.10482 -0.058663 -0.012443 -0.026153 -0.046596 -0.0022963 -0.017081 -0.036589 -0.027287 -0.030693 -0.00099499 0.055347 0.16342 0.1812 -0.069906 0.12534 -0.074506 0.097362 0.037146 0.028066 0.055663 -0.085639 -0.037308 0.12315 0.06067 0.04095 -0.055752 0.036149 -0.14914 -0.019169 -0.12856 0.10891 -0.030114 -0.16916 -0.075794 0.061528 -0.13286 
seasonal 0.11024 0.06339 0.088656 0.02879 0.051789 -0.048799 0.014975 0.10225 -0.057106 -0.21195 0.093789 -0.21273 -0.04205 -0.12774 -0.070782 0.16263 0.14856 -0.11614 -0.10211 -0.022971 -0.064662 -0.0087116 0.10913 -0.1957 -0.11029 0.18904 -0.28975 0.09413 0.0098316 -0.088221 0.0092695 0.00080253 0.039871 -0.085596 0.089353 0.10495 -0.15252 0.019207 0.025931 0.079277 -0.14876 -0.1468 0.083129 -0.13719 0.1638 0.18736 -0.063433 0.17846 -0.093626 -0.027918 0.17082 -0.10915 0.097637 0.0027807 0.051111 0.085959 -0.13697 -0.023662 -0.070653 0.079684 -0.050013 -0.041061 -0.1038 0.27087 -0.041106 -0.034238 -0.03954 0.061265 -0.094083 0.0076962 0.30532 0.11201 -0.030765 -0.19208 0.02983 -0.14011 -0.29193 -0.049627 0.070641 0.18323 0.053036 -0.058319 -0.12989 0.076739 0.1453 0.25673 -0.18735 0.11497 -0.06226 0.014491 0.060826 0.0012436 -0.023556 0.052412 0.014935 -0.053653 0.066441 -0.032307 -0.13256 -0.004576 
beauty 0.13221 0.069902 0.040745 0.055195 0.010192 -0.1149 0.01732 0.10894 0.015004 -0.03759 0.051047 -0.10621 -0.074635 -0.08191 0.041655 0.18511 0.13011 0.06929 -0.063885 -0.0068449 -0.079966 -0.036034 0.073836 -0.12053 -0.0054494 0.055961 -0.1341 0.1292 0.030898 -0.10356 0.051358 -0.035868 0.068051 -0.16691 0.059297 -0.056807 -0.011821 0.051369 -0.023792 -0.0071512 -0.049394 -0.16778 0.011925 -0.068971 0.032878 0.16228 -0.031419 0.067661 0.0010084 -0.11516 0.16245 0.0069298 0.094933 -0.048364 0.027627 0.079034 -0.088375 0.041212 -0.012903 0.041891 -0.049015 0.0050369 -0.12658 0.11299 -0.050491 -0.076071 0.068892 -0.0091862 -0.059064 0.051567 0.057714 0.033209 0.015375 -0.10755 0.040623 -0.047487 -0.11408 0.075123 0.070023 0.22823 0.019973 -0.064116 -0.026994 0.022061 0.024598 0.088016 -0.11921 -0.0052477 0.013817 -0.051946 0.043619 0.074649 -0.046161 0.10885 0.013498 0.025947 0.092759 0.031303 -0.059164 0.10352 
job 0.095885 -0.068437 0.067442 0.035616 -0.064277 0.043928 -0.010974 -0.038078 0.024837 -0.17103 -0.033796 -0.062576 -0.039306 -0.080025 -0.053186 0.033815 -0.0053216 -0.17205 -0.024711 -0.025791 -0.012183 0.066407 0.034167 -0.18004 -0.17196 0.010666 0.02193 0.025221 -0.07366 -0.074814 -0.047776 -0.081899 0.0047068 0.083068 0.048035 0.059318 -0.030929 -0.072492 0.069051 0.03609 0.013687 -0.039761 -0.037557 -0.011115 0.019669 0.043596 0.00082174 0.094804 -0.027982 0.032645 0.0009232 -0.13338 0.078028 -0.01805 -0.017504 -0.010316 0.020134 -0.034271 0.082362 -0.042086 -0.032902 0.025346 0.01055 0.098415 -0.066351 0.019389 -0.098264 0.040857 -0.0059473 0.029772 0.20199 -0.006216 0.0016043 -0.064534 0.049214 0.077414 -0.043916 -0.042205 0.13284 0.055107 0.091481 0.06171 0.015315 0.042015 0.06629 0.080162 -0.041682 0.15941 -0.067397 -0.086268 0.032391 -0.1056 -0.14102 -0.10251 0.15258 -0.066745 -0.12201 -0.028257 -0.021677 -0.06322 
photography -0.018702 -0.099832 0.15045 0.015599 0.01228 0.0081209 -0.024598 0.034319 -0.1103 -0.0017463 0.019647 -0.10187 -0.017685 -0.088306 0.020791 -0.010841 -0.00061491 0.011158 0.036567 0.0039832 -0.058375 -0.016283 0.042352 -0.056023 0.011481 0.042284 -0.1378 0.004163 -0.059725 -0.038619 0.010864 -0.014558 -0.053235 0.01429 -0.056918 0.020862 -0.092535 0.025234 -0.019994 -0.013849 -0.014724 -0.030911 0.10517 -0.040924 0.1311 -0.017576 0.014522 0.057939 0.00011983 0.00026034 0.058395 -0.049838 -0.019147 -0.018384 0.041406 0.012453 -0.0068794 -0.034716 0.012642 0.0088899 -0.01076 -0.013122 -0.042261 0.061737 -0.039597 -0.046739 0.01482 -0.035322 -0.081949 -0.014445 0.057583 0.063084 -0.056429 -0.10449 0.047972 -0.012934 -0.036173 -0.057292 0.082042 0.055325 0.064758 -0.0679 -0.066181 0.068742 -0.029997 0.1211 -0.0055447 0.025815 0.04053 0.016539 0.064341 -0.053988 0.046811 0.0065983 0.011153 -0.016037 -0.032041 -0.058775 -0.034017 -0.063941 
birthday 0.019051 -0.090404 0.10779 0.053528 -0.0065392 -0.062334 -0.001471 0.042047 -0.034802 0.13878 -0.024204 -0.010784 -0.049627 -0.055186 0.12889 0.044944 0.019087 0.21018 0.059113 0.010893 -0.094626 -0.039345 0.015403 -0.0034459 0.11851 -0.086492 0.0084065 0.047574 -0.02241 -0.075096 0.064198 -0.074223 -0.022786 -0.069361 -0.067727 -0.12368 0.042054 0.062357 -0.060379 -0.097177 0.083126 -0.067601 0.06225 0.017524 -0.010527 -0.032076 0.020871 -0.017827 0.081745 -0.104 0.077634 0.047221 0.017677 -0.053481 0.024352 0.012663 0.037326 0.019238 0.072454 -0.022418 0.0036673 0.019638 -0.079506 -0.098604 -0.061622 -0.11835 0.12394 -0.082907 -0.051514 0.021895 -0.17723 -0.015828 -0.014536 -0.042178 0.072141 0.079023 0.12617 0.072017 0.087716 0.10628 0.065014 -0.061507 0.0089456 0.034641 -0.13046 -0.05081 0.045151 -0.067927 0.11947 -0.050552 0.061161 0.016646 0.015109 0.074743 0.0099102 0.05874 0.027019 0.0073977 0.03162 0.048814 
custom 0.018829 -0.083652 0.09767 0.050515 -0.019947 -0.088004 -0.012108 0.053039 -0.025902 0.13209 -0.018163 -0.017307 -0.05994 -0.069181 0.12866 0.063326 0.027467 0.21369 0.042962 0.01446 -0.096887 -0.032889 0.031835 0.0032546 0.11796 -0.072207 -0.017306 0.065782 -0.016873 -0.06895 0.063306 -0.072663 -0.0028183 -0.090905 -0.075958 -0.14588 0.046839 0.066626 -0.058924 -0.10257 0.066005 -0.085557 0.0721 0.0081413 -0.0037459 -0.0026912 0.015283 -0.025524 0.08926 -0.10622 0.091278 0.04297 0.0073384 -0.054416 0.017173 0.023891 0.015427 0.033977 0.062179 -0.022916 0.0039654 0.017509 -0.089345 -0.09694 -0.063314 -0.12412 0.12943 -0.07786 -0.0581 0.02343 -0.18192 -0.0051638 -0.012319 -0.048913 0.068889 0.065157 0.10673 0.086084 0.082778 0.13806 0.046429 -0.063528 0.013768 0.029826 -0.13324 -0.028558 0.052479 -0.083464 0.11746 -0.061898 0.064782 0.045607 0.0021604 0.082366 0.0093539 0.061928 0.028382 0.0033181 0.026706 0.062466 
skincare 0.1388 0.057414 0.042703 0.053181 0.019723 -0.10353 0.024957 0.10696 0.0092293 -0.035256 0.062541 -0.094948 -0.075316 -0.079675 0.04799 0.1889 0.1368 0.070986 -0.079136 -0.019163 -0.081199 -0.035186 0.076979 -0.11353 0.0023987 0.049795 -0.13456 0.13868 0.028377 -0.1051 0.043087 -0.050907 0.067673 -0.16506 0.05612 -0.051696 0.0048946 0.050881 -0.031143 0.0046051 -0.045629 -0.16381 0.020667 -0.072464 0.032551 0.14463 -0.031691 0.082322 -0.0028486 -0.12195 0.16372 -0.0023387 0.098236 -0.046887 0.027487 0.062128 -0.084914 0.031034 -0.016151 0.032432 -0.033474 0.0036942 -0.12035 0.1041 -0.053365 -0.079588 0.057628 0.0012946 -0.05224 0.051722 0.057778 0.03561 0.0023065 -0.12258 0.056177 -0.062836 -0.13167 0.087719 0.062963 0.22819 0.028079 -0.061164 -0.02828 0.02306 0.018877 0.074493 -0.10814 0.0029498 0.014035 -0.056875 0.04383 0.088168 -0.058609 0.10409 0.021367 0.036929 0.09703 0.039613 -0.056664 0.1063 
fresh 0.0090671 -0.080495 0.10094 0.044515 -0.0183 -0.068613 -0.012692 0.053305 -0.037748 0.12208 -0.030489 -0.016235 -0.065923 -0.06274 0.11562 0.056311 0.030412 0.20202 0.04851 0.010707 -0.096124 -0.030822 0.029346 -0.011817 0.11202 -0.080263 -0.01351 0.066709 -0.022207 -0.071625 0.065136 -0.058433 -0.015337 -0.07728 -0.0713 -0.13037 0.050759 0.064138 -0.06293 -0.091851 0.061973 -0.085881 0.062654 0.009608 0.0049764 -0.0066843 0.023954 -0.010293 0.083744 -0.10244 0.079198 0.04799 0.010768 -0.050059 0.01916 0.0034451 0.026285 0.028889 0.080289 -0.029174 -0.0020265 0.014987 -0.080353 -0.10184 -0.061741 -0.11386 0.10561 -0.079095 -0.049778 0.025527 -0.17159 -0.016987 -0.024266 -0.051674 0.061747 0.069875 0.11345 0.06221 0.08061 0.11777 0.049525 -0.063276 0.019919 0.035383 -0.13624 -0.029969 0.050642 -0.057634 0.10964 -0.050298 0.063433 0.027961 4.2666e-05 0.071138 0.019706 0.067025 0.024848 0.019675 0.023591 0.044291 
attorney -0.046231 -0.21445 0.13402 0.025938 -0.069876 0.071907 -0.038143 -0.06707 -0.050505 0.050447 -0.10059 0.0029205 -0.010634 -0.066574 0.039546 -0.1001 -0.11323 -0.00052743 0.097118 0.0066892 -0.014882 0.055524 -0.035293 -0.043384 -0.0089459 -0.091783 0.11028 -0.050309 -0.10178 -0.024406 -0.012016 -0.070796 -0.089894 0.14577 -0.10257 -0.016326 -0.0079526 -0.029784 0.014073 -0.083708 0.098519 0.058928 0.029999 0.064091 0.030506 -0.12712 0.054165 -0.011298 0.057346 0.048495 -0.06691 -0.073911 -0.037604 -0.033205 -0.0085981 -0.067014 0.095354 -0.050001 0.12196 -0.089289 0.029048 0.046222 0.032238 -0.098657 -0.050395 -0.03615 -0.017919 -0.04551 -0.028209 -0.013482 -0.061749 -0.021532 -0.037929 -0.0022106 0.069629 0.15837 0.18556 -0.054816 0.11284 -0.066785 0.10144 0.019776 0.026034 0.057167 -0.10419 -0.029913 0.13381 0.057109 0.055781 -0.058909 0.024605 -0.14409 -0.015324 -0.10059 0.089067 -0.017331 -0.15878 -0.062693 0.053022 -0.11821 
medical -0.10289 0.0918 -0.054598 -0.11703 0.094353 0.046681 -0.06163 -0.040482 -0.027073 0.039811 0.025953 0.014452 0.06387 0.12487 -0.068281 -0.093822 -0.068313 0.010974 -0.056112 -0.039973 -0.035554 -0.057337 -0.040117 0.1677 0.010617 0.080071 -0.0088535 -0.20438 0.066468 0.15281 -0.045416 0.11711 0.012648 -0.026197 -0.044707 0.073123 0.012035 0.048566 -0.04746 -0.042678 -0.052955 0.065323 0.072954 -0.078719 -0.052021 -0.13248 -0.011634 -0.13042 -0.057033 0.026446 -0.053985 0.14839 -0.13186 0.082785 0.10651 0.052847 -0.043244 0.0072149 -0.060937 0.10486 -0.020663 -0.019956 0.088254 0.0048684 0.031728 0.026616 0.032872 -0.028844 0.079226 -0.016162 -0.0014561 -0.0052992 0.026989 0.083958 -0.14239 -0.22111 -0.061691 -0.014424 -0.10448 -0.13834 -0.17216 -0.073827 -0.096938 -0.058488 -0.026447 3.1365e-05 -0.002222 -0.17584 -0.018229 0.14777 -0.08427 0.044835 0.1786 0.045844 -0.16853 -0.02945 0.043043 -0.0026192 -0.024006 -0.034136 
me 0.058942 -0.13162 0.044793 0.026712 -0.088434 0.082568 -0.014568 -0.098631 0.069031 -0.094741 -0.085653 0.03774 -0.019688 -0.02165 -0.041894 -0.041078 -0.088274 -0.14072 0.027575 -0.022703 0.029326 0.097766 -0.027917 -0.11311 -0.13463 -0.082224 0.18539 -0.019588 -0.088336 -0.043745 -0.073787 -0.092564 -0.016822 0.15641 0.00043607 0.022198 0.047952 -0.09614 0.077088 -0.022226 0.092912 0.040948 -0.10125 0.055855 -0.057756 -0.050093 0.02844 0.010233 0.0070477 0.073155 -0.092277 -0.10337 0.047301 -0.0095304 -0.06438 -0.067167 0.096858 -0.039507 0.13256 -0.093976 0.0021702 0.074437 0.069653 -0.024821 -0.049456 0.049212 -0.075217 0.027671 0.052181 0.015658 0.073925 -0.054204 -0.00056503 0.027233 0.039257 0.16942 0.10972 -0.027328 0.11256 -0.044879 0.083181 0.10172 0.082757 0.013469 0.015591 -0.047841 0.055845 0.11908 -0.026367 -0.1117 -0.00077502 -0.13431 -0.13832 -0.15603 0.17196 -0.049803 -0.17301 -0.013657 0.057717 -0.074089 
in -0.15816 -0.26191 0.22168 0.013411 -0.037751 0.061073 -0.063593 -0.041251 -0.16938 0.16418 -0.085717 -0.0077146 0.003621 -0.06503 0.10218 -0.16555 -0.12849 0.12222 0.15703 0.035936 -0.060506 0.0021886 -0.03472 0.05111 0.12345 -0.092985 0.010927 -0.079835 -0.11649 0.007111 0.033853 -0.039244 -0.15638 0.11315 -0.18137 -0.055217 -0.055079 0.038745 -0.044705 -0.12819 0.097585 0.095176 0.14212 0.040855 0.093901 -0.21166 0.069491 -0.045889 0.091078 0.022732 -0.051723 -0.024247 -0.10264 -0.023284 0.050377 -0.046258 0.09534 -0.059475 0.10483 -0.064619 0.045468 0.00039695 0.025481 -0.1552 -0.061537 -0.076706 0.032199 -0.11631 -0.073342 -0.029503 -0.18312 0.020086 -0.085537 -0.026924 0.077543 0.11807 0.22945 -0.10338 0.089939 -0.095073 0.11545 -0.061958 -0.024546 0.082983 -0.18318 -0.004694 0.17193 -0.044006 0.1312 0.026121 0.061425 -0.14013 0.10521 -0.046548 0.0046071 0.0064465 -0.12789 -0.10362 0.050023 -0.16912 
near 0.061258 -0.12779 0.048405 0.038181 -0.086873 0.080518 -0.02176 -0.10534 0.061161 -0.080282 -0.088657 0.030837 -0.017804 -0.021512 -0.031101 -0.050071 -0.083898 -0.13346 0.037734 -0.025672 0.025062 0.094601 -0.0366 -0.12723 -0.14031 -0.077038 0.18487 -0.019419 -0.08967 -0.042622 -0.061685 -0.0965 -0.0027626 0.1598 -0.0033267 0.038502 0.044234 -0.09385 0.071114 -0.013401 0.086439 0.03632 -0.095863 0.061716 -0.058114 -0.03868 0.040252 -0.00060721 0.018988 0.069568 -0.092904 -0.10387 0.037865 -0.010576 -0.063532 -0.069086 0.094857 -0.044829 0.13204 -0.094187 5.0175e-06 0.063124 0.072842 -0.018663 -0.040579 0.049359 -0.08246 0.015672 0.053097 0.012386 0.081692 -0.062419 0.013064 0.029463 0.047207 0.17021 0.10214 -0.025002 0.1254 -0.042252 0.080117 0.10299 0.081934 6.7335e-05 0.0096447 -0.048337 0.055259 0.12834 -0.039302 -0.1039 -0.0012551 -0.12759 -0.14613 -0.1527 0.18098 -0.051002 -0.1631 -0.015893 0.05942 -0.062649 
