587 25
</s> -0.60586 -0.51481 0.13637 0.32371 0.19915 0.18992 0.74096 0.6221 -0.4093 0.38464 -0.59278 -0.27908 0.80929 0.44277 -0.13647 -0.98453 0.059237 -0.19306 -0.053505 0.59008 0.28614 0.68515 1.1711 0.359 -0.58946 
2024 -0.5388 0.45481 -0.32716 0.6076 1.2122 -0.70832 -0.71178 0.22894 -0.80872 0.26197 0.35632 0.033704 -2.3877 -0.70298 0.33782 0.90562 -0.14836 0.89221 -0.39331 1.0842 -1.1759 -0.90287 -2.3122 0.02082 2.2368 
best -0.15563 -0.11255 0.12056 0.44879 0.70719 -0.79525 -0.81346 -0.10907 -0.58041 -0.09974 0.4367 -0.069653 -2.2826 -0.8048 0.27654 1.0415 -0.16085 0.7617 -0.42537 0.74539 -0.84304 -0.79094 -2.0746 0.066878 1.5515 
us 0.056323 -0.28467 0.53693 -0.030208 -0.040907 0.045508 0.11331 0.020609 0.054178 -0.33065 0.18565 -0.090584 -0.17993 0.046306 0.46591 -0.30263 -0.21476 -0.33763 -0.26369 0.31356 0.42502 0.16669 0.33863 0.53478 -0.43252 
product 0.79207 -0.71615 0.71726 -0.11645 -0.97267 0.044546 0.51402 0.38714 -0.64825 0.56387 -0.25503 -0.2072 1.3422 0.16353 -0.48845 -0.3411 0.70652 -0.29437 0.19516 -0.91626 0.10308 0.13664 0.96067 0.043387 -0.63121 
insurance 0.4708 -1.344 0.62572 0.30008 -0.48371 0.05319 -0.16951 0.096484 -0.76618 -0.84338 0.32119 -0.67195 -0.88548 -0.2789 0.57379 -0.33824 -0.22037 -0.6031 -0.073269 1.2479 0.78296 -0.41701 0.023717 0.86187 -0.79032 
html -0.51341 -0.51902 0.60572 0.14227 0.41841 -0.49178 0.15706 -0.0010713 -0.053304 0.19786 -0.35093 -0.074696 -0.18574 -0.092301 -0.12681 0.0069005 0.051886 0.30263 -0.54402 -0.084676 -0.18436 0.64624 0.093981 0.046253 0.058622 
12345 -0.2249 -0.79524 0.92952 -0.033414 0.1127 -0.5561 0.18906 -0.19647 0.080201 0.15477 -0.31597 -0.090443 0.067831 -0.15213 -0.25773 0.13339 0.23447 0.26411 -0.53001 -0.56222 -0.021963 0.75261 0.34162 -0.031743 -0.34224 
p 0.12274 -1.1367 0.88664 0.021083 -0.29598 -0.71257 0.20447 -0.09418 -0.40998 0.45277 -0.56332 -0.22707 0.3952 -0.27971 -0.75774 0.33973 0.63235 0.38073 -0.3391 -0.87899 -0.24595 0.50945 0.25939 -0.29128 -0.25394 
cars -0.35181 0.21612 0.10293 -0.012922 0.53766 -0.15781 -0.11474 -0.143 0.27494 -0.16552 0.1388 0.079721 -0.64587 -0.06019 0.38196 0.065342 -0.26594 0.14351 -0.34735 0.28731 -0.064666 0.1515 -0.37248 0.23318 0.38567 
services -0.18818 0.3001 -0.2276 -0.2363 0.023375 0.042235 -0.069636 -0.38118 0.56593 -0.099858 -0.052021 0.23436 0.27706 0.10335 -0.28653 0.22719 -0.044129 0.19505 0.054124 -0.51156 0.0071238 0.28615 0.12598 -0.43819 -0.18235 
en 0.095232 -0.85644 0.68653 0.080519 -0.18676 -0.23449 0.0198 -0.17199 -0.17324 -0.27857 -0.077446 -0.26695 -0.18626 -0.14717 0.012459 -0.026841 0.022198 -0.045325 -0.30678 0.05539 0.28538 0.24354 0.23088 0.27768 -0.48318 
chicago -0.90537 0.51204 0.0094848 -0.041071 0.94046 0.060938 0.14656 -0.070006 0.71571 -0.11445 -0.071815 0.24644 -0.33422 0.2566 0.52592 -0.44354 -0.56426 -0.043798 -0.45503 0.49575 0.18145 0.72032 0.19614 0.3723 0.034963 
search -0.92625 0.54875 0.017814 -0.069167 0.96095 0.065172 0.19752 -0.074041 0.76576 -0.15536 -0.01634 0.23518 -0.33172 0.24529 0.55157 -0.4302 -0.56487 -0.030548 -0.5287 0.49824 0.13464 0.74032 0.19808 0.39828 0.096884 
01 -0.33246 0.10908 -0.024326 0.035133 0.34595 -0.10804 -0.029825 0.0078746 0.1072 0.0047997 -0.035691 0.055587 -0.29249 -0.054951 0.090296 0.02282 -0.13108 0.098839 -0.16305 0.19685 -0.067155 0.10384 -0.1896 0.068101 0.24475 
election 0.36562 0.38973 0.011832 -0.10482 -0.1942 0.098194 -0.087078 0.022164 0.11682 0.12192 0.30194 0.16603 0.048076 -0.026376 0.12252 0.12519 0.0079582 -0.080244 0.10665 -0.31033 -0.0943 -0.29001 -0.20148 -0.001119 0.28518 
politics -0.002838 0.09008 0.18021 0.04668 0.36508 -0.3732 -0.46588 -0.31553 0.057353 -0.14837 0.36811 0.064679 -1.1672 -0.41048 0.26623 0.65915 -0.10978 0.3405 -0.32213 0.099231 -0.31828 -0.34743 -1.0906 -0.044819 0.7617 
a -0.37211 0.17596 -0.25449 0.2847 0.47085 -0.093778 -0.044735 0.20841 -0.3201 0.21586 -0.14453 -0.087836 -0.33699 -0.045813 -0.031251 -0.0095908 -0.043568 0.27539 -0.019016 0.49328 -0.38126 -0.066304 -0.32994 -0.031037 0.5072 
pricing 0.36003 0.32715 -0.22198 -0.034684 -0.41498 0.51082 0.31132 0.46696 -0.29137 0.38046 0.01348 0.037603 0.89187 0.34851 0.038441 -0.49838 0.15257 -0.45001 0.39032 -0.078211 0.11549 -0.20958 0.55446 0.14953 -0.2032 
to 0.18551 -0.73937 0.14993 0.29495 -0.1997 -0.02255 -0.097584 0.15037 -0.5977 -0.34629 0.077911 -0.38894 -0.53459 -0.20335 0.23922 -0.11192 -0.076698 -0.18021 0.013209 0.81532 0.30642 -0.33508 -0.14551 0.37547 -0.30036 
blog -0.13137 -0.16543 -0.55521 0.5006 0.15952 -0.089591 -0.070488 0.52345 -1.0878 0.40407 -0.37479 -0.30624 -0.32475 -0.19907 -0.41113 0.091861 0.20993 0.28648 0.3121 0.73019 -0.56046 -0.48242 -0.49154 -0.22802 0.62258 
news 0.007664 0.075001 0.10309 0.044314 0.33567 -0.46047 -0.46462 -0.26889 -0.026719 -0.1182 0.36729 0.041269 -1.205 -0.47514 0.23519 0.65999 -0.10694 0.37765 -0.27612 0.13602 -0.42045 -0.37927 -1.1741 -0.065943 0.85979 
stocks -0.044489 0.014234 0.045614 0.045621 0.21299 -0.21889 -0.25194 -0.16202 0.046824 -0.091357 0.15659 0.040204 -0.57848 -0.23818 0.12421 0.37635 -0.10448 0.18605 -0.18658 0.048388 -0.20792 -0.13483 -0.53928 -0.073356 0.39899 
marketing 0.017926 0.038242 -0.57231 0.27922 -0.14987 0.22364 0.21239 0.5702 -0.72533 0.43406 -0.32783 -0.2355 0.39454 0.063193 -0.26936 -0.26381 0.23872 -0.037947 0.42475 0.41667 -0.24654 -0.36645 0.080664 -0.1509 0.1708 
article -0.068717 0.037954 -0.016445 0.12773 0.29908 -0.31029 -0.31543 -0.065321 -0.20223 0.017082 0.13403 0.024618 -0.89423 -0.36625 0.0062221 0.51449 -0.026331 0.36188 -0.14233 0.22688 -0.38159 -0.27934 -0.86469 -0.12825 0.71751 
health 0.34101 -0.93212 0.42744 0.21996 -0.25485 0.0059789 -0.17396 0.0074734 -0.49528 -0.56719 0.25624 -0.42705 -0.66103 -0.19622 0.4048 -0.206 -0.1544 -0.35873 -0.094426 0.88935 0.50851 -0.26087 -0.033364 0.60659 -0.57338 
story 0.0030679 0.064639 0.068657 0.033712 0.2404 -0.28039 -0.3093 -0.16393 0.05393 -0.11097 0.21467 0.076588 -0.76036 -0.30523 0.10064 0.44663 -0.11212 0.25579 -0.19002 0.087306 -0.26157 -0.19891 -0.70201 -0.046618 0.48728 
auto 0.18382 -0.48337 0.19951 0.082128 -0.17598 0.045382 -0.040718 0.038284 -0.29308 -0.28215 0.10397 -0.20534 -0.32562 -0.074126 0.21512 -0.10201 -0.11788 -0.22041 -0.037377 0.4203 0.25062 -0.17689 -0.017997 0.34717 -0.32732 
illinois -0.51617 0.245 -0.032056 -0.031787 0.51958 0.049163 0.11734 0.0097995 0.35341 -0.082392 -0.035808 0.068099 -0.092266 0.20666 0.29587 -0.30254 -0.30535 -0.03534 -0.22906 0.30721 0.1148 0.37043 0.16297 0.23582 -0.036664 
123456 0.15045 -0.7282 0.71514 -0.096066 -0.25282 -0.43922 0.11094 -0.14572 -0.09489 0.078075 -0.17515 -0.063666 0.15592 -0.15808 -0.35301 0.2891 0.35771 0.17792 -0.21675 -0.66173 -0.040561 0.3609 0.19238 -0.12046 -0.21665 
ai -0.095612 0.010619 -0.087887 0.19063 0.2063 -0.18178 -0.188 0.050248 -0.22994 0.015269 0.039784 -0.073817 -0.49318 -0.23652 -0.027909 0.22832 0.013788 0.21352 -0.075515 0.22875 -0.30854 -0.23235 -0.58662 -0.057496 0.50679 
in -0.19497 0.0033727 -0.080798 0.12476 0.22495 -0.041626 0.0099602 0.16779 -0.1228 0.085499 -0.059554 -0.047228 -0.16305 -0.0030002 -0.00054724 -0.030854 -0.056891 0.053815 -0.06248 0.26562 -0.13874 0.00078486 -0.1419 0.072834 0.1723 
iphone 0.088797 -0.47647 0.49153 -0.068276 -0.12897 -0.31316 0.10391 -0.078156 -0.091085 0.12191 -0.22107 -0.066225 0.22468 -0.036102 -0.26142 0.087231 0.24755 0.14087 -0.13103 -0.49133 -0.076881 0.28919 0.22902 -0.12457 -0.21108 
new -0.58555 0.34029 0.00046143 0.0064941 0.59587 0.056868 0.18327 -0.010092 0.44595 -0.11032 -0.029082 0.16856 -0.11043 0.19082 0.36594 -0.35187 -0.3791 -0.0042159 -0.27141 0.32567 0.098016 0.48371 0.22461 0.24197 0.020385 
hotel -0.60272 0.44006 -0.056171 -0.018413 0.62373 0.091132 0.097784 -0.092038 0.50624 -0.090008 -0.00088267 0.18237 -0.17102 0.21935 0.37164 -0.31029 -0.35397 -0.053841 -0.31623 0.30604 0.12245 0.39175 0.12283 0.27922 0.10432 
personal 0.3167 -0.77131 0.38178 0.17853 -0.22827 0.0052993 -0.16188 -0.047723 -0.36524 -0.50241 0.25026 -0.32479 -0.54912 -0.19252 0.33893 -0.093082 -0.18941 -0.28076 -0.028215 0.62694 0.4429 -0.27266 -0.004996 0.47144 -0.47801 
retirement 0.32293 -0.96322 0.45711 0.21621 -0.32241 0.0039459 -0.20608 -0.075633 -0.4324 -0.73373 0.26394 -0.45672 -0.75133 -0.31291 0.38694 -0.078721 -0.24145 -0.39985 -0.07107 0.81624 0.53329 -0.35862 -0.11826 0.51434 -0.57667 
software -0.038377 0.31367 -0.09211 -0.0019287 0.074209 0.14675 0.032086 0.10944 0.079445 0.030275 0.096387 0.071129 0.079957 0.11824 0.20615 -0.16046 -0.077128 -0.12821 0.019153 0.088488 0.039558 -0.00025622 0.038352 0.13995 0.092967 
rooms -0.16309 0.45391 -0.14567 -0.16143 0.32459 -0.23242 -0.25155 -0.28888 0.48405 0.09233 0.081442 0.29552 -0.30501 -0.13301 -0.135 0.52147 -0.018089 0.45155 -0.1404 -0.47108 -0.38357 -0.009776 -0.57041 -0.38155 0.56686 
review -0.22525 0.073386 -0.12058 0.14217 0.25452 0.042948 0.0090696 0.14216 -0.11358 0.0079217 -0.062612 -0.062291 -0.14357 0.017179 0.078674 -0.10645 -0.068686 0.076704 -0.067122 0.29891 -0.072774 -4.9616e-05 -0.061761 0.057558 0.10886 
find -0.43328 0.22948 -0.010677 0.029527 0.49692 0.033171 0.10301 -0.014064 0.31765 -0.060775 -0.017957 0.096416 -0.1132 0.14056 0.2273 -0.25801 -0.25873 -0.040822 -0.19722 0.2811 0.094112 0.35284 0.18322 0.15338 -0.015593 
destination -0.58618 0.27725 -0.0017218 -0.0027403 0.56277 0.065167 0.094537 -0.0058808 0.34658 -0.037913 -0.096601 0.09796 -0.17 0.14888 0.23991 -0.30296 -0.30772 -0.034696 -0.29135 0.35695 0.12944 0.40925 0.17811 0.20493 0.014841 
car -0.37595 0.023299 0.10167 0.033943 0.33845 0.016522 0.10612 0.058932 0.1987 -0.10021 -0.0052744 0.02531 -0.13387 0.13024 0.22423 -0.22766 -0.20706 -0.069455 -0.21395 0.37308 0.19095 0.308 0.19626 0.2278 -0.11581 
world -0.017876 0.066144 0.11315 0.027179 0.18139 -0.25889 -0.26482 -0.20313 0.053394 -0.059237 0.18435 0.051013 -0.65118 -0.27264 0.10319 0.39158 -0.056937 0.25621 -0.20421 -0.042146 -0.25413 -0.15856 -0.64538 -0.071806 0.46545 
15 0.086142 -0.30084 0.35088 0.0026194 -0.057655 -0.27885 -0.0066833 -0.1455 -0.054526 0.016815 -0.069001 -0.018125 -0.08292 -0.16845 -0.12289 0.25468 0.14025 0.14181 -0.1861 -0.32742 -0.093811 0.1536 -0.1086 -0.064391 -0.0070916 
accounts 0.24505 -0.72547 0.34299 0.13637 -0.19857 0.035131 -0.076799 0.0040023 -0.40513 -0.46091 0.17307 -0.34502 -0.53406 -0.1641 0.30359 -0.11336 -0.13421 -0.25016 -0.022819 0.68214 0.41628 -0.23007 0.00092949 0.41304 -0.40002 
04 -0.042193 0.059669 0.10762 -0.015614 0.24312 -0.22903 -0.27115 -0.18903 0.07985 -0.13155 0.22997 0.073091 -0.62677 -0.20778 0.15045 0.37761 -0.08569 0.24123 -0.20579 0.019631 -0.23409 -0.17314 -0.58642 -0.01532 0.41958 
content 0.052702 -0.39461 -0.13877 0.28463 -0.13786 0.062486 0.01719 0.2078 -0.52583 -0.031286 -0.1071 -0.24592 -0.14652 -0.074801 -0.10287 -0.12228 0.075965 -0.055377 0.18286 0.57101 0.028056 -0.27204 -0.047633 0.045394 -0.10635 
tax -0.050097 0.15181 -0.2174 -0.20051 0.038204 -0.015308 -0.20073 -0.36547 0.48266 -0.2162 0.0020393 0.16228 0.07369 0.0040437 -0.13677 0.26832 -0.06345 0.1233 0.066563 -0.34076 0.051813 0.092487 -0.042348 -0.31262 -0.12828 
plans 0.18064 0.064244 -0.048987 0.027377 -0.26368 0.24324 0.1257 0.19828 -0.12208 0.0067767 0.053161 -0.0020371 0.292 0.10936 0.046581 -0.21849 0.014654 -0.19986 0.15997 0.09028 0.11828 -0.13178 0.29848 0.12325 -0.17885 
ideas 0.1476 -0.3565 0.19048 0.073279 -0.03295 -0.13098 -0.23528 -0.091199 -0.2136 -0.29044 0.20872 -0.11948 -0.57401 -0.21089 0.17293 0.16566 -0.13445 -0.032036 -0.08353 0.31918 0.10467 -0.20243 -0.31078 0.18374 0.014025 
miami -0.40104 0.18609 0.037555 0.008263 0.40194 0.016775 0.081267 -1.2557e-05 0.22839 -0.022524 -0.035644 0.073382 -0.12945 0.076337 0.18491 -0.16635 -0.23784 0.0025587 -0.21952 0.19717 0.023838 0.29434 0.050159 0.14149 -0.0080404 
lawyer -0.33301 0.16718 0.017357 0.030257 0.32113 0.074177 0.11141 -0.01181 0.26997 -0.030493 -0.02507 0.086642 -0.101 0.14418 0.18578 -0.19813 -0.18245 -0.000674 -0.20223 0.20849 0.071486 0.2511 0.12176 0.17274 0.0052471 
design -0.055906 -0.019355 -0.11198 0.22256 0.15055 -0.10841 -0.10794 0.12374 -0.38011 0.1318 -0.010112 -0.12587 -0.42233 -0.13989 -0.071405 0.18595 0.053653 0.18171 0.027142 0.31999 -0.28049 -0.26619 -0.40954 -0.028353 0.37282 
docs 0.34523 0.25292 -0.2337 -0.025439 -0.41642 0.36167 0.15065 0.29673 -0.20487 0.18634 0.037736 -0.0026945 0.60769 0.26778 0.041243 -0.34896 0.077619 -0.33092 0.35218 -0.056072 0.096033 -0.21412 0.37271 0.081294 -0.1602 
reviews -0.45774 0.23503 -0.0057329 -0.029002 0.43357 0.035368 0.10833 -0.049859 0.33492 -0.065432 -0.004682 0.11855 -0.16835 0.10816 0.25723 -0.24349 -0.2284 0.011307 -0.25679 0.23074 0.082193 0.32365 0.10608 0.22595 0.0015376 
k -0.2316 -0.15063 0.24472 0.021747 0.21882 -0.14862 0.13022 -0.046543 0.13641 0.046473 -0.13926 0.043549 -0.0099624 0.027965 -0.0064834 -0.11722 -0.037474 0.077446 -0.23735 -0.0040709 0.011562 0.37244 0.19767 0.062589 -0.10197 
crm 0.39135 0.27085 -0.25602 -0.017964 -0.38045 0.3595 0.2097 0.26605 -0.20452 0.22432 0.059779 0.025658 0.65817 0.20311 0.0001674 -0.34305 0.13818 -0.35438 0.35697 -0.07488 0.11545 -0.23525 0.32109 0.090927 -0.10364 
how 0.14753 -0.44362 0.22522 0.088479 -0.18787 -0.0034587 -0.077234 -0.021511 -0.21544 -0.30978 0.10964 -0.21181 -0.38312 -0.074871 0.25419 -0.12046 -0.10593 -0.20734 -0.049311 0.43769 0.26461 -0.1598 0.024895 0.27697 -0.34855 
app 0.31795 0.23999 -0.15067 -0.049476 -0.30627 0.3886 0.19212 0.28624 -0.12439 0.1835 -0.0025756 0.033752 0.64788 0.24455 -0.0090909 -0.34789 0.11115 -0.34289 0.32438 -0.072756 0.1065 -0.16187 0.44233 0.10691 -0.19126 
york -0.37576 0.22687 0.0046087 -0.047108 0.40414 0.055628 0.065532 -0.047897 0.28065 -0.030153 -0.0039195 0.050436 -0.093114 0.12899 0.24324 -0.16918 -0.24008 -0.020704 -0.23106 0.18117 0.11756 0.27281 0.088695 0.20677 -0.0046144 
customer 0.35428 0.23508 -0.18143 -0.084428 -0.41617 0.42166 0.25991 0.34847 -0.18768 0.18326 0.016341 -0.010952 0.68906 0.27455 0.065538 -0.38644 0.13583 -0.32135 0.38532 -0.088396 0.11193 -0.19591 0.48253 0.092615 -0.14331 
google -0.26081 0.09363 -0.1495 0.12374 0.26825 0.0091933 0.018111 0.10896 -0.11093 0.057639 -0.096922 -0.067586 -0.17492 0.019517 0.031965 -0.10185 -0.017708 0.08817 -0.052936 0.34384 -0.083638 0.047605 -0.13429 -0.0010418 0.21437 
guide -0.16939 -0.058813 -0.35467 0.30859 0.15962 -0.075145 0.043745 0.34438 -0.57057 0.27447 -0.25471 -0.13232 -0.20808 -0.086649 -0.25924 -0.0094511 0.16202 0.2398 0.11142 0.39735 -0.32995 -0.25128 -0.30747 -0.094979 0.42972 
database 0.25143 0.25791 -0.22222 -0.030713 -0.27868 0.3854 0.19572 0.26689 -0.094815 0.21792 0.032965 0.05145 0.59477 0.27451 0.043758 -0.39303 0.089923 -0.28426 0.2699 -0.042154 0.11551 -0.10971 0.45055 0.11163 -0.148 
management 0.2074 -0.56062 0.26609 0.10382 -0.16534 0.034136 -0.12686 -0.039514 -0.27072 -0.45989 0.14245 -0.2647 -0.4561 -0.12406 0.24462 -0.077182 -0.1056 -0.19959 -0.018225 0.51487 0.37415 -0.19849 -0.022875 0.3478 -0.35007 
angeles -0.35844 0.25443 -0.0057146 -0.04653 0.38733 0.02541 0.12474 -0.028844 0.29803 -0.023142 -0.016495 0.067374 -0.037096 0.12868 0.20336 -0.17007 -0.17727 0.0042274 -0.16498 0.15017 0.031421 0.3119 0.14214 0.15854 0.058289 
direct -0.078821 -0.21319 0.14084 0.093216 0.10777 -0.007472 -0.018574 -0.021254 0.031288 -0.24589 0.094893 -0.14618 -0.33195 0.00053434 0.25569 -0.10131 -0.15384 -0.092061 -0.083712 0.39502 0.18376 0.037641 0.061509 0.2866 -0.20601 
research -0.2788 0.098423 -0.12566 0.076438 0.24971 0.026828 0.10366 0.14768 0.047381 0.033883 -0.15728 0.015506 0.049093 0.11496 0.0038435 -0.1854 -0.064253 -0.0042764 -0.046439 0.2084 0.013173 0.18262 0.11207 0.046532 -0.0028828 
life 0.13382 -0.26434 0.10177 0.053242 -0.076899 -0.0070858 -0.057562 0.010579 -0.15735 -0.18079 0.060461 -0.10429 -0.18929 -0.057067 0.097523 -0.018531 -0.052413 -0.13135 -0.0039796 0.25907 0.13438 -0.076592 -0.022944 0.15111 -0.1835 
los -0.4135 0.25573 -0.031643 -0.036649 0.42146 0.0025139 0.10453 -0.010341 0.29598 -0.031784 -0.068683 0.080632 -0.042128 0.15653 0.18075 -0.15728 -0.19041 0.034968 -0.19467 0.19509 0.020856 0.3195 0.11129 0.13676 0.036907 
values -0.43199 0.19611 0.028501 0.024099 0.41295 0.075347 0.10999 -0.00090198 0.23321 0.0091336 -0.069706 0.09021 -0.039865 0.16547 0.13518 -0.19154 -0.22086 0.02368 -0.17042 0.17988 0.045341 0.31628 0.15865 0.12493 0.015145 
toyota -0.42889 0.30537 0.03441 -0.13046 0.40075 0.09864 0.21506 0.0072438 0.48936 -0.040111 -0.093687 0.13208 0.20137 0.29558 0.28854 -0.37297 -0.29536 -0.15199 -0.20837 0.10267 0.23234 0.52482 0.44136 0.24116 -0.2306 
financial 0.22438 -0.58358 0.24083 0.13438 -0.24154 -0.0099883 -0.17785 -0.015836 -0.3069 -0.4671 0.17032 -0.28047 -0.53903 -0.20608 0.29135 -0.031044 -0.14847 -0.23733 -0.05778 0.55934 0.32233 -0.26922 -0.036613 0.35596 -0.38156 
planning 0.12175 -0.44712 0.19003 0.13071 -0.17994 0.0060122 -0.1058 0.028897 -0.19737 -0.29987 0.15848 -0.23146 -0.32499 -0.077567 0.20365 -0.067214 -0.085937 -0.20665 -0.068194 0.45351 0.27042 -0.15505 0.0074898 0.28962 -0.30127 
features 0.38841 0.25619 -0.20289 -0.025697 -0.39656 0.3697 0.11418 0.30701 -0.19995 0.21135 0.13758 0.020854 0.56237 0.21534 0.054541 -0.2672 0.13557 -0.27888 0.30937 -0.069191 0.08219 -0.32775 0.27692 0.058258 -0.040605 
wealth 0.21181 -0.60364 0.3 0.14088 -0.15208 0.029273 -0.11581 -0.046501 -0.24142 -0.40446 0.13903 -0.29928 -0.42995 -0.14678 0.25475 -0.043292 -0.1599 -0.24713 -0.081017 0.45825 0.36233 -0.1822 -0.011571 0.33756 -0.36774 
htm -0.39743 0.19033 0.042563 -0.0079873 0.39564 0.023281 0.064165 -0.011752 0.32191 -0.067441 -0.0187 0.059505 -0.092935 0.086926 0.17231 -0.17168 -0.20196 -0.032992 -0.16665 0.20043 0.093816 0.28322 0.041786 0.1457 -0.0026212 
plumbing -0.46459 0.27687 0.001608 -0.012477 0.45154 0.017443 0.088601 -0.057855 0.36499 -0.089677 -0.058704 0.1187 -0.20901 0.1072 0.24306 -0.17595 -0.23543 0.058517 -0.22103 0.24851 0.0067544 0.31163 0.028481 0.12014 0.051267 
il -0.34872 0.20657 0.031804 0.01492 0.34637 0.045525 0.072483 -0.021229 0.25561 -0.08262 0.001428 0.047239 -0.11871 0.11165 0.14646 -0.13355 -0.2035 0.025074 -0.2102 0.16299 0.051538 0.23164 0.1026 0.144 0.051883 
individual -0.043105 0.18421 -0.12706 -0.12217 -0.032798 0.029468 -0.023495 -0.19895 0.41058 -0.058075 -0.041506 0.14346 0.21797 0.070537 -0.12172 0.1576 0.0039404 0.067899 0.069997 -0.3539 -0.046548 0.11852 0.086503 -0.24284 -0.063746 
savings 0.11006 -0.41732 0.1952 0.085632 -0.15083 0.0096237 -0.069819 -0.0037955 -0.20614 -0.29264 0.073547 -0.16334 -0.26867 -0.060267 0.20556 -0.11413 -0.076744 -0.16031 0.0052203 0.40495 0.26191 -0.14783 0.011484 0.27294 -0.21622 
bank 0.17969 -0.51808 0.19372 0.11557 -0.17275 -0.0015271 -0.054225 -0.019079 -0.25731 -0.31261 0.092411 -0.22743 -0.39538 -0.094866 0.18175 -0.09207 -0.098343 -0.18405 -0.051746 0.42717 0.25409 -0.12299 0.016839 0.34643 -0.32945 
techniques -0.048778 -0.087736 -0.35984 0.27311 -0.039255 0.069893 0.11696 0.34357 -0.61985 0.25613 -0.26968 -0.20539 0.12501 -0.016094 -0.28764 -0.09022 0.19148 0.10422 0.23421 0.36693 -0.23063 -0.21901 -0.082757 -0.13523 0.15107 
for -0.17135 0.16805 0.03937 -0.042718 0.2765 -0.055805 -0.097523 -0.065352 0.14378 -0.07406 0.065634 0.10833 -0.29643 0.00015524 0.14121 0.069535 -0.11511 0.075153 -0.12855 0.064533 -0.011812 0.048199 -0.13916 0.073163 0.17434 
air 0.07563 -0.43255 0.43897 -0.082225 -0.15056 -0.24268 0.093346 -0.1143 -0.023646 0.078517 -0.16896 -0.076379 0.12025 -0.14908 -0.21638 0.18254 0.24801 0.10401 -0.16711 -0.42845 -0.065486 0.25744 0.13448 -0.087862 -0.20694 
finance -0.030913 0.06378 0.069811 -0.014732 0.11892 -0.17407 -0.18669 -0.14836 0.045902 -0.063514 0.10307 0.041588 -0.39715 -0.14752 0.033504 0.21363 -0.02491 0.15074 -0.0912 0.0153 -0.17233 -0.10338 -0.39023 -0.031556 0.26299 
restaurants -0.0033508 -0.0030827 0.080432 0.036937 0.19346 -0.20298 -0.24957 -0.11474 -0.017806 -0.052658 0.19587 0.041662 -0.55936 -0.2187 0.064665 0.34707 -0.074903 0.16391 -0.16546 0.079328 -0.22329 -0.14603 -0.51526 0.011459 0.35019 
laptops -0.0169 0.009679 0.089797 0.062935 0.069513 -0.09353 -0.13599 -0.047212 0.0022046 -0.033857 0.099029 -0.01036 -0.35949 -0.11987 0.041094 0.20546 -0.010625 0.12841 -0.11549 0.097372 -0.10173 -0.06655 -0.34772 0.0098518 0.21734 
listing -0.2509 0.060552 0.21728 -0.072641 0.28507 -0.099966 0.01142 -0.079975 0.26336 -0.052455 0.024671 0.10177 -0.15739 -0.032011 0.15935 -0.040619 -0.14054 0.016781 -0.24712 0.038175 0.015194 0.31251 -0.037894 0.065642 0.0066026 
03 0.015512 0.088189 0.071675 0.0399 0.1463 -0.21951 -0.22756 -0.10865 0.089727 -0.06194 0.13498 0.052785 -0.49681 -0.15611 0.092089 0.26669 -0.012069 0.17835 -0.099972 0.0012155 -0.14501 -0.13713 -0.49142 -0.081951 0.33523 
s 0.05004 -0.48401 0.4259 -0.048145 -0.16298 -0.27671 0.12847 -0.09116 -0.072996 0.078849 -0.18541 -0.036069 0.19757 -0.079331 -0.29338 0.081155 0.19632 0.10434 -0.19827 -0.41889 -0.0088164 0.29569 0.21926 -0.054737 -0.26227 
samsung 0.036638 -0.19486 0.26281 0.0060766 -0.025442 -0.20281 -0.099369 -0.15496 0.0088117 -0.025554 0.0046316 -0.028771 -0.15179 -0.1123 -0.11502 0.27044 0.1184 0.10817 -0.17767 -0.2278 -0.10436 0.062417 -0.19383 -0.066524 0.0341 
future -0.097746 -0.058051 -0.14487 0.17938 0.11435 -0.069937 -0.12746 0.15364 -0.27834 0.11536 -0.079093 -0.045077 -0.28067 -0.14202 -0.044995 0.084319 -0.00013551 0.14599 0.047319 0.28563 -0.18784 -0.17889 -0.33012 -0.023516 0.29058 
walmart.com 0.12345 -0.47918 0.46723 -0.058145 -0.19757 -0.30557 0.073777 -0.081736 -0.093253 0.12976 -0.13612 -0.039688 0.16164 -0.11824 -0.2755 0.11959 0.20337 0.10448 -0.19973 -0.48796 -0.011623 0.28895 0.17 -0.07512 -0.2108 
hotels -0.21038 0.11983 0.0066638 -0.0077153 0.30971 -0.090808 -0.088094 -0.090283 0.18415 -0.015984 0.098348 0.073566 -0.28947 -0.060813 0.17526 0.048745 -0.14696 0.13247 -0.18374 0.11626 -0.041429 0.12275 -0.17306 0.086971 0.22592 
cards 0.11202 -0.25966 0.12613 0.06634 -0.0179 -0.050122 -0.14469 -0.087923 -0.08831 -0.2042 0.10331 -0.1048 -0.38827 -0.12388 0.16421 0.092069 -0.10347 -0.037335 -0.056505 0.25264 0.14097 -0.12223 -0.15444 0.14726 -0.048668 
custom -0.23637 0.64977 -0.36055 -0.27749 0.17553 0.046633 0.066932 -0.18105 0.61662 0.22028 -0.15293 0.32938 0.56746 0.17743 -0.30977 0.11504 0.045684 0.23082 0.053907 -0.70533 -0.24173 0.30904 0.16409 -0.49718 0.0869 
credit 0.12135 -0.28791 0.18775 0.02409 -0.020248 -0.024691 -0.087058 -0.081595 -0.062345 -0.24741 0.1489 -0.12663 -0.39456 -0.09636 0.13872 0.069875 -0.062057 -0.069176 -0.036934 0.28645 0.1012 -0.10459 -0.16858 0.17917 -0.10778 
amazon.com 0.065973 -0.56567 0.56252 -0.062796 -0.16228 -0.36943 0.047586 -0.18716 -0.085448 0.090165 -0.14365 -0.053825 0.1668 -0.16569 -0.28268 0.26224 0.26305 0.16272 -0.21751 -0.52696 -0.10269 0.27169 0.089051 -0.13602 -0.16718 
residential -0.22963 0.55814 -0.3051 -0.20562 0.12561 -0.022508 0.025239 -0.21289 0.61054 0.2012 -0.19386 0.3489 0.48988 0.13152 -0.35975 0.18771 0.086488 0.22549 0.021399 -0.65064 -0.2126 0.335 0.14545 -0.49218 0.11775 
apple 0.067923 -0.34049 0.30863 -0.061417 -0.11555 -0.17918 0.040578 -0.11087 -0.076768 0.030571 -0.13112 -0.083315 0.077737 -0.065735 -0.17599 0.078867 0.182 0.099185 -0.134 -0.36594 0.0009128 0.17418 0.081147 -0.082387 -0.16764 
shop 0.023508 -0.36206 0.36133 0.013727 -0.082126 -0.17279 0.030937 -0.067979 -0.061632 0.074408 -0.089773 -0.095202 0.090271 -0.070446 -0.21704 0.061806 0.1872 0.10766 -0.11719 -0.30307 -0.064559 0.2038 0.10125 -0.026356 -0.11302 
view -0.28447 0.07342 0.14373 -0.026152 0.30734 -0.073249 0.025564 -0.058204 0.22669 -0.070286 -0.003499 0.043015 -0.14229 0.01775 0.12162 -0.13685 -0.18568 -0.01465 -0.20633 0.10066 0.0062799 0.2549 0.056991 0.10034 0.0040312 
camry -0.26616 0.16657 0.054863 -0.046881 0.22378 0.12829 0.17347 -0.040089 0.33577 -0.019883 -0.043077 0.097536 0.19951 0.18121 0.15693 -0.31882 -0.18321 -0.080091 -0.11362 0.017517 0.16505 0.34209 0.33909 0.17944 -0.23467 
calvin 0.0048096 -0.21232 0.13577 -0.014299 -0.078966 -0.14862 0.025618 -0.011002 -0.010662 0.0042653 -0.050365 -0.030445 0.022046 -0.051675 -0.06228 0.05408 0.10536 0.032743 -0.044453 -0.18225 -0.021006 0.093066 0.059011 0.012907 -0.0258 
klein -0.0097643 -0.17667 0.17924 0.016339 -0.025039 -0.14347 0.024172 -0.072601 -0.010131 0.023775 -0.029412 -0.051139 0.063262 -0.054604 -0.057459 0.050283 0.073155 0.082863 -0.091587 -0.13785 -0.052637 0.050774 0.071147 -0.029234 -0.05674 
autotrader.com -0.17209 0.13658 -0.021254 0.022882 0.19694 0.012585 0.060689 0.02275 0.16627 -0.012492 -0.013782 0.080459 -0.0029466 0.045075 0.10006 -0.091961 -0.14732 0.015843 -0.065122 0.083267 0.013244 0.1646 0.083627 0.068072 0.013578 
dress 0.0049978 -0.22296 0.16622 -0.0046806 -0.015077 -0.07968 0.053302 -0.036985 -0.028597 0.063985 -0.067188 -0.010903 -0.0023608 -0.058346 -0.1247 0.027732 0.080485 0.013282 -0.065817 -0.1639 -0.02683 0.10346 0.054156 -0.028067 -0.044218 
id 0.050156 -0.20142 0.18145 -0.018457 -0.014724 -0.1168 0.054913 -0.076599 -0.056846 0.059467 -0.071342 -0.060114 0.0045903 -0.022783 -0.11782 0.027361 0.075396 0.038858 -0.039196 -0.14059 -0.024245 0.064791 0.013353 0.002027 -0.042137 
ca -0.14241 0.062058 0.026399 0.010569 0.15866 -0.031565 -0.013992 -0.022449 0.119 -0.010075 0.045307 0.07728 -0.11075 -0.00069382 0.1146 -0.059226 -0.12617 -0.031799 -0.14359 0.14367 0.072578 0.10376 -0.019937 0.074189 0.00482 
cars.com -0.23144 0.20377 0.020995 -0.11969 0.23664 0.14679 0.21234 0.016322 0.37091 -0.013481 -0.057054 0.060184 0.20251 0.23284 0.12071 -0.3092 -0.16847 -0.10728 -0.085895 0.055152 0.18368 0.31916 0.37665 0.15641 -0.23226 
homedepot.com 0.018098 -0.18517 0.24998 0.0015633 -0.075183 -0.16015 0.032127 -0.024413 -0.046726 0.053242 -0.083089 -0.020032 0.072279 -0.069675 -0.098712 0.086289 0.13219 0.057225 -0.087002 -0.20273 -0.012538 0.14553 0.052078 -0.049109 -0.0799 
booking.com -0.24442 0.19927 -0.015826 -0.021905 0.25027 0.034028 0.052271 0.024521 0.21722 -0.0088714 -0.031737 0.064426 -0.061889 0.083487 0.094217 -0.083835 -0.11188 -0.018695 -0.11236 0.087459 0.034206 0.19567 0.055218 0.10009 0.038298 
milwaukee 0.059314 -0.2538 0.25395 0.0065985 -0.079943 -0.10828 0.017811 -0.084014 -0.018463 0.04875 -0.057731 -0.023337 0.028915 -0.014931 -0.087192 0.039695 0.08145 0.083854 -0.10785 -0.23072 -0.0019622 0.16859 0.035947 -0.022969 -0.10139 
drill 0.024077 -0.18795 0.24748 -0.044716 -0.039056 -0.16517 0.01528 -0.052678 -0.012741 0.059398 -0.078559 -0.02124 0.068636 -0.088161 -0.081107 0.068595 0.10238 0.09719 -0.069216 -0.23834 0.0074268 0.092086 0.031702 -0.015006 -0.1201 
12345678 0.020686 -0.18895 0.18998 -0.048975 -0.075551 -0.10939 0.047831 -0.046415 -0.029118 0.057006 -0.059586 -0.0036892 0.035231 -0.040056 -0.09091 0.04594 0.086701 0.060277 -0.071251 -0.20814 -0.051877 0.13793 0.087512 -0.019518 -0.082101 
costco.com 0.018614 -0.15332 0.17739 -0.011349 -0.026357 -0.13286 0.073556 -0.032455 -0.056805 0.066593 -0.050142 -0.044034 0.052756 -0.024156 -0.10159 0.06591 0.10077 0.050137 -0.032998 -0.14338 -0.02824 0.078453 0.081057 -0.039194 -0.09065 
kirkland 0.046041 -0.17214 0.15774 -0.019054 -0.085946 -0.1049 -0.0007741 -0.024964 -0.049382 0.060341 -0.046181 -0.05986 0.069766 -0.043607 -0.12663 0.068254 0.10209 0.011793 -0.069617 -0.13448 0.0075158 0.06147 0.039853 -0.013007 -0.062879 
realestateandhomes -0.19677 0.069866 0.054716 -0.039027 0.15729 -0.019001 0.038215 -0.020922 0.15291 -0.022093 0.0056223 0.080133 -0.074295 0.05266 0.081179 -0.035989 -0.12323 -0.01208 -0.079689 0.089455 0.072199 0.15155 -0.022341 0.10386 0.034699 
lax -0.25184 0.097502 0.062046 -0.063107 0.18326 0.031559 0.097898 -0.015706 0.20552 -0.0023867 -0.030747 0.033438 0.12455 0.14815 0.15984 -0.25165 -0.16151 -0.047927 -0.15079 0.10765 0.11227 0.29492 0.21149 0.10019 -0.095842 
society6.com -0.014805 -0.2441 0.22544 0.025435 -0.018558 -0.1837 0.062094 -0.034642 0.00097656 0.076708 -0.089421 -0.029957 0.044809 -0.020043 -0.078367 0.044194 0.091844 0.048131 -0.12247 -0.16106 -0.041466 0.16284 0.080064 0.0078077 -0.098242 
fenty 0.049347 -0.26662 0.24232 -0.034502 -0.063747 -0.15613 0.0043291 -0.068145 0.0071696 0.052329 -0.041294 -0.02408 -0.00025139 -0.095499 -0.097218 0.1336 0.13228 0.090891 -0.1383 -0.23298 -0.019854 0.12779 0.044945 -0.050473 -0.060611 
doctor -0.14216 0.088041 -0.024935 0.030993 0.10673 -0.018702 0.008586 0.0080374 0.096728 0.01718 -0.024775 0.00096235 -0.018353 0.020861 0.048883 -0.092604 -0.10631 0.019682 -0.10671 0.048525 0.063688 0.10081 0.016024 0.038957 -0.037606 
beauty -0.0059393 -0.28222 0.22455 -0.026247 -0.080254 -0.20179 0.038054 -0.061892 0.012132 0.013565 -0.086054 -0.032553 -0.01116 -0.10228 -0.14259 0.087699 0.064637 0.089734 -0.13759 -0.23043 -0.063937 0.10599 -0.0067944 -0.030853 -0.063599 
foundation -0.0019114 -0.2223 0.23199 -0.027044 -0.0082743 -0.14176 -0.0017366 -0.080698 -0.047282 0.012885 -0.063568 -0.055845 -0.017819 -0.061312 -0.086012 0.11589 0.082855 0.12777 -0.13548 -0.19903 -0.044434 0.14822 -0.014693 -0.069584 -0.096861 
p12345 0.054622 -0.23937 0.2389 -0.05194 -0.051176 -0.17981 0.015662 -0.061125 0.0023011 0.025782 -0.11175 -0.034216 -0.0098558 -0.066093 -0.15882 0.12267 0.080032 0.11942 -0.14688 -0.24435 -0.041307 0.17337 0.057573 -0.052815 -0.052412 
nordstrom.com 0.020089 -0.24245 0.23272 -0.021198 -0.11488 -0.10904 0.060892 -0.083075 0.0051075 0.067053 -0.055509 -0.050199 0.1165 -0.089736 -0.10471 0.092278 0.092629 0.054009 -0.1252 -0.25847 0.016215 0.12144 0.12556 -0.084968 -0.063472 
healthgrades.com -0.11626 0.061699 -0.024399 0.019101 0.17383 0.023038 0.049166 -0.029705 0.084168 -0.039694 -0.01081 0.059552 -0.060411 0.032777 0.040952 -0.048374 -0.11687 0.010319 -0.051735 0.10339 0.039786 0.14902 0.033492 0.021353 -0.025353 
designers -0.16506 0.12582 0.027186 0.035278 0.19557 0.033481 0.04957 -0.010546 0.1127 -0.028435 0.0066402 0.055646 -0.08055 0.050108 0.071477 -0.063191 -0.090436 0.0023281 -0.073474 0.066241 -0.012653 0.11201 -0.0010108 0.055354 -0.0060842 
interior -0.17669 0.094377 -0.018307 -0.015714 0.21423 -0.042455 0.012422 0.024605 0.12536 -0.018269 0.0179 0.022694 -0.066041 0.031397 0.11824 -0.058283 -0.12859 0.011009 -0.068702 0.088597 0.050937 0.14053 0.052288 0.090595 -0.008981 
professionals -0.2146 0.12727 0.023439 0.026164 0.211 -0.014329 0.028787 0.0079627 0.15839 -0.051778 0.010257 0.047633 -0.086203 0.065015 0.10306 -0.1084 -0.14058 -0.020637 -0.13543 0.11402 0.00095917 0.1266 -0.0042728 0.086082 0.020463 
houzz.com -0.17828 0.079514 0.022998 0.00093667 0.20912 0.0034404 0.050985 -0.046603 0.10226 -0.015829 0.022349 0.03749 -0.095454 0.042989 0.13704 -0.068985 -0.13578 -0.014686 -0.12508 0.081536 0.046358 0.14354 0.0051489 0.048305 0.048962 
06 -0.21703 0.11942 0.0021643 -0.023245 0.22166 0.096338 0.13745 -0.03228 0.26069 -0.045327 -0.071865 0.039731 0.13034 0.14857 0.09665 -0.23602 -0.16418 -0.064444 -0.10322 0.054574 0.12277 0.28226 0.25895 0.1303 -0.10681 
sale -0.1449 0.090792 0.0030107 -0.017066 0.15635 0.04609 0.034769 -0.027835 0.18589 0.0089208 -0.046681 0.034996 -0.029243 0.077092 0.093102 -0.1138 -0.089238 -0.014388 -0.13585 0.099941 0.020045 0.14382 0.11565 0.096537 -0.041172 
nyc -0.26136 0.14672 0.0012434 -0.0038998 0.16729 0.072537 0.095587 -0.01028 0.20219 -0.046242 -0.069676 0.054475 0.098103 0.16742 0.1167 -0.24281 -0.15707 -0.040913 -0.10423 0.058467 0.092465 0.24508 0.26574 0.097801 -0.12148 
nike 0.080019 -0.26441 0.23596 -0.046412 -0.051234 -0.15516 0.046396 -0.02464 -0.030731 0.035874 -0.042688 0.0017316 0.12548 -0.067195 -0.12585 0.10517 0.15072 0.040613 -0.059725 -0.26033 -0.0077352 0.13596 0.094316 -0.03987 -0.13415 
flights -0.23154 0.13332 0.02935 -0.006792 0.22314 0.048096 0.13263 -0.040126 0.26991 -0.017226 -0.03674 0.083424 0.066944 0.10944 0.17457 -0.19731 -0.13224 -0.039695 -0.14875 0.048172 0.13702 0.29136 0.23368 0.10358 -0.082537 
kayak.com -0.2356 0.12416 0.012213 -0.034034 0.17256 0.0515 0.13891 0.031627 0.24814 0.0057838 -0.047674 0.087376 0.076966 0.1333 0.15465 -0.2077 -0.16465 -0.038087 -0.084153 0.07286 0.08203 0.22626 0.24848 0.11618 -0.11331 
force 0.0073716 -0.26976 0.27568 0.0010469 -0.07082 -0.13938 0.014953 -0.074031 -0.039535 0.075106 -0.056503 -0.031332 0.11012 -0.064442 -0.1323 0.03305 0.099367 0.064411 -0.08965 -0.23202 -0.035467 0.11738 0.095404 -0.076144 -0.10507 
1 0.073731 -0.25899 0.25607 -0.037147 -0.072976 -0.10643 0.039616 -0.040492 -0.031869 0.065961 -0.1024 -0.026584 0.10966 -0.017223 -0.11143 0.107 0.13889 0.028398 -0.10137 -0.21623 -0.021168 0.10241 0.069428 -0.029383 -0.073897 
expedia.com -0.1661 0.054939 -0.008792 0.011519 0.15642 0.012453 -0.017496 -0.010986 0.1479 -0.054307 -0.027028 0.067571 -0.073265 0.0036234 0.048725 -0.075736 -0.056285 -0.0047895 -0.10551 0.10596 -0.022058 0.066031 -0.022334 0.086003 0.060994 
downtown -0.20052 0.21398 -0.018215 -0.033536 0.20142 0.055464 0.021087 0.0096585 0.17144 -0.026888 -0.0078207 0.056411 -0.023546 0.073285 0.10876 -0.15028 -0.10634 0.019509 -0.11647 0.089852 0.014452 0.12697 0.071158 0.07771 0.067426 
marriott -0.18271 0.20521 -0.040997 -0.0020002 0.2415 0.053584 0.017653 -0.036598 0.21702 -0.050525 0.01464 0.10827 -0.028228 0.092919 0.12904 -0.1373 -0.1484 0.024619 -0.10771 0.12716 0.057253 0.14008 0.081664 0.056699 -0.0027012 
6789012 0.068715 -0.27001 0.27038 -0.050104 -0.052143 -0.10599 0.028791 -0.029079 -0.0071632 0.090866 -0.057451 -0.039941 0.096615 -0.059083 -0.14912 0.091781 0.14253 0.022774 -0.11878 -0.21528 -0.037898 0.11651 0.11253 -0.072638 -0.1033 
sephora.com -0.0019378 -0.23709 0.2347 -0.050275 -0.031239 -0.15352 0.027113 -0.099836 -0.030632 0.034316 -0.061719 -0.060904 -0.023934 -0.096604 -0.11351 0.10323 0.071459 0.082643 -0.13412 -0.2226 0.0025975 0.1496 0.017743 -0.020823 -0.027128 
macys.com 0.067186 -0.15844 0.15338 0.018535 -0.042462 -0.12327 -0.0045356 -0.04003 -0.048875 -0.012557 -0.037874 -0.020217 0.062893 -0.089165 -0.056261 0.029837 0.042539 0.067018 -0.0694 -0.17937 -0.0060266 0.080482 0.0042292 -0.0033774 -0.058239 
browse 0.051086 -0.27236 0.21179 0.0041909 -0.039838 -0.099915 0.099338 -0.032365 -0.090356 0.046716 -0.13897 -0.0092193 0.080183 -0.04286 -0.14795 0.034957 0.083764 0.033343 -0.073814 -0.19394 -0.01335 0.19124 0.11491 -0.062779 -0.1054 
itm12345 0.010127 -0.12362 0.15265 -0.011756 -0.062147 -0.030139 0.056946 0.0032918 -0.044457 0.042741 -0.063212 -0.00037983 0.030611 0.0012015 -0.10824 0.027774 0.091285 0.0091198 -0.063278 -0.12757 0.033253 0.11856 0.065392 0.0029149 -0.045129 
backmarket.com 0.0047155 -0.13442 0.091696 -0.020182 -0.072529 -0.058119 0.030352 -0.010872 -0.020491 0.045484 -0.078992 0.018916 0.14541 -0.023223 -0.097646 0.031214 0.10471 0.02768 -0.0040455 -0.13926 0.0098887 0.074061 0.0763 -0.072843 -0.064636 
pizza -0.16917 0.067753 -0.0064715 -0.0087546 0.21851 -0.021688 -0.013438 -0.028992 0.18976 -0.038814 0.037401 0.086257 -0.10713 0.035267 0.15652 -0.062796 -0.11594 -0.016102 -0.093671 0.094148 0.03157 0.11338 -0.029756 0.10866 0.027587 
joes -0.16312 0.1313 -0.0066715 0.0057195 0.21734 -0.042469 -0.02039 -0.063107 0.14174 -0.035087 0.010181 0.08429 -0.1372 0.0086022 0.1501 -0.096425 -0.13253 0.0042065 -0.12136 0.1217 0.018185 0.12389 0.034386 0.11404 0.043373 
biz -0.18851 0.11202 -0.012648 -0.046764 0.21663 0.002468 0.0099872 -0.052624 0.18483 -0.076233 0.03754 0.079294 -0.12245 0.053698 0.097119 -0.086279 -0.16753 -0.037091 -0.11916 0.13632 0.064022 0.13736 0.031571 0.069321 0.023899 
yelp.com -0.23 0.099605 0.025616 -0.015627 0.23629 -0.036521 0.043098 -0.071449 0.18159 -0.069047 -0.0031854 0.061383 -0.11207 0.0005944 0.15348 -0.067565 -0.16659 0.019477 -0.12797 0.10016 0.011527 0.15018 -0.0064465 0.085659 0.067319 
447913 0.0051334 -0.28248 0.2785 -0.049804 -0.11594 -0.15291 0.07509 -0.0073558 -0.091281 0.052927 -0.087292 -0.027611 0.11056 -0.0506 -0.15036 0.065915 0.10969 0.047192 -0.072628 -0.21058 0.01626 0.19869 0.12944 -0.0056927 -0.14896 
1060825 0.011803 -0.2509 0.22824 -0.030097 -0.1152 -0.10646 0.080664 -0.012019 -0.077576 0.082331 -0.097099 -0.041144 0.075851 -0.042712 -0.12393 0.050528 0.10363 0.090381 -0.092251 -0.21577 -0.0015731 0.13011 0.14177 -0.037855 -0.16397 
3944 0.0043789 -0.26956 0.25842 -0.037941 -0.045495 -0.11188 0.048697 -0.038431 -0.050161 0.097391 -0.070563 -0.011943 0.081541 -0.049175 -0.1062 0.01002 0.11398 0.067151 -0.10829 -0.22638 0.029326 0.14244 0.13921 -0.056762 -0.12607 
tvs 0.042385 -0.23609 0.28049 -0.021922 -0.036737 -0.11836 0.10656 -0.052171 -0.018061 0.076578 -0.099304 -0.010359 0.13637 -0.062455 -0.17281 0.016705 0.14684 0.023506 -0.09544 -0.17423 -0.0077965 0.16947 0.14781 -0.023884 -0.13028 
electronics -0.0040555 -0.24174 0.23113 -0.022514 -0.062357 -0.11592 0.10709 -0.05086 -0.015222 0.055101 -0.14378 -0.025407 0.13131 -0.023305 -0.10647 0.0065989 0.1104 0.073994 -0.056126 -0.23731 -0.0040223 0.13653 0.11588 -0.035802 -0.15045 
13 -0.03144 -0.1354 0.13016 -0.018384 -0.021734 -0.04773 0.077409 -0.022464 -0.035626 0.099326 -0.096299 0.027384 0.14783 -0.027164 -0.084132 -0.027796 0.088556 0.021028 -0.0055006 -0.18024 -0.054299 0.10033 0.096055 -0.0028861 -0.053709 
flipkart.com 0.041874 -0.15154 0.13159 0.015502 -0.030892 -0.050108 0.055552 0.0073938 -0.00028713 0.023231 -0.045748 -0.0027629 0.042869 0.011634 -0.097913 0.020171 0.05045 0.046316 -0.043593 -0.065114 0.011142 0.12138 0.090991 -0.020142 -0.11239 
hotels.com -0.16037 0.033963 0.018782 0.017124 0.19657 -0.014041 0.086659 -0.0041449 0.11196 -0.027389 -0.04584 0.040834 -0.085498 0.055904 0.12535 -0.13514 -0.13054 0.027671 -0.080981 0.079508 0.024308 0.12407 0.072507 0.05666 -0.00061151 
headphones 0.037908 -0.27813 0.24553 0.0042158 -0.074598 -0.16257 0.052758 -0.011228 -0.072379 0.077352 -0.096801 -0.030744 0.096631 -0.06075 -0.16443 0.015489 0.097985 0.067117 -0.055 -0.16877 -0.0011299 0.17773 0.14222 -0.0083335 -0.16233 
wireless -0.017766 -0.20536 0.26057 -0.0048244 -0.064603 -0.16007 0.046923 -0.047838 -0.039281 0.059546 -0.066317 -0.020097 0.084686 -0.023947 -0.15644 0.020882 0.084714 0.035597 -0.10266 -0.17702 -0.03945 0.13272 0.12869 -0.015847 -0.092696 
night 0.053928 -0.24767 0.21463 -0.024935 -0.071739 -0.13996 0.077673 0.015869 -0.098507 0.05468 -0.13137 -0.014989 0.13722 -0.067028 -0.097975 -0.0096262 0.10233 -8.0632e-05 -0.035462 -0.18018 0.023977 0.12835 0.14132 0.0068992 -0.11786 
starry 0.038486 -0.23699 0.20421 0.017225 -0.137 -0.072638 0.084577 -0.015722 -0.057949 0.052678 -0.10444 -0.049633 0.11465 -0.024177 -0.12377 0.033584 0.1125 0.032254 -0.086597 -0.18806 7.1995e-06 0.13428 0.10152 0.011059 -0.093236 
swappa.com -0.38067 0.32418 -0.11483 -0.033988 0.43682 0.015465 -0.0017318 -0.0099049 0.29875 -0.11856 0.070484 0.077597 -0.22573 0.047168 0.29339 -0.1134 -0.27216 -0.047749 -0.13336 0.27187 0.019073 0.11833 -0.070943 0.18995 0.093168 
gogh 0.057187 -0.25543 0.24052 -0.033652 -0.079894 -0.088863 0.040519 -0.029538 -0.07405 0.047044 -0.12225 -0.069224 0.11966 -0.060055 -0.11336 0.032672 0.096732 0.065848 -0.090639 -0.21906 0.0067116 0.11224 0.094843 -0.064358 -0.1297 
van 0.017387 -0.24404 0.24759 -0.00081912 -0.096215 -0.078071 0.046306 -0.030229 -0.034153 0.066636 -0.075263 -0.05224 0.1538 -0.032372 -0.17247 0.050786 0.11823 0.0018634 -0.033637 -0.19981 -0.013544 0.16116 0.15561 -0.047504 -0.15894 
greatbigcanvas.com 0.084971 -0.21513 0.2292 -0.047549 -0.11426 -0.082032 0.087441 -0.039042 -0.10757 0.072228 -0.094277 -0.020628 0.12512 -0.014754 -0.16636 0.023421 0.10924 0.017791 -0.084223 -0.18259 -0.033754 0.16442 0.14643 -0.062763 -0.13059 
print -0.042427 -0.25139 0.20959 0.033425 -0.018837 -0.13826 0.0017502 -0.083575 0.0018312 -0.0020946 -0.12868 -0.05403 0.0046959 -0.034653 -0.14435 0.059941 0.0727 0.068544 -0.088079 -0.18231 0.013461 0.15528 0.078303 -0.017636 -0.11521 
art -0.056036 -0.24031 0.17993 0.02419 -0.0061314 -0.11662 0.07075 -0.023612 -0.059906 0.0084198 -0.084917 -0.072443 0.033026 -0.050604 -0.071397 0.075868 0.061674 0.06662 -0.14534 -0.14308 -0.010396 0.14855 0.089544 -0.00022902 -0.068535 
abstract -0.029811 -0.23558 0.22227 0.0056844 -0.016815 -0.12431 0.014942 -0.087275 -0.062543 0.034211 -0.088735 -0.075543 0.021762 -0.08019 -0.11397 0.019242 0.057941 0.0843 -0.087562 -0.14632 -0.028012 0.13521 0.086942 -0.024821 -0.050642 
9123456 -0.025913 -0.23657 0.15087 0.031536 -0.057891 -0.14958 -0.018629 -0.079839 -0.069104 -0.018318 -0.054548 -0.036106 -0.060541 -0.085413 -0.077822 0.047353 0.052442 0.027169 -0.054086 -0.12298 -0.055192 0.1349 0.0077577 -0.0061132 -0.044153 
olive 0.058491 -0.21608 0.2099 -0.017998 -0.089396 -0.13188 0.04939 -0.0022326 -0.067452 0.024571 -0.099317 -0.023218 0.05176 -0.015749 -0.11887 0.084872 0.048106 0.067319 -0.088292 -0.13061 -0.018805 0.084787 0.073883 -0.049283 -0.081001 
oil -0.00061709 -0.16119 0.20409 -0.031822 -0.026427 -0.10957 0.0096036 -0.046819 -0.073197 0.0072619 -0.093113 -0.071836 0.069711 -0.0035966 -0.11643 0.069258 0.048692 0.08084 -0.089812 -0.12427 -0.036318 0.070174 0.025923 -0.04512 -0.09647 
overstock.com 0.0086846 -0.22489 0.18018 -0.031389 -0.086447 -0.12477 0.035928 -0.057697 -0.033787 0.065864 -0.047006 -0.051729 0.087415 -0.011217 -0.11779 0.035066 0.10453 0.02472 -0.037734 -0.16932 0.031468 0.098108 0.053955 -0.0021227 -0.10356 
companylist -0.13142 0.10664 0.0080254 -0.047572 0.15532 0.031963 -0.0065522 -0.054661 0.15993 0.0085704 -0.034292 0.058078 -0.038974 -0.0018246 0.059266 -0.095435 -0.10398 0.025549 -0.074081 0.022227 -0.014106 0.096318 0.024277 0.083382 0.040892 
office 0.0049687 -0.16893 0.16722 0.03026 -0.043892 -0.13394 0.0081094 -0.026945 -0.044817 0.001046 -0.063448 -0.021422 0.041266 -0.017679 -0.10727 0.0423 0.12172 0.036991 -0.040894 -0.16433 -0.045779 0.11259 0.077143 -0.036833 -0.11176 
angi.com -0.16672 0.08712 0.01483 -0.03183 0.13937 0.0050285 0.048429 -0.041303 0.1555 -0.029273 -0.022044 0.036888 -0.079589 0.06331 0.078566 -0.040816 -0.0637 0.018065 -0.045964 0.061824 0.0047747 0.11641 0.05316 0.063711 0.039399 
ergonomic 0.039332 -0.21532 0.15219 0.0019385 -0.091223 -0.12611 0.03033 -0.02233 -0.023378 0.045086 -0.0213 -0.03646 0.032462 -0.0065193 -0.062534 0.018777 0.068276 0.012399 -0.08387 -0.18103 -0.021301 0.10773 0.0297 -0.015719 -0.091865 
geo -0.13486 0.042225 -0.013733 -0.01443 0.16127 0.029056 0.052919 -0.053507 0.084648 -0.04818 0.0036752 0.015959 -0.079204 0.044872 0.08746 -0.066005 -0.11446 -0.024301 -0.062938 0.093644 0.04979 0.05851 -0.0046439 0.066262 -0.026772 
chair -0.0061435 -0.16092 0.14109 -0.026818 -0.026616 -0.13029 0.0051578 -0.029586 -0.036815 0.02756 -0.041522 -0.046591 0.085224 0.00049267 -0.059289 0.063427 0.10322 0.034177 -0.056904 -0.14229 -0.010978 0.12169 0.040284 -0.019534 -0.11035 
plumber -0.096334 0.082642 0.038581 0.020334 0.12652 -0.011974 0.020324 0.0025651 0.12934 0.0017061 -0.033299 0.014585 -0.083321 0.015032 0.063073 -0.047025 -0.080633 0.0055793 -0.048039 0.10104 0.024765 0.049149 0.033548 0.042377 0.0062809 
zappos.com 0.032266 -0.24141 0.1696 0.00028558 -0.037548 -0.17235 -0.026807 -0.026358 -0.062086 -0.0067804 -0.091172 -0.057522 -0.00070565 -0.043066 -0.11717 0.093088 0.05484 0.038634 -0.085897 -0.082025 -0.025529 0.12647 0.050616 0.013469 -0.09153 
terms -0.10825 0.089221 0.035372 0.0092981 0.1571 -0.023553 -0.0028606 -0.020262 0.11338 -0.042084 0.043057 0.0091892 -0.088583 0.0056045 0.063049 -0.087931 -0.10963 0.00081767 -0.065726 0.043487 -0.0045852 0.090344 0.034685 0.084392 0.040806 
realtor.com -0.18506 0.060002 0.0030054 0.017529 0.21529 0.035731 0.057764 -0.007409 0.15292 -0.064519 0.0053958 0.042987 -0.10966 0.030527 0.154 -0.055768 -0.086962 0.0022216 -0.10318 0.14766 0.025047 0.1628 -0.01219 0.10108 0.0017261 
color 0.0050711 -0.2031 0.1593 0.031772 -0.055276 -0.14237 0.029387 -0.044462 -0.05598 0.047778 -0.032338 -0.029525 -0.013442 -0.056643 -0.045288 0.068789 0.055304 0.027425 -0.064714 -0.097375 -0.0048758 0.057596 0.008959 -0.027455 -0.043515 
petco.com -0.011165 -0.12855 0.17493 -0.029293 -0.072731 -0.12526 0.012585 -0.059856 -0.024316 0.043577 -0.046085 0.0035493 0.0679 0.005182 -0.094726 0.022857 0.051991 0.064187 -0.059313 -0.18021 -0.026548 0.05835 0.075364 -0.040454 -0.09909 
petcostore 0.017755 -0.14189 0.11478 0.024623 -0.014638 -0.12386 0.050251 -0.048451 -0.010212 0.068905 -0.047288 0.0034412 0.0356 -0.037274 -0.10836 0.013904 0.062528 0.047492 -0.070702 -0.1759 -0.014764 0.075943 0.10108 -0.01352 -0.099083 
dog 0.001449 -0.15741 0.11725 -0.046666 -0.036268 -0.064325 0.060629 0.0096846 0.010176 0.066788 -0.0928 -0.02488 0.034316 -0.058825 -0.05014 0.034085 0.075411 0.013971 -0.023131 -0.14268 0.0060041 0.065766 0.084572 -0.014936 -0.062801 
yellowpages.com -0.076202 0.049229 0.00015501 -0.037204 0.11197 -0.025593 0.012234 0.0093585 0.06859 -0.03315 -0.021781 0.041255 -0.088442 0.025046 0.099217 -0.036508 -0.06178 -0.038065 -0.056758 0.10369 0.054564 0.11504 0.020828 0.078376 0.028721 
food -0.010826 -0.11997 0.12866 0.012443 -0.021435 -0.1201 0.051563 -0.054921 -0.031148 0.0554 -0.079818 -0.037009 0.08372 -0.05435 -0.11092 0.053484 0.083666 0.034543 -0.073387 -0.16961 -0.051585 0.1128 0.053465 -0.037986 -0.039035 
aliexpress.com 0.031719 -0.26735 0.2859 -0.038428 -0.089862 -0.17731 0.048018 -0.027041 -0.05205 0.046627 -0.13863 -0.0081019 0.14072 -0.02417 -0.16727 0.040829 0.17114 0.083737 -0.045543 -0.2771 0.0073728 0.18425 0.12209 -0.070546 -0.15597 
d12345 -0.20985 0.15874 -0.0024278 -0.049259 0.21085 0.054786 0.01233 0.0027658 0.24272 -0.029902 0.022151 0.082984 -0.10507 0.036269 0.12842 -0.12072 -0.19111 -0.0095567 -0.1482 0.10238 0.02552 0.12947 0.073334 0.081621 -0.02763 
g60763 -0.20153 0.12336 -2.756e-05 0.013724 0.24558 0.015125 0.022572 -0.04061 0.20662 -0.09263 0.0054751 0.090385 -0.067567 0.11332 0.20351 -0.096496 -0.14783 -0.024105 -0.13026 0.16816 0.094825 0.17395 0.025277 0.10175 0.019155 
item 0.071653 -0.29191 0.27008 -0.03199 -0.12112 -0.16225 0.059404 -0.0017874 -0.059829 0.084905 -0.13575 -0.045967 0.15829 -0.031617 -0.20773 0.074087 0.14173 0.084718 -0.079704 -0.31175 0.0013865 0.12966 0.1547 -0.041046 -0.1525 
1005004567890 0.03706 -0.28893 0.28993 0.0027392 -0.13779 -0.11129 0.052397 -0.039039 -0.063034 0.10818 -0.077418 -0.0050869 0.14976 -0.04191 -0.1845 0.084384 0.168 0.044086 -0.10666 -0.28528 -0.0080121 0.1867 0.14123 -0.035541 -0.15785 
tripadvisor.com -0.25477 0.13592 0.0066362 -0.043477 0.2354 0.03778 0.066046 -0.049538 0.2453 -0.093991 0.024097 0.057929 -0.040438 0.11391 0.17373 -0.10023 -0.18326 -0.060407 -0.096065 0.16059 0.077162 0.1552 0.028041 0.12515 -0.0090646 
fantasy -0.043332 -0.18319 -0.17609 0.12083 -0.095953 0.17397 0.20083 0.31732 -0.33157 0.11258 -0.24816 -0.165 0.3012 0.14083 -0.093731 -0.33248 0.10927 -0.06611 0.19214 0.31309 0.00031346 -0.0097493 0.3106 0.030729 -0.19011 
grid -0.047273 -0.11133 -0.1153 0.16885 0.023776 0.052223 0.045557 0.17292 -0.28091 0.13881 -0.12675 -0.12221 0.070447 0.020488 -0.1111 -0.11215 0.10827 0.034908 0.066313 0.17718 -0.087705 -0.088352 0.06788 -0.029148 0.032732 
layout -0.042239 -0.11433 -0.14352 0.15411 0.035617 0.044731 0.028948 0.20839 -0.27955 0.096411 -0.11229 -0.10552 0.01221 0.042871 -0.095464 -0.080804 0.057694 0.045323 0.12382 0.23929 -0.1116 -0.10526 0.026213 -0.030659 0.074835 
healthyblog.com -0.067263 -0.10779 -0.1412 0.20289 0.048208 -0.011119 -0.027144 0.13035 -0.32529 0.13871 -0.060833 -0.12516 -0.17638 -0.056791 -0.078233 0.00073006 0.016871 0.10989 0.017554 0.22354 -0.15891 -0.12246 -0.18469 -0.00083091 0.17219 
post -0.040712 -0.058729 -0.1598 0.16322 0.044987 -0.04975 -0.012486 0.17944 -0.3575 0.070769 -0.11747 -0.13118 -0.12554 -0.071636 -0.083833 -0.00058431 0.052554 0.074795 0.025517 0.268 -0.15175 -0.15048 -0.19263 0.017337 0.19094 
intermittent -0.088271 -0.054035 -0.12687 0.13531 0.038261 -0.01531 0.0068078 0.19696 -0.29759 0.088645 -0.072077 -0.11522 -0.15276 -0.073024 -0.049264 -0.0077416 0.023786 0.070104 0.053915 0.27558 -0.18555 -0.16437 -0.1407 0.016087 0.2133 
fasting -0.095304 -0.1007 -0.098586 0.20212 0.08485 -0.061242 -0.023781 0.16598 -0.28521 0.089165 -0.091217 -0.083183 -0.12609 -0.030999 -0.11337 0.022 0.091364 0.079715 0.039985 0.27161 -0.18572 -0.15088 -0.15217 0.00037398 0.2235 
mybookreviews.net -0.06308 -0.14583 -0.14093 0.17081 -0.062853 0.15982 0.16006 0.25991 -0.38471 0.1099 -0.21604 -0.1867 0.33276 0.082268 -0.14422 -0.3067 0.068942 -0.070031 0.1352 0.25088 0.061304 0.036971 0.33746 0.082894 -0.20146 
author -0.016474 -0.15469 -0.12924 0.15433 -0.11211 0.12913 0.18795 0.30054 -0.33614 0.12836 -0.19271 -0.11923 0.28734 0.10799 -0.093771 -0.3235 0.072653 -0.093865 0.18782 0.28378 0.061995 -0.0036698 0.34545 0.030677 -0.13406 
archives -0.043744 -0.07059 -0.15669 0.12204 0.0067472 0.023784 0.091019 0.21303 -0.28108 0.11884 -0.16118 -0.10574 0.073811 0.033182 -0.071107 -0.094448 0.060797 -0.013725 0.068947 0.21977 -0.085596 -0.062267 0.058358 0.010363 0.04925 
joespizzanyc.com -0.19512 0.69982 -0.28401 -0.36264 0.13388 -0.054809 -0.072045 -0.37936 0.85153 0.1256 -0.098208 0.44907 0.50383 0.073966 -0.35818 0.38992 0.033443 0.35867 -0.0027101 -0.89847 -0.29527 0.30303 -0.0020806 -0.66797 0.18208 
downtown-dental.com -0.16166 0.42854 -0.19782 -0.18841 0.15333 -0.047615 0.010697 -0.23443 0.46732 0.14781 -0.053558 0.23914 0.35969 0.060094 -0.22204 0.19174 0.020372 0.22914 0.058987 -0.58059 -0.1485 0.1945 0.043004 -0.43088 0.077818 
appointments -0.16862 0.47426 -0.24165 -0.17866 0.10294 -0.017913 -0.011831 -0.2097 0.46521 0.11675 -0.064748 0.23953 0.32369 0.059509 -0.24115 0.17976 0.028452 0.21105 0.033087 -0.57664 -0.21072 0.21857 0.061093 -0.40887 0.11745 
harborviewhotels.com -0.16709 0.49351 -0.23475 -0.21542 0.055791 -0.033179 0.01013 -0.16619 0.49931 0.14666 -0.084426 0.27898 0.41038 0.11443 -0.21638 0.13983 0.094716 0.19162 0.0072772 -0.56639 -0.18389 0.22099 0.06518 -0.37259 0.08756 
blueskytaxservices.com -0.16923 0.57251 -0.28066 -0.23446 0.13281 -0.0045731 0.048881 -0.22848 0.50406 0.16066 -0.1514 0.31959 0.4376 0.15348 -0.25857 0.15696 0.049137 0.22025 0.021405 -0.63627 -0.17644 0.2763 0.026116 -0.48138 0.12123 
elitepainting.co -0.16867 0.34797 -0.16417 -0.17199 0.14512 -0.033045 0.0433 -0.15369 0.40756 0.092131 -0.073056 0.21846 0.31567 0.085539 -0.18897 0.15847 0.0039329 0.22271 0.05603 -0.42399 -0.16204 0.23921 0.097323 -0.3144 0.12182 
benchmarkrestorations.com -0.14049 0.30303 -0.18884 -0.13859 0.073117 -0.0486 0.032338 -0.14459 0.35341 0.084203 -0.10786 0.16726 0.22796 0.092898 -0.15651 0.12402 0.019616 0.13832 0.011007 -0.33552 -0.098416 0.17828 0.020256 -0.27305 0.085673 
debugging -0.049591 -0.082738 -0.11633 0.10793 0.0011321 0.048803 0.037838 0.14714 -0.22536 0.11895 -0.095663 -0.064042 0.10882 0.0045471 -0.10703 -0.13914 0.09237 0.019757 0.050771 0.15531 -0.040935 -0.047195 0.03128 -0.025329 0.034322 
ck -0.087656 -0.041587 -0.14375 0.18688 0.043494 -0.022894 0.036487 0.19687 -0.31109 0.14538 -0.10966 -0.076626 -0.07216 -0.011364 -0.063861 0.0020825 0.10352 0.10597 0.04478 0.25217 -0.14216 -0.14348 -0.12841 0.0078631 0.19607 
paulgraham.com -0.038385 -0.098 -0.24078 0.25612 0.096018 -0.0036172 -0.039368 0.20299 -0.44854 0.17434 -0.098055 -0.13541 -0.21262 -0.070378 -0.11405 0.028954 0.10444 0.1175 0.14379 0.38471 -0.19052 -0.29122 -0.31302 -0.020464 0.25948 
essays -0.05394 -0.10719 -0.27594 0.20823 0.077633 -0.031245 -0.048899 0.27789 -0.44798 0.11241 -0.1166 -0.14666 -0.1936 -0.13943 -0.087176 0.055279 0.046752 0.096852 0.10313 0.37867 -0.24505 -0.25834 -0.27242 -0.027607 0.27077 
startups -0.084233 -0.071547 -0.23835 0.27196 0.064352 -0.07788 -0.074892 0.26413 -0.49807 0.10541 -0.077347 -0.11579 -0.24637 -0.066077 -0.15319 0.0065577 0.081659 0.1446 0.11123 0.42829 -0.24215 -0.29701 -0.28372 -0.013514 0.29172 
simonwillison.net -0.08884 -0.080562 -0.17477 0.12589 -0.01027 0.033804 0.039033 0.22332 -0.28902 0.11542 -0.11926 -0.12486 0.1145 0.021536 -0.10223 -0.14429 0.096243 0.046692 0.077343 0.21551 -0.10586 -0.035332 0.028335 -0.049169 0.064 
llm -0.045993 -0.096613 -0.13296 0.14941 0.0023736 0.058324 0.0385 0.23079 -0.29741 0.12427 -0.14512 -0.11032 0.083442 0.017732 -0.11033 -0.089525 0.089482 0.035985 0.12661 0.2028 -0.045022 -0.040281 0.086501 -0.022237 0.045922 
security -0.045242 -0.062553 -0.17477 0.14542 -0.028977 0.041675 0.10251 0.22689 -0.26233 0.15947 -0.15248 -0.13119 0.078112 0.043143 -0.13566 -0.06869 0.051531 0.056773 0.10419 0.17611 -0.051779 -0.053683 0.062019 -0.041706 -0.0069702 
jvns.ca -0.024968 -0.068605 -0.12777 0.084345 -0.030925 0.05626 0.071199 0.16239 -0.26231 0.090914 -0.11473 -0.058492 0.09151 0.037215 -0.079446 -0.13433 0.051562 0.010374 0.1194 0.16965 -0.04759 -0.074702 0.09911 -0.008144 -0.015764 
grimaldis.com -0.22503 0.3993 -0.24246 -0.12885 0.14603 0.017193 0.049724 -0.15089 0.41856 0.1744 -0.10266 0.2452 0.38626 0.069137 -0.26861 0.13611 0.085033 0.16088 0.054901 -0.4645 -0.14038 0.25673 0.097273 -0.32651 0.12712 
tips -0.061752 -0.10259 -0.10716 0.14993 -0.015317 0.051612 0.094629 0.19677 -0.20953 0.11141 -0.099798 -0.063466 0.1075 0.021403 -0.078638 -0.099353 0.056573 0.0044476 0.049382 0.15306 -0.028945 -0.052095 0.062148 -0.018124 -0.031633 
overreacted.io -0.079281 -0.043937 -0.15612 0.13853 0.045122 -0.034824 -0.0073113 0.18248 -0.36897 0.084045 -0.11188 -0.083359 -0.12504 -0.034028 -0.092153 0.0039634 0.0616 0.14452 0.022051 0.25774 -0.20109 -0.12377 -0.19818 -0.015262 0.22835 
why -0.038813 -0.092979 -0.1292 0.20992 0.10102 -0.063946 0.0057231 0.20442 -0.33452 0.12765 -0.12359 -0.064828 -0.12833 -0.090942 -0.060065 0.021558 0.038574 0.14122 0.049908 0.28186 -0.13964 -0.17624 -0.1501 -0.030918 0.22262 
do -0.098353 -0.052841 -0.12789 0.19429 0.050572 -0.047365 -0.013805 0.19727 -0.30019 0.13923 -0.082052 -0.098141 -0.16343 -0.092393 -0.11927 0.015305 0.094524 0.12065 0.022066 0.29891 -0.19041 -0.10711 -0.1497 -0.012954 0.21542 
hooks -0.080506 -0.057297 -0.13907 0.19945 0.10189 -0.081544 0.025103 0.15948 -0.34841 0.09321 -0.11282 -0.13689 -0.12054 -0.064365 -0.11122 0.048228 0.035889 0.11159 0.062125 0.23477 -0.14647 -0.15987 -0.1782 -0.065445 0.23312 
exist -0.090047 -0.068031 -0.13751 0.18527 0.050266 -0.016388 -0.04822 0.18567 -0.3612 0.14922 -0.13539 -0.099196 -0.16196 -0.081132 -0.11999 0.0080762 0.032827 0.13076 0.07114 0.31048 -0.14704 -0.16649 -0.19833 -0.026749 0.20783 
rachelandrew.co.uk -0.060968 -0.050021 -0.14743 0.13029 -0.018056 0.048574 0.041884 0.2268 -0.27509 0.085072 -0.12131 -0.123 0.014467 0.013407 -0.11384 -0.12146 0.10454 -0.0076344 0.099672 0.25208 -0.08437 -0.093592 -0.0037132 0.023299 0.068708 
yardmasterslandscape.com 0.0054272 0.14796 -0.10119 -0.044053 -0.013563 0.065421 0.0011779 -0.072674 0.11498 0.030733 -0.03341 0.060525 0.17294 0.030049 -0.033621 0.026782 -0.0097487 -0.011219 -0.0031635 -0.13646 0.011019 0.10325 0.052481 -0.10166 -0.02331 
mariposayoga.com -0.20589 0.38885 -0.23728 -0.11564 0.084932 0.0046953 0.067624 -0.12016 0.35451 0.12691 -0.10128 0.18776 0.3208 0.11626 -0.22826 0.073216 0.06089 0.15867 0.050612 -0.46339 -0.17536 0.1997 0.11687 -0.35311 0.04017 
classes -0.17257 0.42207 -0.24046 -0.19236 0.12766 0.044929 0.0010289 -0.13851 0.37576 0.17692 -0.10836 0.2388 0.3585 0.083764 -0.22904 0.12296 0.092999 0.16689 0.028627 -0.43286 -0.15142 0.22438 0.13683 -0.3546 0.069561 
englishgardenflowers.com -0.15771 0.42746 -0.19259 -0.12706 0.13302 -0.019017 0.039947 -0.14806 0.39559 0.16019 -0.13647 0.22792 0.31456 0.15116 -0.23312 0.11545 0.045999 0.17544 0.080468 -0.44885 -0.18503 0.18023 0.10154 -0.35621 0.055309 
weddings -0.14091 0.3721 -0.19009 -0.13576 0.075767 -0.01883 0.076562 -0.14662 0.40334 0.16844 -0.12065 0.1915 0.31922 0.078345 -0.19702 0.097501 0.080193 0.13945 0.02553 -0.46852 -0.1556 0.21757 0.11809 -0.28145 0.081463 
cascaderoofing.net -0.083734 0.20974 -0.11903 -0.053514 0.068443 0.030584 0.026142 -0.0384 0.16282 0.11444 -0.047038 0.15225 0.20174 0.085212 -0.13241 0.067174 0.021735 0.057237 0.066232 -0.25571 -0.037425 0.11537 0.083686 -0.13847 0.033649 
zensationalspa.com -0.0001074 0.1771 -0.088044 -0.068747 0.010928 0.027357 0.0014725 -0.044711 0.1332 0.064027 -0.0013182 0.067001 0.1707 0.017527 -0.07173 -0.029781 0.05837 0.029904 0.061521 -0.16257 -0.024331 0.094902 0.03683 -0.061256 -0.036153 
texastacotruck.com -0.15039 0.3652 -0.20674 -0.18088 0.062053 0.045692 0.067623 -0.11444 0.40323 0.14389 -0.15853 0.18198 0.34131 0.10322 -0.22364 0.078733 0.086596 0.15396 0.056738 -0.42907 -0.1865 0.22826 0.13445 -0.33458 0.060028 
catering -0.18838 0.3618 -0.20209 -0.17048 0.12392 0.03865 0.05664 -0.1077 0.38893 0.12951 -0.084056 0.19346 0.37689 0.10122 -0.25133 0.12643 0.064244 0.15938 0.079432 -0.42224 -0.15818 0.21475 0.072346 -0.2919 0.035487 
boulderbeerfest.com -0.24462 0.58832 -0.28916 -0.25232 0.17736 0.022792 0.034606 -0.19759 0.5189 0.25244 -0.17932 0.26546 0.44015 0.12619 -0.3469 0.18175 0.093029 0.2605 0.092935 -0.6847 -0.27868 0.31228 0.05872 -0.47115 0.18278 
thecakabakery.com -0.090174 0.29157 -0.16029 -0.10736 0.059148 0.0023698 0.031131 -0.10984 0.3051 0.14811 -0.098229 0.13026 0.29313 0.10253 -0.11876 0.078661 0.063821 0.11628 0.00084826 -0.35018 -0.06891 0.15431 0.061683 -0.21913 0.052421 
cakes -0.087738 0.25396 -0.15039 -0.12333 0.067165 0.014596 0.017086 -0.093743 0.27089 0.14032 -0.062872 0.17262 0.29212 0.073079 -0.18387 0.022098 0.074546 0.11847 0.00021737 -0.34244 -0.067457 0.1318 0.06816 -0.19695 0.034829 
taxprogroup.com -0.10044 0.31969 -0.19207 -0.15138 0.076167 -0.0097 0.016644 -0.12223 0.2876 0.16469 -0.10139 0.16092 0.27837 0.077461 -0.17696 0.041743 0.078441 0.12222 0.0089609 -0.37108 -0.088207 0.15312 0.12623 -0.25728 0.014596 
preparation -0.11938 0.37055 -0.20446 -0.13637 0.089354 0.065028 0.0010429 -0.07416 0.34525 0.15299 -0.11862 0.15076 0.35268 0.11296 -0.21188 0.03319 0.050018 0.13613 0.062587 -0.41269 -0.10271 0.17134 0.07305 -0.25837 0.07515 
woodthumb.com -0.12545 0.36964 -0.19114 -0.12431 0.06711 0.03279 0.067825 -0.080991 0.29661 0.096761 -0.073533 0.15985 0.32068 0.12874 -0.17572 0.090978 0.069606 0.1394 0.02118 -0.33489 -0.12996 0.18684 0.12033 -0.26175 0.073803 
highdesertautobody.com -0.11347 0.35309 -0.21639 -0.11533 0.11261 0.017527 0.059556 -0.12376 0.30727 0.10443 -0.061791 0.19194 0.30695 0.10387 -0.14124 0.086448 0.058646 0.14893 0.056963 -0.37233 -0.10009 0.19512 0.088973 -0.2194 0.010031 
collision -0.10984 0.31148 -0.17317 -0.16274 0.08154 0.0091603 0.02136 -0.084412 0.28775 0.15706 -0.072389 0.16848 0.34216 0.10032 -0.16977 0.042345 0.056997 0.11803 0.064949 -0.39427 -0.11193 0.15844 0.11322 -0.27024 0.017868 
f -0.062937 -0.063466 -0.16478 0.20004 0.044016 -0.042925 0.044745 0.15372 -0.34978 0.14645 -0.1306 -0.093637 -0.066797 -0.076031 -0.079358 0.027612 0.032067 0.10304 0.086701 0.27919 -0.13966 -0.15625 -0.082481 -0.016031 0.11972 
lenses -0.12923 0.30756 -0.17122 -0.13037 0.10577 0.023718 0.048142 -0.099358 0.28934 0.10214 -0.08514 0.1796 0.27151 0.077729 -0.22152 0.047714 0.041102 0.10874 0.070244 -0.39844 -0.15592 0.23033 0.082655 -0.30919 0.041699 
contact -0.17825 0.36393 -0.20234 -0.16919 0.1207 -0.021909 0.0307 -0.090956 0.33611 0.15631 -0.12091 0.19077 0.30275 0.062895 -0.21225 0.077071 0.020284 0.16095 0.035611 -0.39679 -0.1186 0.16574 0.10534 -0.30639 0.033724 
lakefronteyecare.com -0.13842 0.34482 -0.16936 -0.1367 0.081068 -0.011558 0.014208 -0.13848 0.33272 0.13995 -0.097923 0.19501 0.33219 0.084676 -0.18503 0.070985 0.06044 0.1585 0.0488 -0.35951 -0.10734 0.17263 0.12849 -0.30243 0.074187 
whitening -0.13007 0.32398 -0.20962 -0.15808 0.061058 0.0019754 0.0070458 -0.12491 0.34096 0.16681 -0.10193 0.18581 0.29016 0.10558 -0.15316 0.07031 0.027153 0.18253 0.0038647 -0.40213 -0.15225 0.19047 0.10102 -0.29868 0.063867 
teeth -0.13622 0.33217 -0.15119 -0.16687 0.076072 -0.0098744 0.027868 -0.071906 0.28836 0.11444 -0.13194 0.16675 0.30074 0.078665 -0.15671 0.081316 0.061734 0.1595 0.07159 -0.40874 -0.13139 0.21283 0.11947 -0.2663 0.089494 
sunrisedentalcare.net -0.1448 0.30726 -0.19517 -0.16846 0.060706 -0.0061981 0.069405 -0.13172 0.36661 0.095111 -0.097393 0.20528 0.32626 0.074189 -0.19384 0.06969 0.0065045 0.17028 0.015735 -0.37461 -0.13658 0.17004 0.12578 -0.23578 0.056903 
cleaning -0.12362 0.36376 -0.19759 -0.098291 0.12869 0.040436 0.033836 -0.088906 0.29547 0.16893 -0.12779 0.14258 0.33866 0.10082 -0.20575 0.11711 0.077154 0.1249 0.051211 -0.41496 -0.14342 0.21538 0.065149 -0.25832 0.084569 
drain -0.16273 0.33068 -0.19614 -0.10367 0.055606 0.025506 -0.001266 -0.10542 0.33565 0.16854 -0.077093 0.21752 0.28138 0.068451 -0.17749 0.12034 0.075837 0.11292 0.070572 -0.41328 -0.11963 0.22278 0.095892 -0.27132 0.07473 
goldenstateplumbing.com -0.17671 0.34512 -0.15625 -0.14039 0.13026 0.037416 0.029866 -0.14598 0.30524 0.097865 -0.10561 0.17708 0.30809 0.11526 -0.17097 0.11278 0.05651 0.13032 0.018216 -0.3962 -0.14339 0.1837 0.055977 -0.23853 0.026853 
atipt.com -0.11871 0.20145 -0.13833 -0.10008 0.039865 0.024563 0.030146 -0.074335 0.20636 0.094561 -0.059012 0.14696 0.22897 0.078314 -0.084377 0.061629 0.061563 0.056832 0.0041665 -0.22769 -0.039287 0.15165 0.063696 -0.1494 0.023033 
greatlakesroofing.com -0.082535 0.20759 -0.10207 -0.074318 0.087701 -0.016482 -0.0027683 -0.081094 0.22801 0.098701 -0.090363 0.099877 0.21376 0.0911 -0.098823 0.037075 0.064298 0.083598 0.051178 -0.24669 -0.10267 0.12678 0.046173 -0.18485 0.071548 
areas -0.17069 0.33916 -0.19334 -0.13128 0.062799 0.030632 0.02776 -0.132 0.30671 0.10324 -0.092211 0.19821 0.31237 0.12397 -0.1621 0.12465 0.066086 0.18478 -0.0010175 -0.39736 -0.096578 0.19769 0.097607 -0.32333 0.044117 
practice -0.12316 0.3372 -0.18932 -0.13989 0.060211 0.023115 0.03538 -0.095562 0.33191 0.13015 -0.082185 0.20564 0.34571 0.063691 -0.16003 0.072497 0.079027 0.14302 0.027185 -0.41912 -0.12376 0.23524 0.074236 -0.26974 0.053843 
protomannilaw.com -0.1598 0.34461 -0.1858 -0.1084 0.077075 0.019226 0.050016 -0.1211 0.33854 0.1099 -0.093274 0.19985 0.28377 0.11495 -0.19629 0.13352 0.019539 0.12351 0.058263 -0.39834 -0.13525 0.17784 0.07626 -0.2881 0.091313 
menu -0.17455 0.4241 -0.20128 -0.1777 0.094891 -0.011521 0.022557 -0.13516 0.40872 0.18535 -0.13255 0.20768 0.36773 0.12518 -0.23077 0.16091 0.08557 0.23338 0.070682 -0.50323 -0.16866 0.22404 0.086701 -0.34337 0.11975 
findlaw.com -0.24114 0.13932 -0.022026 0.029541 0.1895 0.0039654 0.06285 0.0092309 0.17364 0.012768 -0.028847 -3.5349e-05 -0.029907 0.053345 0.10093 -0.17206 -0.15468 -0.037262 -0.10724 0.17654 0.054336 0.18833 0.082988 0.085589 0.015573 
vitals.com -0.16253 0.11427 -0.011285 0.032425 0.1606 -0.008937 0.078479 0.017955 0.085745 -0.046116 0.0053666 0.069363 -0.03159 0.02139 0.10642 -0.10108 -0.069123 0.018382 -0.11691 0.087084 0.035367 0.11154 0.046794 0.11574 0.023764 
cardiologist -0.2004 0.046344 -0.0008961 0.03399 0.19347 0.033465 0.0037327 0.01799 0.11764 -0.057061 -0.054914 0.01027 -0.058181 0.062579 0.12712 -0.062994 -0.077978 0.031948 -0.12697 0.09289 0.020451 0.11942 0.048138 0.044021 -0.0019295 
turo.com -0.2318 0.16027 -0.036301 -0.046526 0.17014 0.052097 0.063052 0.026953 0.18886 0.030567 -0.019927 0.039364 0.015737 0.10788 0.070675 -0.12632 -0.11427 0.00064236 -0.043607 0.058229 0.04471 0.20476 0.070822 0.059589 0.0092341 
location -0.2314 0.14661 -0.069473 0.01388 0.18997 0.011093 0.096967 0.029928 0.13655 0.039525 -0.011706 0.038938 0.0081331 0.070304 0.048937 -0.12165 -0.12206 -0.017517 -0.077916 0.078236 0.023795 0.1605 0.072391 0.054368 0.019328 
repair -0.15904 0.3245 -0.14941 -0.11347 0.071186 0.011235 0.0095867 -0.11004 0.3511 0.10016 -0.11777 0.18058 0.29376 0.10384 -0.15364 0.087473 0.082392 0.11198 0.019795 -0.39211 -0.071861 0.16116 0.0748 -0.24557 0.013715 
stays -0.1751 0.09906 0.048566 -0.006773 0.15607 0.031412 0.07597 -8.5604e-05 0.073926 -0.038051 0.0048971 0.063795 -0.021602 0.06894 0.087355 -0.14011 -0.094575 -0.032157 -0.066432 0.12754 0.021946 0.16288 0.05991 0.074606 -0.0087754 
las -0.21622 0.052775 -0.01916 -0.011189 0.17508 -0.0014076 0.055739 -0.014 0.10532 -0.00081173 -0.059515 0.0049781 -0.07833 0.095453 0.12173 -0.14846 -0.10113 0.018135 -0.093217 0.12246 0.022727 0.14912 0.063227 0.051265 -0.042038 
vegas -0.22038 0.11086 0.011332 0.0284 0.14938 0.015966 0.032051 -0.019365 0.12341 -0.0128 0.011754 0.044062 -0.042998 0.021985 0.081874 -0.074849 -0.084863 -0.015386 -0.078547 0.15392 0.071553 0.1836 0.10327 0.095787 0.021748 
task -0.31167 0.19039 -0.001325 -0.020099 0.28871 0.033854 0.030574 -0.017894 0.20639 0.0077423 -0.041651 0.10116 -0.14511 0.032513 0.14502 -0.13237 -0.16242 0.05023 -0.13139 0.14221 -0.011382 0.17127 0.050226 0.077707 0.078156 
criminal -0.23749 0.12519 -0.018442 0.031382 0.24336 0.066351 0.083262 -0.0070702 0.15267 -0.020432 -0.025101 0.029981 -0.05882 0.04521 0.11935 -0.11581 -0.12824 -0.029601 -0.065309 0.12797 0.048329 0.13151 0.0917 0.077188 -0.035776 
defense -0.2028 0.097586 -0.00364 0.021009 0.25148 0.055266 0.067301 0.027379 0.13689 0.0098952 -0.030845 0.041898 -0.076159 0.088698 0.092523 -0.18617 -0.12648 -0.030351 -0.068082 0.18248 0.063364 0.18337 0.074326 0.093358 -0.04066 
kbb.com -0.2331 0.070585 -0.02786 -0.0089824 0.19911 0.0025093 0.054236 0.017268 0.12699 0.036212 -0.038474 0.059267 -0.016099 0.070209 0.053237 -0.10346 -0.1232 0.021738 -0.089856 0.11827 -0.0079472 0.18869 0.11156 0.049032 -0.041496 
used -0.20578 0.072848 0.016362 0.015884 0.17391 -0.013881 0.09066 0.029256 0.15294 0.0072535 -0.041755 0.081583 -0.007396 0.091118 0.04931 -0.15304 -0.10791 -0.0018689 -0.078062 0.10455 0.027488 0.19034 0.075187 0.044642 0.003312 
orbitz.com -0.17754 0.089299 -0.038575 -0.020819 0.20497 0.029085 0.051467 -0.0070006 0.13342 -0.019835 -0.0027026 0.058762 -0.0078536 0.057189 0.053931 -0.17277 -0.092197 -0.021993 -0.11222 0.10775 0.039081 0.17005 0.11214 0.099707 -0.027535 
carrentals.com -0.25605 0.076651 -0.014337 0.020478 0.20774 0.054021 0.033062 0.001562 0.15102 -0.023566 -0.036217 0.015921 -0.055586 0.037831 0.077513 -0.11685 -0.08225 -0.0091326 -0.084426 0.16787 0.057836 0.16556 0.10471 0.12517 -0.041474 
airport -0.23808 0.057469 0.03616 0.035106 0.21803 0.022683 0.040996 0.02364 0.13956 -0.00040463 -0.035291 0.047823 -0.0099864 0.09895 0.085505 -0.16378 -0.12621 -0.02106 -0.13871 0.15038 0.046226 0.1738 0.096768 0.099167 0.014982 
moz.com -0.050688 -0.076215 -0.15332 0.16059 0.055909 -0.0054647 -0.024739 0.15811 -0.30941 0.071525 -0.11544 -0.10439 -0.048974 -0.08161 -0.10565 0.058833 0.064496 0.073331 0.049407 0.18178 -0.18145 -0.18937 -0.16773 -0.084036 0.16618 
homeadvisor.com -0.31383 0.14774 -0.037783 0.0055592 0.33007 0.031636 0.032762 -0.035551 0.19574 -0.067598 -0.040401 0.030845 -0.081357 0.073531 0.13002 -0.12519 -0.16928 -0.0025136 -0.13592 0.17741 0.025082 0.24286 0.025624 0.1057 0.06024 
me -0.26348 0.10899 0.0065091 0.024815 0.29794 -0.0099173 0.074466 0.0051272 0.16097 -0.037405 0.020103 0.081567 -0.1186 0.035545 0.17911 -0.12749 -0.16711 -0.036682 -0.10459 0.12511 0.047549 0.17838 0.075524 0.082602 -0.020834 
near -0.23451 0.13317 -0.010566 0.00087737 0.28587 0.015747 0.077505 0.00038854 0.16119 -0.063884 -0.055372 0.088409 -0.086589 0.10938 0.11441 -0.095784 -0.12435 0.022678 -0.13745 0.11329 0.046392 0.1924 0.077133 0.14011 -0.015271 
cleaners -0.28439 0.15849 0.0039995 -0.03408 0.29992 0.029928 0.041906 -0.0053073 0.19467 0.003564 0.0031802 0.067555 -0.1136 0.060807 0.13809 -0.15152 -0.15802 0.0073857 -0.13676 0.13684 0.062723 0.22082 0.035858 0.13288 0.019488 
house -0.28129 0.092042 0.016472 0.017632 0.28931 0.021268 0.055933 0.02719 0.15478 -0.058595 -0.0044252 0.034812 -0.12534 0.093652 0.12161 -0.12444 -0.12828 -0.035879 -0.16936 0.16129 0.063983 0.23127 0.038149 0.14695 0.0070438 
thumbtack.com -0.2828 0.16728 0.041624 0.034988 0.25145 -5.109e-05 0.029861 -0.00057919 0.15526 -0.067078 0.013695 0.061799 -0.11926 0.090128 0.11802 -0.09312 -0.11538 -0.023037 -0.14834 0.13136 0.018729 0.17815 0.079247 0.1361 0.044655 
francisco -0.28253 0.11083 0.013904 -0.033477 0.28274 -0.018232 0.02656 -0.0025118 0.18092 -0.029763 0.01432 0.084219 -0.066018 0.043155 0.13913 -0.11578 -0.17096 0.0056715 -0.14618 0.14169 0.066705 0.16916 0.054628 0.12498 -0.010594 
san -0.21345 0.13043 0.044476 -0.007946 0.2556 0.016429 0.086101 0.015884 0.14693 -0.0038861 -0.028524 0.064126 -0.087352 0.059575 0.13911 -0.15333 -0.11506 0.03114 -0.17562 0.15118 0.02773 0.1769 0.096897 0.14458 -0.0024603 
l -0.2305 0.11889 0.008318 -0.029938 0.25212 -0.029145 0.083598 0.015721 0.1719 -0.015057 -0.032171 0.018325 -0.11915 0.042986 0.14919 -0.11075 -0.1739 0.029941 -0.10627 0.14669 0.077181 0.17709 0.095331 0.1388 -0.01408 
engineer -0.2388 0.13668 0.036646 0.027142 0.23296 0.0078041 0.053403 -0.046768 0.1492 -0.010797 -0.024305 0.081296 -0.07256 0.081747 0.11305 -0.14911 -0.17672 -0.0074622 -0.15373 0.11941 0.034778 0.16049 0.091701 0.14292 0.01975 
q -0.27697 0.10593 -0.0046407 -0.036185 0.267 -0.014154 0.055582 0.029322 0.18862 -0.054681 -0.023869 0.073362 -0.064828 0.047686 0.17872 -0.087756 -0.15334 0.027251 -0.17607 0.16004 0.084926 0.18483 0.039769 0.1509 -0.033581 
jobs -0.22229 0.1314 0.061656 0.013103 0.23936 0.040972 0.039386 -0.048174 0.16292 -0.021534 -0.027885 0.024094 -0.060324 0.057045 0.13581 -0.097938 -0.15082 -0.033554 -0.14489 0.14162 0.040631 0.21733 0.099576 0.11718 -0.034212 
indeed.com -0.26546 0.1079 0.0063012 -0.021988 0.22502 0.025418 0.039619 -0.029854 0.2019 -0.021389 -0.03516 0.079195 -0.072282 0.1002 0.137 -0.12082 -0.12293 -0.037999 -0.10545 0.11132 0.020663 0.21527 0.08489 0.14329 -0.015808 
e9079 -0.17847 0.096865 0.035497 -0.01079 0.2385 0.038169 0.034636 0.022679 0.18242 -0.014119 0.0016523 0.052925 -0.033906 0.047735 0.12151 -0.12256 -0.14877 -0.039669 -0.080429 0.098268 0.019542 0.19689 0.09067 0.076574 0.00011342 
glassdoor.com -0.24584 0.069662 -0.019493 0.013857 0.19829 0.019408 0.082938 -0.039142 0.1348 -0.036217 -0.0068704 0.02117 -0.092411 0.073681 0.15471 -0.12532 -0.14583 0.0077982 -0.1313 0.15587 0.0468 0.13676 0.079204 0.078178 0.0028699 
smashingmagazine.com -0.037106 -0.081216 -0.12135 0.11449 -0.073513 0.17236 0.16765 0.2106 -0.28003 0.13758 -0.20054 -0.16123 0.33261 0.092619 -0.12787 -0.23731 0.086086 -0.079559 0.1592 0.18377 0.075286 0.018309 0.29435 0.016004 -0.15316 
year -0.0062351 -0.10249 -0.12288 0.17301 -0.038191 0.022442 0.067776 0.23391 -0.28425 0.14103 -0.17108 -0.1441 0.10772 0.021682 -0.16333 -0.12162 0.072144 0.032112 0.15494 0.23701 -0.054952 -0.079345 0.12185 0.019679 -0.0016996 
substack.com -0.054555 -0.041851 -0.18228 0.16084 0.02859 -0.015031 0.011356 0.16405 -0.32593 0.088674 -0.13469 -0.11884 -0.069694 -0.061998 -0.098961 -0.062719 0.020903 0.034581 0.096405 0.30712 -0.12001 -0.11551 -0.14444 -0.023886 0.14152 
the -0.03937 -0.046635 -0.16096 0.19021 0.041759 0.01815 -0.015723 0.22972 -0.37857 0.1344 -0.096139 -0.069893 -0.11354 -0.020161 -0.06881 -0.029848 0.062911 0.10999 0.070626 0.29503 -0.13864 -0.17249 -0.15257 0.0008317 0.17365 
of -0.054009 -0.046911 -0.21609 0.14401 0.016804 -0.030101 -0.0052105 0.22278 -0.36332 0.14635 -0.13379 -0.1251 -0.095385 -0.043873 -0.11787 0.0080337 0.029459 0.090107 0.071877 0.25045 -0.11276 -0.1228 -0.12258 -0.017511 0.17809 
writing -0.061731 -0.076746 -0.21251 0.13462 0.039691 -0.039343 -0.015478 0.22217 -0.35689 0.089462 -0.074859 -0.078281 -0.12169 -0.071922 -0.12795 -0.011444 0.041893 0.072987 0.12205 0.28497 -0.13522 -0.13348 -0.13244 -0.057213 0.19295 
css-tricks.com -0.047783 0.057257 -0.16456 0.16997 0.071458 -0.022064 -0.010338 0.16188 -0.265 0.18315 -0.12487 -0.05752 -0.017061 -0.015248 -0.11596 0.029464 0.06402 0.088205 0.093058 0.15351 -0.16228 -0.096781 -0.10347 -0.056433 0.26294 
complete -0.10635 0.066754 -0.22204 0.14951 0.042124 -0.011673 0.0064219 0.13437 -0.23533 0.16127 -0.093827 -0.044128 0.010903 -0.062336 -0.16468 0.056869 0.069546 0.13909 0.04311 0.14861 -0.23381 -0.13534 -0.1675 -0.11742 0.20506 
flexbox -0.067999 0.0081393 -0.19285 0.12991 0.038041 -0.068771 0.050595 0.1382 -0.26348 0.20685 -0.16242 -0.066582 -0.035554 -0.0067092 -0.14774 -0.012424 0.09023 0.12628 0.043315 0.15922 -0.17911 -0.065878 -0.13269 -0.12104 0.2548 
my -0.024237 -0.07214 -0.17578 0.13637 -0.074469 0.082819 0.065556 0.18438 -0.31738 0.16123 -0.17281 -0.12713 0.10269 0.0096974 -0.13994 -0.11498 0.10352 -0.021344 0.10865 0.17904 -0.07388 -0.065782 0.11659 0.011407 0.015834 
css -0.04001 -0.12591 -0.12577 0.090947 -0.11714 0.12983 0.19864 0.23024 -0.29976 0.10979 -0.16872 -0.11764 0.34668 0.095698 -0.099151 -0.2526 0.11853 -0.070409 0.19329 0.21003 0.072865 -0.0042273 0.34017 -0.0012346 -0.18212 
alistapart.com -0.060201 -0.052505 -0.16913 0.14712 0.00020129 -0.0062985 0.026844 0.20466 -0.36634 0.17976 -0.136 -0.14635 -0.042868 -0.046589 -0.12841 -0.02072 0.079431 0.11362 0.084169 0.2651 -0.1676 -0.13672 -0.077574 -0.0074431 0.13872 
responsive -0.077561 -0.071227 -0.1724 0.14996 0.053983 0.012989 0.063033 0.19267 -0.35263 0.11557 -0.12566 -0.13928 -0.03203 -0.016025 -0.11892 -0.034568 0.097135 0.11175 0.10956 0.27195 -0.13971 -0.086961 -0.052751 -0.02105 0.1606 
web -0.072077 -0.041757 -0.19654 0.1812 0.021262 0.010292 0.0038423 0.21987 -0.36137 0.14822 -0.15423 -0.079398 -0.011331 -0.010496 -0.14632 -0.026906 0.095244 0.063469 0.12795 0.24766 -0.12007 -0.11105 -0.075714 -0.079297 0.11331 
markmanson.net -0.034085 -0.11327 -0.16205 0.19149 0.017563 -0.038261 -0.00088878 0.21245 -0.31727 0.10217 -0.12132 -0.074576 -0.12487 -0.035034 -0.13082 0.02289 0.064365 0.098883 0.09297 0.28019 -0.12159 -0.10697 -0.085549 -0.017743 0.18707 
not -0.05552 -0.11733 -0.12687 0.18902 0.061742 -0.027669 -0.015806 0.16759 -0.3208 0.13556 -0.072322 -0.10523 -0.069852 -0.067825 -0.08588 0.019957 0.081071 0.079879 0.035153 0.2765 -0.12308 -0.12244 -0.12266 0.00017073 0.1817 
giving -0.045521 -0.039365 -0.16243 0.12161 0.0045456 -0.039179 0.012585 0.17181 -0.35618 0.10282 -0.11335 -0.10796 -0.095862 -0.019725 -0.12273 -0.011182 0.065014 0.07334 0.040188 0.20872 -0.17346 -0.16358 -0.10779 -0.023686 0.14334 
avvo.com -0.14239 0.075799 0.024356 0.028241 0.16023 -0.0073075 -7.928e-05 -0.018098 0.13367 -0.034108 0.010275 0.067907 -0.053553 0.024071 0.093258 -0.04443 -0.037628 0.027738 -0.045111 0.074602 -0.0016448 0.07041 0.057854 0.06176 0.024706 
johnsmith -0.0097795 -0.12778 -0.11917 0.12532 -0.042938 0.063304 0.1304 0.2316 -0.31301 0.16359 -0.16323 -0.11427 0.13584 0.032474 -0.096412 -0.16584 0.070418 -0.026668 0.095778 0.19412 -0.071818 -0.052476 0.12156 -0.033713 -0.028241 
medium.com 0.003109 -0.083538 -0.13627 0.12121 -0.082352 0.046949 0.10924 0.18272 -0.32686 0.15667 -0.11871 -0.10892 0.1228 0.056269 -0.15237 -0.12184 0.10527 0.0056521 0.1673 0.22865 -0.072361 -0.079353 0.12299 -0.020087 -0.022753 
copyblogger.com -0.043171 -0.041492 -0.17782 0.069203 -0.060369 0.087067 0.10417 0.20176 -0.20001 0.09114 -0.20916 -0.048367 0.31387 0.068334 -0.16957 -0.14766 0.044047 -0.034592 0.15255 0.12363 0.031112 0.03263 0.25272 -0.0076701 -0.11222 
media -0.049463 -0.032974 -0.18265 0.18669 0.032783 -0.075213 -0.075885 0.14755 -0.32186 0.066851 -0.12447 -0.060277 -0.18527 -0.063586 -0.076776 0.03194 0.031955 0.12184 0.062299 0.27966 -0.17555 -0.14436 -0.20675 -0.035577 0.19434 
social -0.057561 -0.066193 -0.16594 0.1611 0.10811 -0.068215 -0.019074 0.17179 -0.3387 0.10522 -0.059747 -0.11983 -0.19812 -0.10691 -0.067246 0.071126 0.051366 0.13351 0.027643 0.26987 -0.19279 -0.18629 -0.23613 -0.057407 0.23985 
resources -0.019019 -0.043965 -0.14512 0.12276 0.058039 -0.10221 -0.021676 0.10148 -0.32324 0.083176 -0.088854 -0.10178 -0.21699 -0.087612 -0.11733 0.050657 0.03269 0.11036 0.043286 0.24383 -0.16917 -0.16845 -0.24605 -0.08909 0.23151 
buffer.com -0.094184 -0.10957 -0.13106 0.12811 0.087611 -0.065949 -0.045376 0.1369 -0.27107 0.093637 -0.066853 -0.11621 -0.19855 -0.056073 -0.055856 0.090116 0.056893 0.12459 0.088861 0.24307 -0.19008 -0.17841 -0.24463 -0.089395 0.23444 
strategy -0.053626 -0.044258 -0.14217 0.14594 0.072835 -0.05282 -0.034006 0.047036 -0.24537 0.065957 -0.048902 -0.065723 -0.17965 -0.1113 -0.047414 0.072072 0.057899 0.14161 0.05724 0.19179 -0.12851 -0.16422 -0.21677 -0.07836 0.19766 
semrush.com -0.03525 -0.031619 -0.1609 0.10536 0.074393 -0.095195 -0.018043 0.12233 -0.23678 0.049035 -0.099617 -0.05673 -0.19346 -0.081279 -0.044076 0.074304 0.037313 0.10687 0.033265 0.15121 -0.13999 -0.15723 -0.25606 -0.060821 0.20687 
keyword -0.011668 -0.047728 -0.19325 0.16325 0.060774 -0.077598 -0.034545 0.10559 -0.31203 0.071104 -0.094215 -0.10456 -0.11654 -0.076244 -0.14105 0.094802 0.10741 0.14714 0.10869 0.24179 -0.2134 -0.18754 -0.19073 -0.055047 0.19957 
ahrefs.com -0.048861 -0.077058 -0.198 0.16944 0.077014 -0.033782 -0.04241 0.17527 -0.33478 0.092956 -0.082042 -0.050904 -0.16705 -0.086736 -0.13097 0.091561 0.091854 0.11501 0.074846 0.24663 -0.19426 -0.19496 -0.21156 -0.097816 0.21018 
seo -0.022084 0.0068 -0.17846 0.18527 0.069293 -0.079509 -0.12433 0.12585 -0.33278 0.13303 -0.11079 -0.093327 -0.22398 -0.13028 -0.14135 0.17092 0.09247 0.18608 0.094186 0.17049 -0.29354 -0.20197 -0.3871 -0.11498 0.35103 
backlinko.com -0.019642 -0.0053447 -0.20035 0.12138 0.082455 -0.13197 -0.11422 0.12197 -0.34228 0.076848 -0.086166 -0.079598 -0.25419 -0.13298 -0.091136 0.14185 0.041709 0.20849 0.08633 0.22692 -0.23802 -0.20401 -0.39342 -0.13103 0.37541 
update -0.004512 -0.012549 -0.20557 0.14655 0.014734 -0.024333 -0.018586 0.10617 -0.29201 0.10327 -0.061294 -0.065639 -0.11843 -0.075531 -0.075186 0.030095 0.04102 0.065721 0.085091 0.2184 -0.18826 -0.18506 -0.12904 -0.051346 0.15558 
algorithm -0.047856 -0.011546 -0.19124 0.17255 -0.013066 -0.0095541 -0.031858 0.15021 -0.26453 0.095793 -0.076849 -0.0846 -0.097684 -0.037954 -0.14894 -0.0074737 0.0861 0.08064 0.082149 0.22643 -0.14705 -0.12522 -0.16683 -0.10484 0.15124 
entrepreneur.com 0.054122 0.037442 0.024447 -0.002519 0.042092 -0.10009 -0.11313 -0.10664 0.098335 -0.082718 0.092608 0.017814 -0.17914 -0.070418 0.054399 0.12733 0.0048261 0.073218 -0.10062 -0.036052 -0.060727 -0.063729 -0.19816 -0.039376 0.11266 
immigration -0.0065315 0.030824 0.062039 0.058483 0.091343 -0.12259 -0.12989 -0.039883 -0.048821 -0.08372 0.096396 -0.0046873 -0.37076 -0.17832 0.047088 0.25156 -0.073105 0.1609 -0.10082 0.052756 -0.15625 -0.1075 -0.33699 -0.039464 0.26455 
policy -0.0052434 0.018724 0.05167 0.03323 0.11399 -0.17529 -0.18528 -0.10468 -0.039528 -0.044926 0.093644 0.0099657 -0.38298 -0.1497 0.045581 0.20287 -0.037615 0.095063 -0.089165 0.012063 -0.16023 -0.15177 -0.34019 -0.027034 0.27806 
nbcnews.com -0.026237 0.023724 0.0082725 -0.011782 0.12126 -0.089811 -0.11017 -0.035785 -0.019541 -0.039701 0.05946 0.0033806 -0.31608 -0.15186 0.087454 0.17555 0.0084924 0.13662 -0.088959 -0.0012981 -0.10048 -0.075502 -0.29675 -0.021403 0.22185 
california -0.043182 0.0011785 -0.00497 0.04285 0.07137 -0.093269 -0.14056 -0.047079 -0.040411 -0.009748 0.1024 -0.0010379 -0.36887 -0.15704 0.050753 0.1763 0.010516 0.12701 -0.053994 -0.012191 -0.16227 -0.12379 -0.31815 -0.0089891 0.2393 
wildfire -0.049299 0.037424 0.056177 -0.0028096 0.1056 -0.095121 -0.14369 -0.035606 -0.010568 -0.027563 0.099137 0.06573 -0.33262 -0.11998 0.026054 0.17812 0.0072678 0.095839 -0.10195 0.00011147 -0.11546 -0.075711 -0.29857 -0.043065 0.21976 
thehill.com -0.01718 0.0015961 0.079828 0.013803 0.09998 -0.063475 -0.10866 -0.085643 0.030979 -0.030707 0.086736 0.060119 -0.23928 -0.068339 0.041049 0.12599 0.0028173 0.069149 -0.096683 -0.041838 -0.054219 -0.040831 -0.24816 -0.037445 0.13589 
homenews 0.047784 0.074602 0.06848 -0.036693 0.088606 -0.072965 -0.14529 -0.098072 0.076486 -0.006161 0.083595 -0.0065393 -0.2462 -0.081188 0.024288 0.11695 -0.020417 0.068711 -0.082923 -0.0083944 -0.052579 -0.06644 -0.26442 -0.026802 0.17069 
senate -0.019503 0.024191 0.021142 -0.044678 0.092425 -0.11668 -0.088922 -0.060741 0.016474 -0.065351 0.095551 0.0058678 -0.23895 -0.089775 0.035068 0.12022 -0.015989 0.040314 -0.067787 0.0049591 -0.05378 -0.04424 -0.22447 -0.017638 0.19976 
biden 0.00064114 -0.015351 0.01522 0.033433 0.14892 -0.14496 -0.13357 -0.11268 -0.010494 -0.048601 0.094749 -0.017876 -0.4042 -0.11993 0.10818 0.20539 -0.048086 0.12758 -0.10792 0.0062487 -0.16348 -0.13012 -0.36225 -0.031026 0.27703 
starting 0.041028 0.037315 0.052656 -0.039639 0.094891 -0.094467 -0.096647 -0.090989 0.073435 -0.022312 0.13124 0.057272 -0.24451 -0.082419 0.04304 0.12833 -0.006757 0.028674 -0.095478 -0.061152 -0.086164 -0.03478 -0.20681 -0.0022828 0.12958 
business 0.04777 0.021418 0.036091 -0.024854 0.058793 -0.10005 -0.10843 -0.10405 0.030302 -0.067126 0.082442 0.063412 -0.25049 -0.070583 0.060127 0.14712 -0.003057 0.097332 -0.03521 -0.04803 -0.05146 -0.048208 -0.21694 -0.0080655 0.12736 
hgtv.com 0.0059662 0.047038 0.077462 -0.0056198 0.071763 -0.089395 -0.12638 -0.03041 -0.026953 -0.045898 0.12737 0.0002249 -0.34176 -0.16675 0.036956 0.22689 -0.054382 0.13359 -0.09039 0.069618 -0.12674 -0.14503 -0.29239 0.016394 0.26883 
living 0.01862 -0.021928 0.047529 -0.0040443 0.12042 -0.15484 -0.14738 -0.10068 -0.022931 -0.031805 0.13771 0.049359 -0.37303 -0.091555 0.099375 0.17431 -0.024817 0.11891 -0.05013 0.054549 -0.087218 -0.11985 -0.32151 0.0099091 0.25915 
decorating 0.01189 0.032254 0.081386 0.054318 0.14189 -0.14313 -0.16046 -0.043386 -0.014009 -0.021979 0.11017 -0.024956 -0.35177 -0.16554 0.063645 0.17094 -0.055561 0.13573 -0.099684 0.010963 -0.10926 -0.14698 -0.34748 -0.0054511 0.1972 
thespruce.com -0.017681 0.0062688 0.035082 0.030933 0.10769 -0.088388 -0.10961 -0.03957 0.045071 -0.00014063 0.10244 0.047694 -0.2423 -0.065866 0.062004 0.17182 0.012037 0.10082 -0.10865 -0.024044 -0.095408 -0.098797 -0.2745 0.0085027 0.17837 
indoor -0.024041 0.029092 0.051079 0.0075932 0.11417 -0.094609 -0.14983 -0.038716 0.040152 -0.035891 0.083243 0.030652 -0.24078 -0.059673 0.01953 0.12907 -0.023679 0.074459 -0.06916 -0.038196 -0.12358 -0.080523 -0.26573 0.02217 0.15326 
plants -0.0072844 -0.0041747 0.040344 -0.02601 0.11776 -0.09002 -0.10119 -0.02681 -0.003895 -0.028371 0.06962 0.028184 -0.28761 -0.13201 0.08866 0.13562 -0.04158 0.12245 -0.064397 0.0066269 -0.09345 -0.098071 -0.26697 -0.015378 0.15623 
foxnews.com -0.0081515 0.022145 0.017931 0.0019203 0.155 -0.15959 -0.14941 -0.052805 0.005098 -0.069911 0.14543 0.023608 -0.36992 -0.1298 0.10201 0.23329 -0.047065 0.11694 -0.13098 0.012581 -0.10135 -0.083232 -0.36485 0.037117 0.2798 
usatoday.com -0.00092714 -0.034794 0.020186 0.025624 -0.014809 -0.046066 -0.013343 -0.045508 -0.0095035 -0.042219 0.028062 -0.019255 -0.092984 -0.063118 0.034647 0.068724 -0.036357 0.038245 -0.013723 0.0021592 -0.062545 -0.021699 -0.12332 0.04308 0.064208 
america -0.021054 0.039761 0.041104 -0.0091495 0.017131 -0.046442 -0.093606 -0.039654 0.024345 0.0039032 0.035395 -0.0091568 -0.20335 -0.11642 0.087464 0.14889 0.014344 0.026835 -0.064058 0.032718 -0.026555 -0.099957 -0.19801 -0.0045501 0.096373 
archive -0.0032629 0.049316 0.030973 0.0074863 0.055074 -0.037715 -0.07954 -0.079503 0.017383 -0.024216 0.035319 0.04211 -0.18446 -0.082797 0.029061 0.10292 -0.061655 0.047463 -0.082414 -0.021339 -0.027704 -0.07086 -0.2182 -0.019247 0.16043 
theatlantic.com -0.02734 0.0091468 0.048205 0.03006 0.029929 -0.1038 -0.10249 -0.051123 -0.013885 -0.01791 0.046917 0.0025494 -0.19864 -0.11252 0.04745 0.12915 -0.0047378 0.029266 -0.092866 0.00036699 -0.058286 -0.024564 -0.17193 -0.0024197 0.14766 
people 0.019126 0.030185 0.0184 0.0050689 0.014322 -0.061717 -0.05653 -0.060613 -0.023323 -0.011015 0.063596 0.02085 -0.22178 -0.099002 0.066167 0.060846 0.00097234 0.024783 -0.016256 0.044138 -0.022165 -0.053186 -0.16038 -0.0097725 0.14146 
richest -0.028533 0.017055 0.042432 0.046343 0.077071 -0.048675 -0.11472 -0.017256 -0.0058845 -0.011155 0.027785 -0.015938 -0.14375 -0.057981 0.0056868 0.060255 -0.0075718 0.076827 -0.069056 0.02363 -0.086395 -0.08066 -0.13017 -0.016958 0.10575 
fortune.com 0.026522 0.018075 0.0048823 -0.018181 0.084412 -0.063352 -0.092284 -0.0054355 -0.030439 -0.0084445 0.070456 0.0036177 -0.18945 -0.075665 0.022358 0.11649 -0.0079896 0.024178 -0.056017 0.031136 -0.054424 -0.036749 -0.1668 0.011068 0.086712 
phones -0.0087956 0.0034549 0.00022338 0.017693 -0.006077 -0.038751 -0.037903 -0.004871 -0.019836 -0.043386 0.022406 -0.0076035 -0.096926 -0.036112 0.070867 0.077284 -0.0037342 -0.0084357 -0.013922 -0.0055283 0.0048047 -0.031784 -0.11927 -0.01191 0.045985 
android 0.055011 -0.0082474 0.017543 -0.031182 0.032101 -0.073861 -0.024865 0.00070598 0.035653 0.0081029 0.0084283 0.038748 -0.10568 -0.041445 0.01484 0.081884 0.020861 0.03386 -0.045691 -0.014755 -0.02648 0.0036264 -0.13288 0.0087814 0.10104 
androidauthority.com -0.018009 -0.03289 -0.001142 0.018954 0.04738 -0.0066283 -0.077928 -0.0027784 0.0016991 -0.022243 0.045354 0.038886 -0.13734 -0.053436 0.032327 0.069249 0.0080915 0.048726 -0.038316 -0.03672 -0.062306 -0.036914 -0.075578 0.038174 0.032246 
electric -0.035083 -0.0055439 0.067018 0.00063605 0.069253 -0.09364 -0.06763 -0.059604 -0.0077486 -0.038389 0.097787 0.027843 -0.23469 -0.088834 0.073622 0.14309 -0.018352 0.068529 -0.071016 0.039488 -0.098468 -0.057591 -0.24123 0.020397 0.19157 
digitaltrends.com 0.029314 0.047567 0.019146 0.04296 0.053472 -0.11936 -0.10416 -0.082154 -0.02332 -0.048175 0.055566 0.003734 -0.21968 -0.1009 0.057992 0.098495 0.0041195 0.078924 -0.085772 0.0040964 -0.044204 -0.081155 -0.22997 0.022807 0.17673 
gaming -0.016615 0.014713 0.00041289 0.02485 0.061469 -0.079173 -0.033455 -0.042924 -0.0004016 -0.023794 0.029832 -0.036483 -0.17411 -0.063583 0.045919 0.084894 -0.052973 0.059686 -0.0028754 0.06158 -0.039278 -0.076633 -0.16073 0.039351 0.11855 
tomsguide.com 0.038273 -0.020593 0.063866 0.028236 0.01387 -0.067808 -0.091629 -0.0057931 -0.021374 -0.038964 0.076645 0.01372 -0.18018 -0.087632 0.060854 0.0946 -0.0276 0.012189 -0.012999 -0.0086586 -0.0075763 -0.029542 -0.12085 0.01457 0.076977 
invest 0.10804 -0.28908 0.14335 0.028036 -0.076343 -0.041701 -0.079744 -0.070176 -0.17758 -0.28807 0.068211 -0.17834 -0.27159 -0.091412 0.17122 -0.017945 -0.08665 -0.10409 -0.06134 0.27284 0.19347 -0.10688 -0.034091 0.21646 -0.19215 
aetna.com 0.045248 -0.20845 0.088358 0.087779 -0.057402 -0.020462 -0.041627 -0.026633 -0.14037 -0.13612 0.087924 -0.11601 -0.15471 -0.04148 0.053936 -0.013514 -0.019538 -0.090969 -0.0041798 0.19662 0.13782 -0.038808 -0.00044446 0.12148 -0.1258 
progressive.com 0.050076 -0.20189 0.052145 0.062579 -0.08631 -0.020818 -0.047824 -0.01537 -0.071769 -0.079863 0.018052 -0.10176 -0.085552 7.1564e-05 0.057133 -0.062895 -0.016725 -0.10789 0.00059381 0.1759 0.069209 -0.057579 0.015471 0.078371 -0.10488 
homeowners 0.061297 -0.16254 0.1053 0.03289 -0.062781 0.00055486 -0.042977 0.055378 -0.12021 -0.11887 0.0070765 -0.079946 -0.11076 -0.037764 0.044889 -0.050997 0.0056684 -0.10334 -0.026902 0.16407 0.13983 -0.087387 -0.010563 0.12512 -0.082914 
allstate.com 0.047696 -0.1964 0.058373 0.079352 -0.024828 -0.0046862 -0.014788 0.033092 -0.11941 -0.084895 0.025246 -0.10755 -0.11967 -0.031981 0.044436 -0.060122 -0.061343 -0.076594 -0.019769 0.21024 0.12066 -0.016583 0.01906 0.15877 -0.14151 
cd 0.12607 -0.29332 0.10626 0.052355 -0.098465 0.021647 -0.043827 -0.0055089 -0.15607 -0.23046 0.081062 -0.1537 -0.21998 -0.061218 0.16271 -0.026011 -0.065034 -0.14267 -0.024823 0.30076 0.18204 -0.074103 -0.021022 0.18457 -0.19026 
yield 0.13698 -0.30099 0.1703 0.045618 -0.097793 0.017952 -0.084022 -0.0016205 -0.12161 -0.24216 0.12565 -0.13394 -0.23272 -0.10379 0.14643 -0.013789 -0.083453 -0.085063 -0.065967 0.30439 0.21421 -0.067638 -0.044453 0.18761 -0.16366 
high 0.11526 -0.29594 0.127 0.083736 -0.094952 0.037944 -0.098301 -0.015454 -0.17486 -0.18868 0.056349 -0.16958 -0.26168 -0.065955 0.15025 -0.045636 -0.066881 -0.10949 -0.066303 0.30344 0.15532 -0.11433 -0.047319 0.1732 -0.18224 
ally.com 0.079935 -0.26322 0.11124 0.026955 -0.097534 0.013971 -0.069526 -0.03289 -0.14084 -0.20095 0.11267 -0.14049 -0.26487 -0.040609 0.11858 -0.029452 -0.040676 -0.12827 -0.058749 0.27289 0.20084 -0.11527 0.014954 0.21311 -0.17812 
capitalone.com 0.095223 -0.22057 0.091667 0.086691 -0.037062 0.00062882 -0.024186 0.00062806 -0.082999 -0.11772 0.057041 -0.10079 -0.17116 -0.06298 0.089088 -0.079776 -0.06565 -0.040823 -0.0030082 0.19917 0.12035 -0.020267 0.01089 0.10795 -0.15798 
citibank.com 0.062871 -0.23359 0.072341 0.083959 -0.04542 0.031506 -0.011043 -0.014467 -0.13072 -0.1533 0.08195 -0.14374 -0.13419 -0.056088 0.068211 -0.044581 -0.01262 -0.071677 -0.048448 0.17929 0.11861 -0.056954 -0.026327 0.10229 -0.13492 
chase.com 0.097073 -0.31975 0.12626 0.071074 -0.11086 0.014885 -0.012202 -0.014834 -0.16677 -0.20199 0.067722 -0.12186 -0.19503 -0.095154 0.1471 -0.08389 -0.062551 -0.1361 -0.053622 0.22288 0.16389 -0.10995 0.0054031 0.19643 -0.23412 
checking 0.082177 -0.30439 0.10739 0.049653 -0.10116 -0.02199 -0.077744 -0.02594 -0.16734 -0.16764 0.060923 -0.18057 -0.22756 -0.064781 0.12695 -0.047993 -0.043115 -0.14393 -0.030691 0.24558 0.20914 -0.099552 -0.006376 0.20384 -0.17903 
bankofamerica.com 0.087667 -0.30439 0.13696 0.087923 -0.10849 0.0021331 -0.061725 0.004399 -0.15769 -0.16844 0.041335 -0.12722 -0.25719 -0.098646 0.1119 -0.037567 -0.046356 -0.11801 -0.0076487 0.26278 0.20996 -0.11332 0.018718 0.17907 -0.20268 
ml.com 0.084172 -0.26568 0.10308 0.082333 -0.037691 -0.0041 -0.0023167 -0.038941 -0.07484 -0.14414 0.040304 -0.12736 -0.15912 -0.081474 0.089791 -0.0083936 -0.056826 -0.063978 -0.04884 0.22648 0.13415 -0.086973 -0.021575 0.14313 -0.16178 
wipfli.com 0.23601 -0.6713 0.33754 0.18348 -0.15334 -0.047405 -0.19092 -0.038811 -0.3813 -0.5566 0.20392 -0.35592 -0.6991 -0.29105 0.28427 0.027383 -0.14011 -0.17596 -0.048128 0.6628 0.35846 -0.32327 -0.24159 0.38512 -0.26683 
revolution 0.012044 0.062698 0.032988 0.022797 0.064325 -0.075425 -0.11445 -0.068819 0.066189 -0.035155 0.11023 0.044157 -0.18318 -0.088933 0.028488 0.13212 -0.059007 0.10214 -0.073069 -0.018047 -0.063528 -0.089017 -0.1828 0.018863 0.16166 
americancentury.com 0.15364 -0.32876 0.18165 0.060376 -0.090089 -0.030592 -0.090138 -0.0093553 -0.1094 -0.242 0.12469 -0.11824 -0.30583 -0.12246 0.12698 -0.037803 -0.047866 -0.12419 -0.047269 0.2696 0.17931 -0.089065 -0.069405 0.18778 -0.21664 
statefarm.com 0.10283 -0.23489 0.11916 0.10368 -0.099445 0.016205 -0.055934 -0.03624 -0.093794 -0.1728 0.040919 -0.13546 -0.20032 -0.051924 0.11956 -0.043549 -0.039939 -0.1035 -0.0079613 0.27606 0.12786 -0.057682 -0.012298 0.14161 -0.16272 
northwesternmutual.com 0.07414 -0.20532 0.123 0.057804 -0.095612 -0.029247 -0.069569 0.014093 -0.10715 -0.14719 0.049242 -0.1424 -0.19169 -0.070831 0.099668 -0.02919 -0.091015 -0.087306 0.00040088 0.25686 0.15055 -0.081106 -0.053856 0.10846 -0.15026 
advisor 0.12375 -0.28396 0.13044 0.075819 -0.073422 0.012332 -0.068334 -0.023031 -0.15811 -0.21241 0.067653 -0.18711 -0.29723 -0.096127 0.10808 -0.011915 -0.080919 -0.14436 -0.053343 0.31235 0.20145 -0.13471 -0.10486 0.19788 -0.14474 
edwardjones.com 0.10279 -0.29386 0.12462 0.038784 -0.060237 0.016831 -0.12099 0.0070508 -0.16546 -0.22863 0.069248 -0.10843 -0.28436 -0.06963 0.13572 0.024083 -0.062803 -0.14326 -0.033861 0.3113 0.19262 -0.10987 -0.043055 0.20584 -0.17802 
morganstanley.com 0.12964 -0.24039 0.097702 0.074511 -0.085641 -0.010147 -0.086453 0.0050294 -0.092009 -0.20185 0.094656 -0.14981 -0.21975 -0.087416 0.12439 -0.066307 -0.085635 -0.087035 -0.026786 0.23611 0.15953 -0.11212 -0.029295 0.13083 -0.20171 
jpmorgan.com 0.067821 -0.27373 0.13358 0.036006 -0.12157 -0.038559 -0.076927 -0.030708 -0.15353 -0.26169 0.085633 -0.10985 -0.2521 -0.089545 0.13017 -0.044315 -0.087139 -0.13689 -0.056068 0.25001 0.15083 -0.13076 -0.0097773 0.20548 -0.21286 
investors 0.10741 -0.4129 0.15214 0.066175 -0.098402 0.0027383 -0.12178 -0.066955 -0.17762 -0.26863 0.090578 -0.17634 -0.32521 -0.15608 0.20894 0.028478 -0.11515 -0.098451 -0.038793 0.33352 0.19321 -0.16291 -0.048606 0.23087 -0.23344 
vanguard.com 0.12487 -0.38979 0.16344 0.073949 -0.083451 0.0036333 -0.080662 -0.00075344 -0.14232 -0.29487 0.10948 -0.2142 -0.3334 -0.14514 0.1342 -0.0022216 -0.12469 -0.1442 -0.076388 0.37894 0.19071 -0.17134 -0.048728 0.21171 -0.20907 
iras 0.13212 -0.36978 0.16267 0.07511 -0.093493 0.018514 -0.079928 -0.022048 -0.11659 -0.29707 0.11628 -0.14167 -0.2643 -0.13444 0.15541 -0.014711 -0.072645 -0.17195 -0.028257 0.30577 0.19551 -0.15407 -0.020132 0.16974 -0.23443 
fidelity.com 0.15068 -0.33787 0.19792 0.055527 -0.091289 0.023777 -0.080815 -0.023995 -0.14924 -0.23723 0.14948 -0.13765 -0.25169 -0.095701 0.14511 -0.053612 -0.097002 -0.14539 0.010087 0.25982 0.24038 -0.15477 -0.037987 0.2026 -0.18649 
investing 0.14189 -0.38364 0.16601 0.050766 -0.12929 -0.059384 -0.092714 -0.037788 -0.12404 -0.30016 0.15294 -0.14174 -0.32284 -0.15654 0.19466 0.0054709 -0.10504 -0.15297 -0.019174 0.35582 0.18171 -0.10669 -0.087181 0.19211 -0.1526 
schwab.com 0.14806 -0.34754 0.13879 0.0413 -0.13433 -0.04839 -0.073819 -0.017556 -0.15221 -0.26322 0.10865 -0.14477 -0.33791 -0.079863 0.18913 0.035814 -0.047591 -0.15178 -0.037348 0.30248 0.23308 -0.13018 -0.10436 0.205 -0.21476 
light 0.0077373 0.011224 0.059477 0.03672 0.086717 -0.13215 -0.12277 -0.059989 -0.0023431 -0.046076 0.095888 0.0036488 -0.26697 -0.092016 0.056677 0.17095 0.0061894 0.088061 -0.053854 0.027909 -0.097002 -0.10424 -0.21882 -0.0084093 0.21792 
low 0.040293 0.029055 0.049774 0.024166 0.12075 -0.07896 -0.087276 -0.066157 0.018641 -0.018433 0.10398 0.022498 -0.22704 -0.068684 0.060181 0.16255 0.0021752 0.12586 -0.046788 0.0042662 -0.11166 -0.099628 -0.25935 -0.018754 0.19826 
markets -0.033488 0.061359 0.010384 0.0084011 0.061776 -0.077212 -0.14992 -0.10806 0.082268 -0.0022329 0.10686 0.019916 -0.27319 -0.090157 0.047537 0.21036 -0.020849 0.12061 -0.081501 -0.051211 -0.11862 -0.068906 -0.23938 -0.07491 0.17353 
decision -4.9274e-05 0.028105 0.058962 0.02124 0.10478 -0.064091 -0.085556 -0.075266 0.010095 -0.0093364 0.088486 0.005465 -0.24173 -0.084743 0.060151 0.12501 0.0099396 0.10091 -0.055176 -0.017085 -0.058331 -0.075318 -0.22548 -0.0032361 0.18334 
rate 0.026703 0.036968 0.041338 0.0050662 0.066634 -0.059536 -0.098236 -0.10061 0.058966 -0.030556 0.051915 -0.013608 -0.23506 -0.093926 0.067785 0.18006 -0.060217 0.1285 -0.04835 -0.026626 -0.090119 -0.033025 -0.23379 -0.032206 0.2034 
fed -0.0086962 -0.0043047 0.00079883 -0.0075814 0.042941 -0.12389 -0.13324 -0.08088 0.06527 -0.056968 0.087188 0.035936 -0.2252 -0.099455 0.038045 0.15336 -0.028473 0.087703 -0.074039 0.026481 -0.073312 -0.03097 -0.20293 0.015154 0.15096 
cnbc.com -0.00064638 0.0099676 0.035345 0.012295 0.10381 -0.10058 -0.13463 -0.03393 0.060149 -0.055948 0.040717 0.02269 -0.2815 -0.061505 0.030859 0.14762 -0.030651 0.12371 -0.085268 -0.012449 -0.044274 -0.076549 -0.26556 -0.021772 0.19113 
work -0.010844 -0.0063993 -0.001849 0.015055 0.054874 -0.05051 -0.12255 -0.035919 -0.00037578 -0.041987 0.096521 0.011325 -0.20632 -0.11114 0.053591 0.1294 -0.0015246 0.11369 -0.053606 -0.039023 -0.064327 -0.035578 -0.1938 0.0047677 0.14841 
wired.com 0.019433 0.019047 0.06009 -0.022807 0.106 -0.11842 -0.064819 -0.062212 0.051095 -0.040138 0.1079 0.059722 -0.25094 -0.09973 0.029082 0.17052 0.012457 0.069132 -0.073091 -0.017605 -0.083037 -0.078076 -0.24796 -0.031744 0.18713 
funding 0.018166 0.011984 0.048047 -0.0053386 0.085084 -0.073982 -0.096082 -0.061303 0.014603 -0.0076283 0.1069 0.042102 -0.23879 -0.086505 0.06055 0.16451 -0.032528 0.092918 -0.10052 -0.017833 -0.068539 -0.058544 -0.25217 -0.02912 0.17815 
raises -0.030071 0.058909 0.054788 -0.0010526 0.095861 -0.10387 -0.14414 -0.06756 0.026468 -0.020303 0.05911 0.054885 -0.24839 -0.11174 0.052503 0.1612 -0.012559 0.090072 -0.10553 0.018723 -0.12461 -0.063488 -0.20998 -0.019842 0.15961 
openai -0.021301 0.013784 0.024242 -0.022094 0.11463 -0.13391 -0.1228 -0.076681 -0.0012462 -0.061651 0.10242 0.061332 -0.20865 -0.0914 0.02162 0.16807 -0.055365 0.098134 -0.044777 0.019598 -0.062583 -0.027963 -0.2591 -0.056588 0.21571 
techcrunch.com -0.039891 -0.0081656 0.046479 0.00081455 0.089472 -0.078006 -0.13015 -0.051191 0.047386 -0.058966 0.037143 0.043151 -0.2397 -0.10943 0.025841 0.12231 0.00903 0.066982 -0.092661 0.036746 -0.050241 -0.071874 -0.22934 -0.039007 0.15866 
sites -0.039498 0.019569 0.0096187 -0.015184 0.042501 -0.053517 -0.098426 -0.020477 -0.0021343 -0.060113 0.023305 0.0056453 -0.1905 -0.053533 -0.014166 0.11328 0.022031 0.070457 -0.04394 0.017386 -0.07535 -0.026743 -0.12262 -0.033447 0.10404 
forbes.com -0.026463 -0.026834 0.049224 0.014535 0.06015 -0.043164 -0.040945 -0.047279 0.036337 -0.027918 0.045569 0.035263 -0.18867 -0.0687 0.043119 0.070438 -0.055725 0.084306 -0.072704 0.040146 -0.016393 -0.02827 -0.13377 -0.03232 0.12008 
results -0.024721 0.045381 0.010098 0.033859 0.090652 -0.12158 -0.1142 -0.050171 0.068824 -0.048523 0.075499 -0.0018604 -0.23258 -0.13131 0.060849 0.1588 -0.066302 0.1138 -0.044224 -0.016892 -0.068257 -0.087816 -0.27708 -0.030331 0.14805 
apnews.com 0.0038149 0.033875 -0.0090576 -0.026187 0.08169 -0.12906 -0.10836 -0.059256 0.071376 -0.076762 0.11643 0.043404 -0.2132 -0.12775 0.073474 0.19252 -0.033244 0.087477 -0.082544 0.0029097 -0.064214 -0.068079 -0.20712 -0.056852 0.16416 
rise 0.014118 0.02046 -0.00079534 -0.0026141 0.094786 -0.10042 -0.10934 -0.065935 0.061799 -0.020071 0.04188 0.031943 -0.24443 -0.13338 0.035608 0.1957 -0.020539 0.070512 -0.10847 -0.055835 -0.082988 -0.031496 -0.28204 -0.073911 0.16112 
marketwatch.com 0.0060405 0.02785 0.022239 0.053682 0.10701 -0.13187 -0.14188 -0.11406 0.031876 -0.07063 0.12888 0.011206 -0.38247 -0.17078 0.016337 0.20559 -0.062401 0.12446 -0.066895 0.06155 -0.10996 -0.10571 -0.35842 -0.032448 0.27536 
reuters.com -0.023022 0.015774 -0.0034077 -0.037898 0.081756 -0.1106 -0.1501 -0.08131 0.031265 -0.047297 0.11179 0.05832 -0.28738 -0.086561 0.053209 0.14266 -0.029414 0.1209 -0.10736 -0.040014 -0.084891 -0.070776 -0.23925 -0.0092464 0.1932 
change -0.0075738 0.028833 0.043579 -0.017218 0.07282 -0.10145 -0.098288 -0.11019 0.067294 -0.050938 0.074231 0.062757 -0.20278 -0.097695 0.014741 0.12405 -0.056132 0.11587 -0.048584 -0.048767 -0.080502 -0.099993 -0.21921 -0.064129 0.17147 
climate 0.010087 0.061381 0.064127 -0.0071788 0.08866 -0.092559 -0.12613 -0.039795 -0.002874 -0.049759 0.10868 -0.0048244 -0.21036 -0.066889 0.018805 0.19896 0.011789 0.12488 -0.092307 -0.010813 -0.1227 -0.068211 -0.25318 -0.034289 0.18109 
apr 0.022354 0.023388 0.0047599 -0.031137 0.085931 -0.1217 -0.11934 -0.055118 0.044173 -0.0029492 0.070407 0.020291 -0.25488 -0.073766 0.0082599 0.15246 -0.062146 0.10489 -0.097676 -0.030515 -0.11602 -0.053979 -0.25626 -0.065397 0.16979 
theguardian.com -0.038272 0.008777 0.057747 0.041074 0.077709 -0.11114 -0.14099 -0.11334 0.01094 -0.055381 0.095368 0.04122 -0.23633 -0.077966 0.029856 0.15373 -0.0095786 0.086355 -0.043256 0.0060273 -0.096808 -0.077317 -0.25564 -0.032924 0.16428 
ukraine -0.028302 0.020282 0.052716 -0.0067218 0.078914 -0.09584 -0.077612 -0.083838 0.021368 -0.01605 0.079687 0.03629 -0.19118 -0.095091 0.00080773 0.17224 -0.042651 0.12432 -0.088804 -0.020372 -0.070629 -0.047297 -0.20851 -0.0060013 0.1395 
europe -0.0059849 -0.01179 0.041069 -0.020856 0.081647 -0.11765 -0.095862 -0.068895 0.043135 -0.070328 0.093084 0.063709 -0.23501 -0.0503 -0.0052045 0.15059 -0.053492 0.06056 -0.095879 -0.031918 -0.089028 -0.040388 -0.22135 -0.0028203 0.14555 
nytimes.com -0.026574 0.0072459 0.010979 -0.014467 0.076758 -0.10677 -0.10413 -0.10873 0.045373 -0.046771 0.032734 0.041735 -0.22071 -0.086847 -0.0054021 0.18741 -0.013372 0.056943 -0.075532 -0.0023229 -0.099758 -0.080534 -0.22142 -0.045924 0.16923 
vote -0.041971 0.032162 0.02658 0.032927 0.048957 -0.086107 -0.081509 -0.090304 0.059992 -0.054564 0.10606 0.06504 -0.21603 -0.095301 0.023034 0.20727 0.011215 0.12625 -0.06696 -0.022224 -0.12341 -0.057394 -0.26787 -0.027608 0.16646 
congress -0.0052137 0.032996 0.024312 -0.030728 0.10714 -0.063107 -0.12403 -0.063281 0.078116 -0.021822 0.072538 0.073238 -0.27217 -0.055181 0.01526 0.16112 -0.052434 0.1162 -0.093066 -0.021999 -0.085436 -0.080801 -0.21092 -0.0045709 0.1686 
cnn.com 0.00096043 0.061247 0.062871 0.029436 0.071078 -0.080318 -0.13511 -0.082682 0.038106 -0.030804 0.054066 0.073104 -0.23507 -0.079631 0.064232 0.17887 0.012158 0.0881 -0.074457 -0.045188 -0.083818 -0.051955 -0.27221 -0.063279 0.21545 
